#0
-0.0942510313463 0.013577281787
-0.0935029329139 0.0132904474658
-0.0897216791023 0.0123128212482
-0.087083624235 0.0100949885195
-0.0830419174114 0.0045384088974
-0.0797139234859 0.00547195068704
-0.0754436227174 0.0229916478685
-0.0721864188222 0.0178031458871
-0.0697757090514 -0.001066991508
-0.0673139949674 0.00251738038884
-0.0646498502902 0.0111189400551
-0.0614085850558 0.0120840256282
-0.0590060883264 0.00205869249484
-0.0560169660145 0.0238412399411
-0.0542549672547 -0.00875174185658
-0.0495015709834 0.00153127866026
-0.0467617056505 -0.010881445544
-0.0424384686681 0.00896815757652
-0.0397897594021 0.0141401448809
-0.0357269709344 0.015935913282
-0.0302037255166 0.0211801022729
-0.0256508542663 0.0122811688503
-0.0204826725747 0.0105231163043
-0.0158220918451 0.0170630414147
-0.00951017719769 0.0257740370887
-0.00418138839528 -0.0239965463761
-0.000675798854638 0.0157270364368
0.0044916899151 0.0153523752751
0.0103377026597 0.0198956248614
0.014850356001 0.000996572519128
0.019113112241 0.014424839759
0.0222198763246 0.0145760564389
0.0291879662151 0.00352513383155
0.0343417368752 0.00612322242378
0.0404888286168 0.00405710926771
0.0442932310679 -0.00577913321207
0.0498222064232 -0.0138520418537
0.0538413238169 0.00118464315551
0.058995133595 -0.00824530283465
0.0626255772442 -0.0177036066183
0.0645878250638 -0.0198920845189
0.0686614404653 -0.00643305566982
0.072785215802 -0.0254063897884
0.0768181667924 -0.0127478142695
0.080112767562 -0.0264255598502
0.0840135868581 -0.0168524567515
0.0871148431418 -0.0305028169349
0.090488206831 -0.0177487883799
0.0930577711759 -0.0231444886875
0.0946378307994 -0.020347203915
#1
-0.0984772873808 0.0224534298058
-0.0973815114773 0.0260689573093
-0.0940553970933 0.0215880279179
-0.0922176813959 0.0232712536259
-0.0880112315549 0.00950340022609
-0.0860907796721 0.0165282877924
-0.0813752663302 0.0395421527423
-0.0785884837019 0.0181998332543
-0.0744185488708 0.0237130048363
-0.0713207002238 0.00434406055566
-0.0673152494192 0.0382457780495
-0.0638051939793 0.0122142208701
-0.0610751843759 0.00757303323108
-0.0575577192064 0.00471213014294
-0.0543345069068 0.0243248203384
-0.0495371519215 -0.00337303612547
-0.0456665258238 -0.00680708809556
-0.0407292062763 0.0227330360735
-0.036458279189 0.0197305332809
-0.0321055148982 0.0144054671754
-0.0270547028251 0.0379506395969
-0.0228273855014 0.00881681272406
-0.0186134351101 0.0395230232139
-0.0143245833843 -0.0110873171584
-0.00894686942448 0.0278917433478
-0.00529025077616 -0.0169302611494
-0.00111910643252 0.0192789729726
0.00349090192809 0.00181845662754
0.00808167603743 0.0161128748585
0.0122481450097 -0.00133071939041
0.0158687173492 0.0202141449179
0.0198843283535 0.0117152893417
0.0244921852319 -0.00938640200145
0.0286651695953 0.000973987430966
0.0329739534422 0.00424058798284
0.03776567228 -0.0326992135781
0.042260224219 -0.017119006373
0.0458017331398 -0.0215545593111
0.0500967388116 -0.00948845931764
0.0545401503624 -0.014698655162
0.0563025575777 -0.0286707801081
0.0616956943216 -0.0234491236796
0.0650908242374 -0.0236413296899
0.0695421743095 -0.0232153930955
0.0729477732439 -0.0339904622053
0.0766826801924 -0.0293087055845
0.080577835214 -0.0366730654646
0.0833770360518 -0.0348774992211
0.0873832063828 -0.0342175501076
0.0889443422649 -0.0355669652275
#2
-0.10528383271 0.0443983237704
-0.10388832147 0.0505973121887
-0.0993773082695 0.0415195746622
-0.097365460024 0.0483754401189
-0.0934385062516 0.0248945674846
-0.0911612006393 0.0316449750271
-0.0860890242235 0.0380335582894
-0.0826176588051 0.0335635988399
-0.0783413979278 0.0377953308446
-0.0747688617085 0.0119782189645
-0.0707272682684 0.048351332519
-0.0659905343243 0.00154394033584
-0.0630096863845 0.0274801205158
-0.0592479949654 -0.00246463380839
-0.0550122710337 0.027283253322
-0.050365269757 -0.0104888738683
-0.0450764677562 0.0237841521461
-0.0400373349267 0.0219556049864
-0.035273742143 0.00522045227429
-0.0305873558314 0.000368814514386
-0.0255692640687 0.0501590646946
-0.0212124929385 -0.002123347004
-0.0156864205625 0.0207389869742
-0.0110115430721 -0.0270630442655
-0.00547969806414 0.0349786077919
-9.81898983162e-05 0.0110425036057
0.00525447003443 0.0221628710125
0.0102117298364 0.0139928749544
0.0136519149095 0.014189714638
0.0170050598468 0.00699860771248
0.0217699572812 0.0258231227726
0.0272529027629 0.0122679636386
0.0312740255395 -0.0356724677985
0.0353459082871 0.0175120554905
0.04052801051 0.00281242332751
0.0462317058944 -0.0401081773605
0.0516476369206 -0.0151125643315
0.0557148219847 -0.0195292975883
0.0605934304771 -0.0281963126092
0.0665667644502 -0.012420801429
0.0687563186645 -0.0245505034201
0.0753060358959 -0.0459729225347
0.0794891611971 -0.0243098975965
0.0838714502963 -0.0314838024446
0.0871436810219 -0.0327481601759
0.0911356424817 -0.0418608795604
0.0956278931605 -0.0393474391422
0.0982482567099 -0.048905183503
0.103053588498 -0.0416274975444
0.104617978979 -0.0437547796699
#3
-0.11152694476 0.0644647126139
-0.108417806882 0.0705596843838
-0.104160459216 0.0606861263371
-0.100194352643 0.0598595854479
-0.0970638909128 0.0540848316774
-0.0937515259323 0.042245124008
-0.0881085151534 0.0397366056742
-0.0845483818327 0.0637452634089
-0.0796664781457 0.0321714104433
-0.0759918966089 0.0291330195831
-0.0710712723949 0.0542788537099
-0.0660750149005 0.0154806324552
-0.0630469882113 0.0320252804833
-0.0588365598428 0.000265089877473
-0.055271596192 0.0345799034506
-0.0485940791694 0.00179464398614
-0.0448860387692 0.0310793816116
-0.0386458696562 0.0175245755548
-0.0349289194709 0.0158373227695
-0.0300975534146 -0.0222033425406
-0.0259235129802 0.0521699554862
-0.0216615983554 -0.0152190275101
-0.0153524492967 0.00516639106053
-0.0101717809908 -0.0293432238395
-0.0042346746548 0.0323961418918
0.00215358632008 0.0100547800402
0.00798850194608 -0.00724334244196
0.0114083618078 0.0355708791005
0.0155523300713 -0.00574662232196
0.0190917377618 0.0222442271526
0.0253496088024 0.00562469225743
0.0313896225648 0.0120478958521
0.0375553653552 -0.0428964542486
0.0418317828793 0.0118565950629
0.0481143641329 -0.0152599702793
0.053574018793 -0.0323890124376
0.0593889395542 -0.0348702679731
0.0621564325705 -0.0112637987882
0.0673466170384 -0.0363792349796
0.0734005449868 -0.0354389602345
0.0775305506866 -0.0216088623538
0.0826937133312 -0.0653095417321
0.0877163477479 -0.0284583737512
0.0922605608013 -0.0472245726819
0.0944637674966 -0.0459797085902
0.0985791339896 -0.05545576001
0.104469172648 -0.0659461410823
0.107543727942 -0.0562755718743
0.112402832338 -0.0600543194596
0.114763713556 -0.0556984296408
#4
-0.117507175581 0.0737945362178
-0.114450508821 0.0818818112725
-0.109096450333 0.0688156073432
-0.105028398072 0.0743100210846
-0.101774292552 0.0613050429884
-0.0985799750512 0.0486911328862
-0.0924887614992 0.0537372368828
-0.0886678900832 0.0666923512458
-0.0833363679176 0.0464925098771
-0.0798144704502 0.0341573930298
-0.0740210148694 0.0613000183742
-0.0696322423339 0.020105285677
-0.0664121909673 0.0351253638318
-0.0611762907476 0.0153508589612
-0.0569160066835 0.0310986514918
-0.0498549718183 0.0161272766862
-0.0458661268323 0.0315474765594
-0.0396842481896 0.0131115697792
-0.0355691585195 0.010036658642
-0.0312450859071 -0.00515730449575
-0.0253528660867 0.0430837196752
-0.0211452222257 -0.000321738772414
-0.015220855614 -0.00330678060111
-0.00967621923989 -0.0342230643044
-0.00341670340763 0.0432967730252
0.00376766326605 0.0034546228848
0.010183179309 0.00908380849175
0.0150451676076 0.0224679933444
0.019277693535 0.00786733143093
0.0234278894916 0.00968490742063
0.0292144898522 -0.00727240335043
0.0351430880739 0.0196442153229
0.0418969142564 -0.0326347616308
0.0454058122471 -0.00422627915689
0.0519336897696 -0.00781402025603
0.0567464118615 -0.0295353352704
0.0625743179441 -0.0286400968695
0.0655959896591 -0.0242544764527
0.0721349365403 -0.0359121737985
0.0773685829534 -0.0458644584334
0.0827265397395 -0.0345215075568
0.088013113509 -0.0604494942552
0.0931497827765 -0.0298476045708
0.0974896651543 -0.0582521879678
0.10056846838 -0.0453256530165
0.105104566484 -0.0580067118581
0.111242026346 -0.066878972585
0.113930927317 -0.0661047316244
0.118328760477 -0.0654576580022
0.121951559899 -0.0628489917581
#5
-0.131384452919 0.0724146886212
-0.128116601087 0.078047602519
-0.12113975676 0.0674133811146
-0.116467973606 0.0714078557265
-0.111555653619 0.0602696234608
-0.107347689496 0.0438517043998
-0.100755358577 0.0622183057937
-0.0966418377246 0.0832804687642
-0.0915203785698 0.0306586831678
-0.0879168504458 0.0368215819495
-0.0825147556172 0.0500394059664
-0.0784042567604 0.0266822581998
-0.0749961591254 0.0337425916328
-0.0693413256973 0.0200781789863
-0.0647583939672 0.0395929293635
-0.0585976527083 0.00157987537389
-0.0525332125633 0.0377459080993
-0.0448769785354 -0.00199405275159
-0.0416649486309 -0.00970623787688
-0.0369567071484 0.0095206634438
-0.0299350452745 0.0205872411279
-0.0257707306554 0.0138156196781
-0.0185609445164 -0.0271082915958
-0.0129213074022 -0.0191941790182
-0.00569271073086 0.0217918577159
0.00279006105732 0.0192895829606
0.00933233969565 -0.0121888124488
0.0157011073419 0.0367796603966
0.0201533316467 0.0147656718614
0.0249597643251 0.00237124543727
0.0323507930375 -0.00304995802558
0.0397992428272 0.00577555861949
0.0477754282596 -0.020130113848
0.0522903017964 0.00582846794622
0.0586006710283 -0.0208454956186
0.0638680996595 -0.0260496833931
0.0720465711192 -0.0365236386075
0.0755586133466 -0.0207262544331
0.0837595610968 -0.0472487945487
0.0893860477891 -0.0424818576771
0.0946913482548 -0.0288581053775
0.100098223997 -0.0682558947198
0.106632335214 -0.0241380167956
0.111529386461 -0.0656403722022
0.116787907947 -0.0374842660138
0.12178663033 -0.0663422981771
0.129211090817 -0.0619764726714
0.13215772282 -0.0748668297029
0.137319290174 -0.0651799495159
0.141219650487 -0.0673598780663
#6
-0.154359690679 0.0794774945702
-0.150526901812 0.0879945935109
-0.144037600855 0.0713207424254
-0.135457508232 0.0797385112065
-0.129792722429 0.0587260770194
-0.125647398254 0.0601620488288
-0.11788757609 0.0686457952323
-0.11364798783 0.0887273938442
-0.107170339658 -0.00904666762644
-0.102738135417 0.0248486570043
-0.0960999803338 0.00917914892534
-0.0922808682565 0.0229140844898
-0.0885668414057 -0.0131380379418
-0.0821663274513 0.052638280597
-0.07659969058 0.00238755623935
-0.0697456517332 0.0113392743031
-0.0624247930302 -0.0218908763287
-0.0553677802602 0.0143712525187
-0.048738722812 0.0270568569633
-0.0432333200224 0.0508823273616
-0.035150129172 -0.0322062060519
-0.0300406459348 0.0375225221591
-0.0234260517983 -0.0422248790822
-0.0157781869549 -0.0306493508259
-0.00921407815986 0.0109875493099
0.000803718696584 -0.0256756882047
0.00561906439517 0.00211292676062
0.0137081870195 0.0133663411615
0.0188603633928 0.0167177929331
0.0255271286882 -0.0273405711667
0.0321233086416 0.00708087256683
0.0390513946079 -0.00648051165492
0.0478419536013 0.0243690093566
0.0546335867377 -0.0097937047892
0.0594796110078 0.00436908232845
0.0671060429077 -0.0183098882658
0.0781405022634 -0.0241564593898
0.0828759238757 -0.0128195488865
0.0900647990961 -0.00802162269213
0.0974233122394 -0.0351791416989
0.104445639858 -0.050763836955
0.11042507509 -0.0458474116255
0.115996630269 -0.0323275505747
0.122048505981 -0.0520217985056
0.128228821947 -0.0459016406065
0.135772643089 -0.0631166414136
0.143951364473 -0.0606426894807
0.152424468287 -0.0787190023552
0.157758029658 -0.0662307234032
0.161738647047 -0.0685790463095
#7
-0.184049759245 0.0792717140683
-0.18001595589 0.0919305567703
-0.171913441957 0.0679596074852
-0.162700271618 0.0857106847392
-0.155109171987 0.0631856665652
-0.148809760971 0.055513382352
-0.140435067451 0.0639839433134
-0.135683549036 0.0865606785775
-0.129487094155 0.00215546208768
-0.125479510711 0.00282775156914
-0.117361071459 0.0325580404729
-0.112351148379 0.0121238244686
-0.107117020693 0.00999766773008
-0.0995164406451 0.0401633238958
-0.0922141981988 -0.00329410038435
-0.0854065546723 -0.0113479610317
-0.0772770919871 -0.0199769957307
-0.0696388166733 0.0156298496996
-0.0622866053311 0.030071560577
-0.0552058277317 0.0192681442444
-0.0468003991384 -0.0277297010627
-0.0381254845378 0.0322563766019
-0.0319900139234 -0.0242686919215
-0.0235552148877 -0.0163773325277
-0.0175955184002 0.0022170639317
-0.00740557431516 -0.0301318684771
1.27964399028e-05 0.00509013159717
0.00927316484597 0.0312278843297
0.0195613599907 0.00204646439164
0.0259520457575 -0.0200833215547
0.036140766891 0.0196191464589
0.0417144870749 -0.017417605019
0.0517182175216 0.00150801431773
0.0588250409299 -0.0129274796373
0.0669606539763 -0.00992379371093
0.0766799501483 -0.0122289530753
0.0906223306112 -0.0316221762894
0.0961083320729 -0.0127730330514
0.107095141534 -0.0285388332391
0.114978869738 -0.0162522491358
0.125328617343 -0.0378393737982
0.131450814266 -0.0445479394662
0.138690653617 -0.040877594596
0.143334693425 -0.0375301449711
0.15223838868 -0.0604155227933
0.159255277438 -0.0527074298986
0.16806693045 -0.0744008687388
0.178130068424 -0.0716099367714
0.183457517869 -0.0791946673558
0.188056211985 -0.0702255471282
#8
-0.178174350634 0.0421183041339
-0.174167416177 0.0547687187013
-0.16785045518 0.0382802632187
-0.163377920716 0.0433128674629
-0.155940756857 0.032175918446
-0.149116554149 0.040785104973
-0.141951005631 0.0479310052867
-0.136111607528 0.0436923570058
-0.129393024699 0.0177974132949
-0.124698683804 -0.000815526190846
-0.116459209248 0.0656097474319
-0.109094424938 0.0326920257477
-0.102376862058 0.00311685308442
-0.0944355956598 0.00678217389865
-0.0869649556609 0.0291109734772
-0.0797158449089 -0.0145966329554
-0.0709531599375 0.0199048379227
-0.0634098140389 0.0264278344906
-0.0557450359387 0.00317357001646
-0.0491548619599 0.0108243800161
-0.0402292261903 0.0146175744529
-0.0324252633905 0.0305864908908
-0.0252353452484 -0.00719899596048
-0.0182693284515 0.00182960778652
-0.0117906704965 -0.00172409985975
-0.00390545794577 -0.0234032192678
0.00416736928262 0.0195891894896
0.0127251392348 0.0181223902559
0.0223344161239 0.00260706676568
0.0283435901445 -0.0371714452907
0.0383627515362 0.00198179938349
0.0432260207234 -0.00335678262184
0.0525574187299 -0.0176368983273
0.05820995143 -0.0115801218015
0.068018053448 -0.00291332897991
0.0759078575469 -0.00441194609049
0.0872430936019 -0.00959771935794
0.0915868690321 -0.00873314960064
0.10356178698 -0.0274204043547
0.10808590682 0.00250021202969
0.11762856052 -0.0298865585469
0.124806375091 -0.0139936204293
0.133141432835 -0.0396405463771
0.13909182769 -0.0153263627866
0.148212285572 -0.0511885113438
0.152426781772 -0.0255596689122
0.160650848716 -0.0506979627503
0.165650172031 -0.0375849924048
0.172322523246 -0.0491415821487
0.176540289246 -0.042962247278
#9
-0.18626946313 0.0215130131746
-0.181459104357 0.0429782089339
-0.174963677229 0.0303828834182
-0.170039511105 0.020424966277
-0.161136765909 0.0141684003028
-0.154407745669 0.02774357196
-0.148457201234 0.0358739695266
-0.142854458533 0.0207327570995
-0.137732345596 0.00638991992559
-0.13192563904 0.00280438416447
-0.123033846028 0.0555720562382
-0.113945330058 0.0330330919157
-0.106826612115 -0.0143953258625
-0.0981551437303 0.0149111430852
-0.0880172711582 0.019323136991
-0.0808973423842 -0.0032611035942
-0.0707338163832 0.00554707833366
-0.0635382277948 0.0246366024426
-0.054966704738 -0.0200706919955
-0.0488207469122 0.0126151851736
-0.0390260735173 -0.00559268661853
-0.0312735914446 0.0273231858244
-0.0222727689772 -0.0202311844023
-0.0143340028196 0.00943753979549
-0.00555009695413 -0.0240864486375
0.00319679594608 -0.0113456217974
0.0124888697145 0.00707349275465
0.0188433824411 0.0171795198602
0.0296243020908 0.0067845378523
0.0358298278123 -0.0343122121746
0.0481375224797 0.00695576519419
0.0531660922595 -0.0203092565873
0.0624435348203 -0.00411966537484
0.0676598645008 -0.0178629763647
0.0772148997665 0.00938132932853
0.0842276294794 -0.0197682144962
0.0955049234095 -0.00525909900282
0.0997119876306 0.000400347277274
0.112806689247 -0.0313875519855
0.116342923437 0.010979003254
0.127923396852 -0.0116159995531
0.134602417869 -0.014186623923
0.142781831426 -0.0221060958654
0.149715988673 -0.0149523531022
0.159115107521 -0.029506159839
0.163900597005 -0.02341554159
0.171192699143 -0.0365513099123
0.177986796985 -0.0251952646913
0.184184800898 -0.0356789917883
0.18885973276 -0.0307000923835
#10
-0.208164734472 0.0292984144925
-0.203241920104 0.044966488844
-0.194933583475 0.0288998411679
-0.18667474643 0.0277788677298
-0.176650917746 0.0201389916695
-0.170344368201 0.0279027408095
-0.156575920668 0.0309129988142
-0.149372654428 0.0410571669903
-0.142448114234 0.0154355786134
-0.135507918218 0.0206770411592
-0.125751404927 0.0227374786063
-0.117779150187 -0.0134302344104
-0.111102891434 -0.0189984940235
-0.103281704102 0.0394524262276
-0.0937188038687 0.0174171895332
-0.0857294402003 -0.0201428797649
-0.0769418466018 -0.0398813829421
-0.0698508421571 0.0342755279369
-0.0617635477891 0.011542809551
-0.0538108633604 -0.0284868060194
-0.045045301223 -0.0515774464906
-0.0367007488419 0.0421073193193
-0.0291735793192 0.00253931049541
-0.0181092664839 0.0211447308204
-0.005172792635 -0.0363805520679
0.00318748511376 -0.013409154083
0.0138144834034 -0.0384561705671
0.0193773240861 -0.0174750274499
0.0302193011261 0.0134683453844
0.0362538432666 -0.015094761727
0.0491739832132 0.0202623430175
0.0556697870236 -0.0157303758108
0.0663525596478 0.01138939396
0.0728645659357 -0.0181584335368
0.0811974247325 0.00695429167908
0.0888227692977 -0.00988925922311
0.0998556798125 -0.015584681635
0.10553751642 0.0092871668486
0.118918011646 -0.0242570501712
0.122348788408 0.00940575399833
0.134709247367 -0.00640506370519
0.13962597285 -0.0149923576274
0.150590387428 -0.014180154085
0.157397128639 -0.0220371858533
0.175352349803 -0.0163758257779
0.183471560798 -0.0280445369894
0.190705135713 -0.0232691739234
0.198359942473 -0.0216468141037
0.205086203926 -0.0299279016063
0.209410764307 -0.0240568830409
#11
-0.220253069061 0.0485873866756
-0.213248070673 0.0545983311435
-0.20321191202 0.0424200241039
-0.191392249522 0.0426327587907
-0.179463657853 0.030140423479
-0.170904070994 0.0324431570283
-0.15647203109 0.0277243114766
-0.148448749006 0.045831057102
-0.141374565844 0.00868781933515
-0.133418485156 0.0153558023971
-0.125080824733 0.0127287334737
-0.117841115686 -0.023011744507
-0.111243310194 -0.00119210144497
-0.100823116001 0.0290267599088
-0.0921465093029 0.0279643150563
-0.0817254502496 -0.0285835129647
-0.0727035344738 -0.0302876365694
-0.0645192834612 0.0282856983891
-0.0553688330528 0.0271443174434
-0.0465473903298 -0.0351060579007
-0.0372464441542 -0.0248439301012
-0.0283473747282 0.0276938479732
-0.0196499915274 0.015317166958
-0.00853073269691 0.027074709644
0.00425023791768 -0.0254235574219
0.0126908995302 -0.0149437862703
0.0223060626153 -0.0204441687507
0.0291838022284 -0.0190617335949
0.0395759201408 0.00177858087713
0.0470325570542 -0.0154474694036
0.0590143251257 0.0128141177095
0.0666561998027 -0.0209752250175
0.0763693815592 0.00705098112989
0.0841400736413 6.40149326341e-06
0.091894568785 -0.000576946570275
0.100335048977 -0.0231213223655
0.113484918809 0.00328894588358
0.122498661947 0.00550199604556
0.136243304299 -0.00801289559207
0.142179508612 0.00802428024112
0.152501387209 -0.00960600091809
0.158028366962 0.000507643346568
0.166681544295 -0.0126065898463
0.175482331982 -0.00880317741256
0.19146593664 -0.0165869200935
0.200536131813 -0.0329527391062
0.209561257344 -0.0253014200401
0.218009698145 -0.036534911491
0.224871837621 -0.0337266279711
0.230318472532 -0.0354625672977
#12
-0.243357949139 0.0579097125668
-0.223053065109 0.0545009279204
-0.213579820763 0.0484094998962
-0.198350711309 0.0467057398563
-0.184390502947 0.0270333506452
-0.173986457503 0.0211981925227
-0.163786749547 0.00710534447459
-0.156426385589 0.0382144804484
-0.150277858544 -0.0111967140524
-0.143152216349 0.00412199003863
-0.13615874654 0.0270588690135
-0.122319594672 -0.00681116592033
-0.114557529944 0.00375700754275
-0.102718947346 -0.000875500317333
-0.0925154204962 0.0207407007398
-0.081023705261 -0.0115404949944
-0.0659825256337 0.00685592109869
-0.0550184224357 0.0234989094826
-0.045878640803 0.0214043501127
-0.0364917387926 0.000148307578104
-0.0277774312393 0.0163195834654
-0.0154157021009 0.0165643611266
-0.00656176040271 0.00639801960315
0.00465450434583 0.0205637874971
0.0146324026984 -0.00156644165562
0.0241464275378 -0.00722575858399
0.0323722846424 0.0171831996406
0.041020837028 0.0122895647043
0.0522056965315 -0.00155397498524
0.060917741922 0.000311007022808
0.0740691540044 0.00983249177267
0.081581334477 -0.0609269970086
0.0903293786166 -0.00101099955972
0.0991563139087 -0.00732099855458
0.109034725522 -0.0142904364545
0.117745721754 -0.0266850647983
0.132806743725 -0.0033684622591
0.141785235945 0.0156750808854
0.156657052741 -0.0240619800793
0.163872591674 0.00216774753391
0.173024943163 -0.00810706918205
0.182496455678 -0.0237486989568
0.188366415142 -0.0222676688489
0.197075915908 0.00909804646525
0.20482004295 -0.0143493162276
0.213950164663 -0.0439098317848
0.222725451787 -0.0468372703484
0.23274201767 -0.0527103666539
0.238724204398 -0.0300746842788
0.244798519859 -0.0322179787861
#13
-0.265108081991 0.064313836221
-0.230292235205 0.0498468995589
-0.22356126291 0.0466283906096
-0.201395367771 0.0467460552133
-0.182311898934 0.0115184475709
-0.173676876552 0.0181099495859
-0.15931553782 -0.00328072891445
-0.151295048513 0.0217778020563
-0.140740991533 -0.0312277200253
-0.133133731892 -3.23333299268e-05
-0.125338762994 -0.00284979289016
-0.105791074602 -0.0158870292672
-0.0951811392425 -0.0234390909586
-0.0865514140521 -0.0153788169684
-0.0759367591128 0.00925721987308
-0.064088513718 0.000214230847075
-0.0430786096939 0.0178012208396
-0.0303368658092 0.0347356076319
-0.0216948171598 0.0204196739445
-0.0117934740942 0.0543260803932
-0.00378325243391 0.0187600414884
0.00918225931239 0.0353321447851
0.0178844165961 0.0192112630478
0.0295484926948 0.0272795967311
0.0397291276431 -0.00534644647179
0.0467328118921 -0.000962605293524
0.0526577906939 0.039950073732
0.0615115699225 -0.00483358907713
0.068552408922 0.0149631881579
0.0770136418882 -0.00656961273149
0.0873042656909 -0.00598346258407
0.0962887492402 -0.0451299289707
0.106548894786 0.0147110235042
0.114166388494 -0.0157258104929
0.126592444444 0.0220571093239
0.13540647777 -0.00810195532329
0.154046419073 0.0104360383576
0.165518770998 0.0318375604042
0.179239612053 -0.00347826495631
0.187262578273 0.00490928365898
0.193081147577 -0.00404708812956
0.208253141863 -0.0228688019737
0.216012795896 -0.0153741101125
0.224928772429 0.0336644387371
0.232576584709 0.0334810275618
0.245552369315 -0.0412406766636
0.254083965747 -0.037671843054
0.263490393821 -0.0468901899299
0.269893437693 -0.000879887471269
0.276054421265 -0.0089278155609
#14
-0.293788398113 0.0697303231537
-0.258761208587 0.0638034579141
-0.252041976372 0.0710846776298
-0.229597089919 0.0438615030771
-0.198557082303 0.00141397311246
-0.187260803556 0.0182940152522
-0.174552205047 0.0295030766629
-0.157274934824 0.0129413150067
-0.148641061632 -0.0162615864995
-0.137330505779 0.018387891238
-0.127525717188 -0.0119064528915
-0.107428073075 -0.0253373826599
-0.0972784117174 0.000342093072366
-0.0860090170914 -0.0232806798002
-0.0746843132968 0.0265224405898
-0.0593347749333 -0.0145097364733
-0.041081249338 0.0334730221604
-0.0257307235943 0.0361420195146
-0.0146249415601 -0.000734871603882
-0.0065898653152 0.0143861805262
0.00109158785913 0.0297393136527
0.0159965522716 -0.00644204767602
0.0252733934792 0.0666259259188
0.0382766121211 -0.00693925686075
0.0509066615129 -0.033405922142
0.0579449017573 -0.0318840228003
0.0630501545612 0.0180002286747
0.0734626749081 -0.003349047388
0.0848150019706 -0.0324614025137
0.0915402859446 -0.00780162734519
0.101799608607 -0.0238546600371
0.110126868919 0.00486103271616
0.122660184338 -0.0309668645138
0.130555117962 0.0287805526936
0.144431399017 -0.0263114366467
0.15166900757 0.010045278493
0.168333271374 0.0278653168508
0.18214741584 -0.0280191051996
0.195854622598 0.0165940282665
0.210372669251 -0.053140554795
0.217747521 -0.0468483017476
0.230385857292 0.00174959245463
0.242500273981 -0.0481199672236
0.250171458998 -0.00361231424207
0.258315485483 0.0278818601185
0.272533916909 -0.0647412407432
0.279827185301 -0.0694025478842
0.299981378713 -0.0406603076656
0.310052127646 0.0132183093737
0.319273184652 0.00290877881146
#15
-0.315395824274 0.0490681569542
-0.280730516571 0.0526937528422
-0.274303788347 0.0535467217978
-0.251854853485 0.0370325347265
-0.223141955058 -0.0165237199688
-0.212345994956 0.00772296405501
-0.202326808721 0.0216151522512
-0.185214748818 0.00644606354594
-0.175572977549 -0.000445406605493
-0.158540738856 0.0231856849407
-0.1437414236 -0.00142599908887
-0.11969055861 -0.026051661933
-0.109309064569 -0.00501291513541
-0.0966886786415 -0.0233370686749
-0.0858263907887 -0.000890760430453
-0.070058913854 0.00553987720047
-0.0526415448243 0.012274178998
-0.0359122535599 0.0490920137583
-0.0243314306465 -0.00954990040086
-0.0140905362888 0.0147771014733
-0.00667252688118 0.0230044626998
0.0089650185911 -0.0027967828151
0.0181361952832 0.0557009626093
0.0316101899262 -0.00429820518341
0.0442237383763 -0.0165379999621
0.0533092952999 -0.0332075878709
0.0598692461653 0.0267088886153
0.0734459725879 -0.0154690171806
0.0842266831118 -0.0270511391463
0.0953357445315 0.0194844641399
0.103830540075 -0.0454667114346
0.115185807766 0.0189316137298
0.124967919831 -0.0552466297553
0.136965868414 0.0431806808334
0.149628874155 -0.0393865184646
0.159263844369 0.0115484648708
0.173620120864 0.0148637111774
0.188063853422 -0.0216484410658
0.201141843155 0.00367595633582
0.21437835522 -0.0429587678725
0.22393121496 -0.0475354498633
0.23534746216 -0.00406896008018
0.248931601134 -0.0582039315609
0.255711019107 0.00145888715274
0.263912624158 0.0227283358402
0.277589863094 -0.0617982878315
0.285358175343 -0.0580579122912
0.304485519261 -0.0293636478598
0.319326313271 0.0174347146982
0.328282165847 0.00851348505275
#16
-0.327971688362 0.0043116160791
-0.297116582235 0.00510533597747
-0.287559085652 0.0122746737336
-0.263437988722 0.0321626873857
-0.234689396099 -0.00608328712552
-0.225323319436 -0.00909473064183
-0.212848564655 0.0291165584313
-0.197949504633 0.00708021077087
-0.185814447573 -0.0294167582631
-0.170610384577 0.0309284368713
-0.158035315499 -0.000272982247988
-0.136520837425 -0.0238832252696
-0.124672527059 -0.000479573945652
-0.114333931844 -0.030724754286
-0.1003386479 0.0148629109664
-0.0850221362988 -0.00483946470709
-0.0687932742211 0.0221327516954
-0.0510848101732 0.0572395664012
-0.038579704912 0.00835769499629
-0.0243066917055 0.0236260773161
-0.0152045919308 0.0311250896539
0.00386103441768 0.00669158139338
0.0137325765555 0.0302519524995
0.0257533731111 0.0131652667736
0.0424805997902 -0.00679953010991
0.049622148591 -0.0402330885127
0.0609107619504 0.031335499016
0.0724370570007 -0.0314697260018
0.0839184460911 -0.032724180893
0.0960255798379 0.0240037935577
0.105759036644 -0.0511381039513
0.115644712145 0.0309915750936
0.129153092324 -0.0643302962835
0.140561046892 0.0410313251133
0.152971589771 -0.0485718300348
0.165493347581 0.0181084585275
0.178811183133 -0.00805260510517
0.192620457193 -0.00476294545844
0.205142244711 -0.0150413587508
0.220460300126 -0.0301047642067
0.23000975161 -0.0623719997182
0.239669328788 0.00457433346631
0.25168136407 -0.0653755220571
0.256472552053 0.00698925972672
0.269199252185 0.0178876806262
0.282857753576 -0.0663212396255
0.294822681123 -0.0491059860421
0.313459554886 -0.0328923587134
0.330969060417 0.00922449280913
0.338070161209 0.00212764321764
#17
-0.366987494064 0.0106285538355
-0.334748183911 0.0208344411773
-0.323066780232 0.0385969293815
-0.299177369326 0.0200777075672
-0.267440250018 0.0272454285958
-0.255822260824 0.0147271015859
-0.240395921979 0.015807416086
-0.221280182677 0.0303344108862
-0.198643059857 -0.0394304800559
-0.182992883453 0.0259219095414
-0.169947406289 -0.0453859554547
-0.15200253306 -0.0695641754765
-0.137965923514 -0.00949444881481
-0.128708967894 -0.0624004086231
-0.116503539081 -0.00475505599936
-0.0989029354464 -0.0182126026955
-0.0836702084147 0.0284854606921
-0.0684774613677 0.071447551857
-0.0541285854013 0.0137704003756
-0.0403845446011 0.0293923386733
-0.0319165215754 0.0381370543199
-0.015135877374 0.0213450142663
-0.00636098691563 0.0260413866271
0.00517903277385 0.0144718616146
0.0253032563031 0.00322136761624
0.0342454704726 -0.0419627471048
0.0437528654813 0.0298175660536
0.0554430469313 -0.0511608656667
0.0700016967412 -0.0646320069531
0.079735824011 -0.0269104642875
0.0890702820714 -0.045350844126
0.0964942593342 0.0272810405463
0.114417374318 -0.0914229842144
0.12336682045 0.0347313186994
0.134575610059 -0.0450852670373
0.145120325002 0.0310282270399
0.163486553822 -0.00362114929782
0.175606155042 -0.0113061885497
0.187212243832 0.00596117986284
0.204325925878 -0.0322141311607
0.217100261798 -0.0733693915868
0.225652102518 -0.0150293962023
0.238345975665 -0.076632533157
0.247139775141 -0.0197245269072
0.264713893566 0.0221641268115
0.294156946348 -0.0476713304482
0.311797261126 -0.0393195693757
0.336451078925 -0.00275666481048
0.361690423391 0.0180589716067
0.374641308296 0.0304306066882
#18
-0.360692898448 -0.0238113820435
-0.330796131684 0.0152474435793
-0.318185063749 -0.00135661476975
-0.295378421598 0.0137707046975
-0.273630536599 0.0273718253973
-0.264164758584 0.00367922038669
-0.244082382835 -0.00145415031285
-0.232443972414 0.0400940601156
-0.208639301634 -0.0429393678587
-0.191732606759 0.00953506233263
-0.179919315549 -0.0334186529993
-0.163340842818 -0.0710147253555
-0.145340880877 -0.00394640941311
-0.138038349792 -0.0699273785868
-0.124877663111 -0.00186869285867
-0.106937927547 -0.011730883539
-0.0895403991989 0.0411382424561
-0.0772233852193 0.0309717379756
-0.065174687838 0.0380510149948
-0.0464278083733 0.0483864440327
-0.0379661365155 0.0351354658416
-0.0237424396882 0.0174181594976
-0.0123721158487 0.00965074824428
-0.000709762387834 0.0488298923213
0.0169926929033 0.0125205206126
0.0276819979892 -0.0264548116717
0.0403433783389 0.0505624366884
0.0503885589483 -0.024269135388
0.0624068692762 -0.061143825312
0.0737188577618 -0.0210391512992
0.0857729382109 -0.044237149346
0.0940258441708 -0.00124928467523
0.109451790802 -0.0735737019734
0.119486713433 0.0218417414207
0.128034846629 -0.0242103229925
0.138822561761 0.0151212261445
0.163164225488 -0.0251839534254
0.172316495136 0.0303995439723
0.184755760419 -0.0272603131791
0.201536190481 0.0122249687838
0.215107316972 -0.0498124770946
0.230167424702 -0.0477656100132
0.239960855199 -0.0392805877321
0.255960774672 -0.00486293115161
0.274434494554 0.0306717204963
0.307840013293 -0.00786261974379
0.325919195669 -0.0226090550207
0.345697158796 -0.000126608427541
0.368717983281 -0.00398412355368
0.380247116247 0.0183620281299
#19
-0.36795011802 -0.0193053715095
-0.3412714326 0.0195411803959
-0.32650450138 -5.21324632215e-05
-0.302517976814 0.0169375774557
-0.27944854841 0.0291666865316
-0.267660276478 0.00659000964398
-0.249141812114 0.00712602096474
-0.235353075212 0.0312943837286
-0.213985570331 -0.0307679903801
-0.194941819749 0.00497173631536
-0.184149113812 -0.0339379052226
-0.169134653889 -0.0643215422762
-0.152765866678 0.00113854143793
-0.142866891618 -0.0688725225248
-0.1308288022 -0.000215116349003
-0.11443548592 -0.0118700792506
-0.098551316899 0.0445051334745
-0.0841960693361 0.0299399217347
-0.0731325310817 0.044492549242
-0.052636011574 0.0522034975
-0.0383969751478 0.0227947502222
-0.0255731646182 0.0179999551079
-0.0118634786792 0.00916812689472
-0.00106177120313 0.0470932966538
0.014703022555 0.0160362029871
0.027763446524 -0.0342695927383
0.0394504657829 0.049630065645
0.0519267495342 -0.021883622213
0.062672077798 -0.0488057606268
0.0762545632115 -0.0290680290424
0.0872278081033 -0.0423407591067
0.0947749817578 0.00227940445295
0.108549419601 -0.0586610644566
0.120909560019 0.0100932563233
0.128678450838 -0.0252534429685
0.138177192929 0.0132376084933
0.16396289636 -0.0291759835877
0.172097647933 0.0390584004008
0.186624134027 -0.0179547557076
0.205442736564 0.00352706438196
0.217611751308 -0.0376304133447
0.235160008493 -0.0352707159018
0.243972994344 -0.0268442075034
0.265722443884 -0.00082272785764
0.282328716669 0.034232383858
0.316022998803 -0.0134975427948
0.335617998735 -0.0289762214331
0.360316054609 -0.00920764895703
0.384368146936 -0.0145291959598
0.394825472924 0.00926484569796
#20
-0.366640129928 0.0137280615451
-0.351546378697 0.0587569114019
-0.332912237348 0.0513200096557
-0.31650149066 0.00344394801032
-0.288274901568 0.0311625396367
-0.275944054351 0.0482545421755
-0.26140156523 -0.00301367257493
-0.247843972218 0.0333684205518
-0.222271720839 0.018109316658
-0.202476130533 -0.0144023921083
-0.189804592086 -0.0509971729094
-0.181371181084 -0.0514948815496
-0.165070711019 0.00294759262571
-0.152715116453 -0.0351482136535
-0.140611231948 -0.0144995234032
-0.122526104501 0.00491940230811
-0.11236235218 0.0142660060034
-0.100199344357 0.0314856646764
-0.0895908484946 0.0359444718468
-0.0707347049856 0.0117064999765
-0.0564566006509 0.0183695744683
-0.0436498926334 0.023859360426
-0.0316476436554 0.0257786124747
-0.0232682911167 0.0239325380418
-0.00785746552236 0.0327857634339
0.00899844112862 -0.0187248218904
0.0175483220056 0.0246830331945
0.0313552630808 -0.0270719200636
0.0423421765158 -0.0229409003942
0.0601851877631 -0.0628182389851
0.0669152616644 -0.0266257026077
0.07698948512 0.00883156397939
0.0931872674114 -0.0586637335664
0.105670237307 -0.00473133495385
0.111690507562 -0.00523973765746
0.123966006036 -0.00189372446999
0.1475952274 -0.00622099290666
0.15805739637 -0.000469327342273
0.172036305495 0.0260333900598
0.189478362046 -0.015048126091
0.202807268643 -0.00848029501451
0.214540505028 -0.0254239021532
0.225315832574 -0.023028057484
0.245619878534 -0.00976255271036
0.268975263768 0.0122346809566
0.304588051509 -0.00822680211577
0.327156271871 -0.0126281640824
0.352709561287 0.00455658580403
0.381360439584 -0.0236518629622
0.394620838326 0.000559700835405
#21
-0.360039795178 0.0247859905716
-0.35230593277 0.0370472714568
-0.330684903755 0.0385350613686
-0.324367416706 0.00359444872518
-0.300249816417 0.0333576659831
-0.29023296295 0.043885668482
-0.271715873493 0.0129585224369
-0.263557728204 0.0310879457408
-0.245616296417 0.0554489405269
-0.229466841767 0.020095194517
-0.221467070876 0.000774124055365
-0.211103181961 0.00716908577374
-0.188048507015 0.0601559399688
-0.178644883765 0.0236272372878
-0.158761241912 0.0480398477221
-0.140202288486 0.0467230122836
-0.126427055832 0.025235462474
-0.115732836147 -0.0263123719205
-0.103712780793 0.0692622540829
-0.081334273783 -0.0242788484478
-0.0701269712998 0.0250934428592
-0.052070915105 -0.0163882468444
-0.041844292129 0.0741249591242
-0.0342323837868 -0.0178126292169
-0.0141670410984 0.0255971426196
8.56577069227e-05 0.00204711976494
0.0141672892839 -0.000440383030727
0.0234008666 0.000751443558186
0.0388881543959 0.00992341451509
0.0547065324375 -0.0240219232838
0.0669967291278 0.00354149348638
0.0785932067249 0.0278863114109
0.102055757133 -0.0185416062078
0.112647245561 -0.0163153733117
0.120756803752 0.00356498248893
0.137041265942 -0.0165711854481
0.157287322268 -0.0036162673274
0.168074678049 -0.0491626986105
0.177426756506 -0.0185194806731
0.191471781973 -0.0580927901621
0.205160312911 -0.035273225314
0.216920745309 -0.028110142302
0.224725380371 -0.0436460470831
0.241232239825 -0.0354034301926
0.269396206523 -0.0355600993543
0.282409301093 -0.0561588693751
0.294458654717 -0.0375445530325
0.317525389889 -0.0334658863071
0.344468930912 -0.058979338072
0.355212720078 -0.0379165370558
#22
-0.380718621622 0.0388910691321
-0.371562525933 0.0453763756569
-0.352906919308 0.0572792150438
-0.343549945896 0.027809331534
-0.320226107909 0.043263815663
-0.30786957723 0.0580236730209
-0.287563579806 0.0264574066097
-0.278257348575 0.0496089890636
-0.259513213172 0.0630286551939
-0.245853616262 0.0317248855944
-0.234735323542 0.0222078483279
-0.223167700443 0.0202731382096
-0.199735317865 0.0647826806267
-0.190649933695 0.0419117314132
-0.169843167372 0.0480058351718
-0.150931815735 0.0524742080003
-0.137662233058 0.019892835516
-0.124288898032 -0.00378347261469
-0.112169927891 0.0636175634753
-0.0894228714329 -0.0101035717795
-0.0783378257993 0.0333224960235
-0.060754855554 -0.0128646561034
-0.0494564155682 0.0678655069605
-0.0407538678366 -0.0274263683033
-0.0197117971137 0.0291697851083
-0.00519303465431 0.00563361911432
0.0101466208798 -0.00789728482423
0.0203160506838 0.0030188824753
0.0371357117467 0.00560255874475
0.0514182423448 -0.0232871147824
0.0633124398287 0.010632789654
0.0750169074437 0.00914650130863
0.100290497127 -0.010600064026
0.111109686686 -0.0271225430943
0.119665133812 -0.0088926624206
0.138259231465 -0.0101087898048
0.156574846938 -0.00262021051189
0.169715723306 -0.0626041627296
0.178719807921 -0.0200562793496
0.191426352632 -0.069743341448
0.205006088054 -0.0240661488386
0.221793045647 -0.0280150211266
0.231033443333 -0.0558368404993
0.247409367133 -0.0431344797984
0.277017908965 -0.0312227404816
0.291511548351 -0.053197077366
0.30566276087 -0.0446255430044
0.331957739405 -0.0485863942534
0.357079431621 -0.05509819385
0.370059002603 -0.0361316224334
#23
-0.380747896033 0.0388886980033
-0.371591323922 0.0453771319394
-0.352934645456 0.0572836930227
-0.343577238751 0.0278032115259
-0.320251170917 0.043264201199
-0.307894416002 0.0580215066481
-0.287586810119 0.0264614728895
-0.278280206533 0.0496036487342
-0.259534610222 0.0630297206867
-0.245874118234 0.0317300610126
-0.23475323857 0.022205015984
-0.223184396421 0.0202828101989
-0.199749225585 0.0647861490081
-0.190663389744 0.0419178378282
-0.169853965531 0.048000420033
-0.150942240755 0.0524819296847
-0.1376715019 0.019881094807
-0.124296567001 -0.00377063887676
-0.112176277223 0.0636052335124
-0.0894284404696 -0.0100932917119
-0.0783424757529 0.0333089713139
-0.0607587638192 -0.0128534220697
-0.0494591821121 0.0678595846589
-0.0407551078174 -0.0274154140832
-0.019712128358 0.0291577650538
-0.00519290579473 0.005643310265
0.010148039372 -0.00790258079107
0.0203177010162 0.00302430657664
0.0371382255758 0.00560085368928
0.051421732825 -0.0232866228857
0.0633175231247 0.0106360733892
0.0750224771175 0.00914585003375
0.100296818831 -0.0105947856342
0.111116489603 -0.0271310139347
0.119672815734 -0.00889483204207
0.138266730784 -0.0101223371744
0.15658396732 -0.00261369038305
0.169725033981 -0.062605393174
0.178730710634 -0.0200508180328
0.191437199072 -0.0697475737594
0.205018354064 -0.0240612356025
0.221805683366 -0.028019448084
0.231047104509 -0.0558354177036
0.247424097788 -0.0431389665772
0.277033693204 -0.0312186681805
0.291527881615 -0.053205619093
0.305680660795 -0.0446256044592
0.331976644557 -0.0485852317379
0.357098939678 -0.0551035006545
0.370079037163 -0.0361338381012
#24
-0.395256433376 0.0721962206347
-0.385984916095 0.0771977316852
-0.368521469851 0.0776902847497
-0.355797026681 0.0534636020337
-0.342244346303 0.0711099935283
-0.326519176318 0.0512380555377
-0.309171589937 0.0328161750686
-0.296502554261 0.0517491945518
-0.280795251601 0.0806283656292
-0.262871200166 0.0591928122719
-0.249758508099 0.0354410606352
-0.23603059805 0.0448339061386
-0.216987924598 0.0630372877363
-0.205949759039 0.0555174907103
-0.188038792344 0.0213602100307
-0.175792592632 0.0876759633086
-0.156726191042 -0.00359179540503
-0.145306964812 0.0189604481893
-0.129299385171 0.0630374457492
-0.110831600595 0.00882708232168
-0.0968394203567 0.018714230089
-0.0851773799305 0.0217211218643
-0.0705507337791 0.0424811122582
-0.0608292710873 -0.0195175812501
-0.0417171686533 0.0163139350013
-0.027822814496 0.0327007112294
-0.0143521441921 -0.0388338747383
-0.00279138957631 0.00892550703238
0.0176021279782 0.00682346186499
0.0293286127656 -0.0343179745318
0.044085341245 0.0127367311902
0.0568737221476 -0.00245166930979
0.0799642289822 0.00890548795926
0.0908656028122 -0.0403450690877
0.104421554499 0.00778282308696
0.119399151326 0.00651730183978
0.144080862855 -0.00942460957544
0.15933300572 -0.0423215044108
0.171631565713 -0.0654169965443
0.180226486011 -0.0539620217252
0.193128032533 -0.00629953407298
0.213368548238 -0.0282781672728
0.223371817285 -0.0717497992495
0.24171145553 -0.0453883071432
0.262782976808 -0.0137581330528
0.272379840228 -0.0721326180007
0.283116017011 -0.0412948279415
0.305173336658 -0.0348865410959
0.329544359866 -0.0590679660626
0.346136164149 -0.0405487887412
#25
-0.444613444755 0.0562555623866
-0.437335006897 0.0616292064438
-0.421306068303 0.0795630252567
-0.410189482588 0.0437513382806
-0.394481914495 0.0309630479564
-0.380912903572 0.0490697454998
-0.359563897787 0.0693002330342
-0.348433019789 -0.0180306337129
-0.329837376424 0.0767763870995
-0.311262785793 -0.0245953901932
-0.293758804855 0.0614036675014
-0.276295621593 -0.0452439184442
-0.261231790961 0.0674321165977
-0.245185287116 0.0146582054708
-0.223347120058 0.0320960011473
-0.209415249143 0.032868989468
-0.189200719374 0.0227288789125
-0.173055020728 -0.0850057216921
-0.155453570715 0.0722689635955
-0.136864160654 -0.04187269669
-0.122802309119 0.0322799791386
-0.103876447284 -0.0167127188117
-0.0879925544792 0.0487424757349
-0.0720468557576 -0.125371470207
-0.0580523083301 0.0362977148993
-0.037694610368 0.0429958283698
-0.0246150090929 -0.0630779031354
-0.0054057608695 -0.0943584958191
0.0124380355573 0.0219525060165
0.0259851904949 -0.0241241245079
0.0410667380003 0.0210167216477
0.0564315271515 -0.0674148997407
0.0738892710846 0.029618437179
0.0901427670307 -0.0298385888268
0.107423235487 0.0237914021879
0.122667144607 -0.0522172949974
0.141219861693 -0.000853984067781
0.157966185808 -0.0264755625238
0.169227146041 -0.0594609462448
0.183059348965 -0.103542276217
0.19275346395 -0.0402069258772
0.210343971604 -0.0348671524037
0.220953981689 -0.0343107681604
0.237410722984 -0.0294566692615
0.259083618658 -0.00150815565161
0.272017829922 -0.0462118921006
0.283852099043 -0.0256830445845
0.302668910591 -0.0431383169895
0.317554757729 -0.0333263781452
0.329668962995 -0.039540584083
#26
-0.469024283082 0.0459663555037
-0.45967472866 0.0674174559466
-0.441809811552 0.0612772634283
-0.434396042116 0.0375593681597
-0.413219327645 0.0318054208668
-0.388289999823 0.0145364373642
-0.365634767093 0.0704449333786
-0.355386173758 -0.0305894040303
-0.334586958745 0.0596565217195
-0.315857024757 -0.031579854107
-0.299846081646 0.0368603733449
-0.281755796212 -0.0731067932062
-0.261668743603 0.0667084363742
-0.245018265286 0.000795242610195
-0.225405744183 0.0291435843635
-0.21094792646 0.012148315448
-0.190815396508 0.00416278437394
-0.170884531342 -0.11429673468
-0.149757510204 0.0600762513185
-0.133313123743 -0.0403832274826
-0.119905827813 0.0263179408298
-0.0996954834098 -0.0107514729491
-0.085832624605 0.0532511070679
-0.0700361086137 -0.147421403563
-0.0580068532489 0.0178477720398
-0.0376765537851 0.0435475280375
-0.0243213600356 -0.063055607802
-0.00548132512104 -0.110501853223
0.0105799157131 0.0348530519646
0.0269314997021 -0.0370290811887
0.040389298689 0.0206834369455
0.0564941292153 -0.0887762211535
0.0695480243188 0.0235661582348
0.0857863531759 -0.020544897319
0.104521824015 0.0353794230658
0.119473908062 -0.0651855675917
0.141913582913 0.0120754648537
0.158282036884 -0.00219280447751
0.179683312093 -0.0706018413487
0.19772652884 -0.102661297639
0.215013467138 -0.0518715722504
0.226735884163 -0.0193875837694
0.238355029024 -0.034953341402
0.254353168131 -0.0320111208118
0.270186900436 0.0131308750142
0.283014752128 -0.0476572447594
0.291973463277 -0.00615709482589
0.309784037318 -0.0227927482905
0.325892004447 -0.0252728553666
0.334584879993 -0.0314709106072
#27
-0.485210737688 -0.033302066974
-0.469490464811 -0.0408727667391
-0.447585445808 0.000477351712433
-0.436649354338 0.0164050266284
-0.416186247712 0.0171711231144
-0.397000305276 -0.0221650128206
-0.373220271304 -0.00966696082536
-0.365649188209 0.0343864491861
-0.341387357326 -0.000321872569342
-0.327484474487 -0.033538041841
-0.310099682243 -0.0449965532296
-0.290148529367 -0.0251743632501
-0.27057293457 -0.0193307950174
-0.252101907194 0.0408106646723
-0.234013032329 -0.0379927783558
-0.215620919224 0.0789288246304
-0.19314818348 -0.0738249978205
-0.17566730507 -0.0632323498809
-0.1477792419 -0.00572177868621
-0.134720131282 0.0264614514089
-0.112370547761 0.00485186408773
-0.0969730710209 -0.0395670273705
-0.0750011509631 0.0301229603737
-0.0641160567807 -0.143335141889
-0.0489123595721 0.0183463066745
-0.0272672852518 -0.0432305507659
-0.0113056289437 -0.000761983994563
0.00397029908339 -0.107108714681
0.0160117903552 -0.0271652552381
0.0344594198885 -0.0211291802119
0.0466192588108 0.0400273741211
0.0638325717724 -0.11548305382
0.0751365660501 -0.0300026081581
0.0923187487836 -0.009220391793
0.108928114907 0.0303796008972
0.124560342791 -0.10293307053
0.140856022051 -0.0100943569089
0.158795522982 0.0183746671642
0.177491435927 -0.0666554879435
0.191755413915 -0.114158446154
0.209244431663 -0.0710719979854
0.222394518754 -0.00548420583334
0.234266313935 -0.0194271504409
0.249407882643 -0.0307554263223
0.271457863513 -0.00337466287341
0.279947925612 -0.0346737360418
0.289914845921 -0.0129263868839
0.310550791409 -0.0576828953584
0.324709037913 -0.0187454608355
0.333724438132 -0.0276820695412
#28
-0.491822052004 -0.0302459366693
-0.476293761047 -0.048276901433
-0.455324580222 -0.000684223820153
-0.44338170496 0.0164732832664
-0.422397829728 0.0211633541165
-0.401970481212 -0.0264758684339
-0.378115294464 -0.000725168525532
-0.36945180515 0.0299714485131
-0.343989601436 0.00551085023332
-0.331032120331 -0.0418120454809
-0.313184308223 -0.0432425241035
-0.292641958381 -0.0291578810782
-0.271635031998 -0.0217551726
-0.253535135996 0.0313193057622
-0.235682390322 -0.026552587262
-0.217074303276 0.0639118120985
-0.195969818779 -0.0662487532746
-0.177203705356 -0.0694786319544
-0.150164947639 -0.00670595565054
-0.137023716102 0.0280193074701
-0.115053348054 0.00813890372614
-0.0993156029962 -0.0469807017307
-0.0779622561052 0.0343700076539
-0.0663940111187 -0.140964147991
-0.0503480388429 0.0226524041808
-0.0290322319207 -0.057945690533
-0.0125969970371 0.0134577041147
0.00327792850335 -0.111165783676
0.0152333606047 -0.0196875274721
0.0342647143625 -0.0255625443478
0.0464891906552 0.0437568088823
0.0639899757148 -0.118930112516
0.074791780956 -0.0227776373781
0.0931325478128 -0.013886204141
0.109115339617 0.032416241216
0.125538536689 -0.105782229934
0.140640176953 -0.0032993575228
0.159957454357 0.0105174681411
0.178635640345 -0.0480241836487
0.193838451075 -0.11643622946
0.212941162333 -0.0663357430412
0.225734147338 0.00487637123258
0.237162348346 -0.0195367058706
0.252552544368 -0.0256762725069
0.277694819336 0.00299529199197
0.288138647188 -0.0300426533101
0.297420241968 -0.0155326130309
0.31914511611 -0.0565128396071
0.33147087773 -0.0183487358579
0.341608738593 -0.0281855415842
#29
-0.49383183039 -0.0425430449585
-0.479696035758 -0.0583776790529
-0.462474408237 -0.041103495394
-0.450120660081 0.0246899414775
-0.431588840714 0.00240784554791
-0.411130313263 -0.0337755955021
-0.39197715821 -0.0460347179099
-0.379228526271 0.0423721011043
-0.360113638327 0.0172162935689
-0.343804218696 -0.0505985649868
-0.328463724582 -0.0226643964496
-0.308376185976 -0.0125993354521
-0.287710336335 -0.0190141158706
-0.270042780247 0.0303324547414
-0.250630451637 -0.0278026429222
-0.233178373121 0.0460111820978
-0.209170876854 -0.0606679225757
-0.189661291325 0.000299788218265
-0.163087126956 -0.0123966929464
-0.151783439406 0.0551513798676
-0.129012604013 0.0509356497087
-0.115522314808 -0.0431862085802
-0.0955035774308 0.056229920382
-0.0764938981738 -0.00465959413872
-0.0595920269847 0.0244526423101
-0.034220086774 -0.0429144246697
-0.0148755497017 0.0593782392159
0.00247647316353 -0.0328979760925
0.0144305973546 0.0177999410993
0.0376582255606 -0.00613552451215
0.0491245493264 0.00229762526534
0.0644649393009 -0.0268256798509
0.0745233158984 -0.0581912917667
0.0915238327571 -0.0243328002474
0.104505262314 0.0640940856667
0.1217391959 -0.0635251220376
0.136310803077 -0.0159296483168
0.158865265735 0.0335105659436
0.179045323094 -0.0490945350021
0.191558625605 -0.0668047111277
0.212236061706 0.013678239247
0.225788271598 -0.0193826219742
0.242382709044 0.0148855987724
0.258729081427 0.00505193364286
0.278022150507 -0.0148036896148
0.292819562581 0.00689971369837
0.303552438834 0.000397013055676
0.322179474808 -0.0567947588971
0.338371942682 0.00194242381861
0.347207905778 -0.0433537597007
#30
-0.503790682335 -0.040073001835
-0.489966329739 -0.0615780876547
-0.474626158426 -0.0318370687196
-0.459773418348 0.0060646241845
-0.44280843799 0.0101985198065
-0.419210201392 -0.0475204331549
-0.401216211415 -0.0325694931021
-0.384420485606 0.0195597319947
-0.366676753019 0.0213621657895
-0.346935225536 -0.0636081902707
-0.332339893377 -0.0142753319407
-0.309371373237 -0.0310089602267
-0.290151393786 -0.00926213426876
-0.269170381693 0.0064898794172
-0.251143388201 -0.0162229406962
-0.230372364881 0.0192155597048
-0.208327969502 -0.0438679680182
-0.184757891808 0.0105240616926
-0.155093277634 0.000953330493874
-0.142764023311 0.0272622877903
-0.118586952392 0.056613616701
-0.104500510824 -0.0582098904635
-0.0828681281158 0.0632466863682
-0.0636806212459 -0.0240448585228
-0.0448140490076 0.0356710610895
-0.0220075730045 -0.0318284027285
-0.00392183298853 0.0557671517946
0.0121821887422 -0.0478189873143
0.0265686682599 0.0318066770517
0.0489660480725 0.00179982029134
0.0597385805211 -0.0167261155834
0.0736345269141 -0.0209062454212
0.0859698745577 -0.0350933757662
0.102536220048 -0.0134622062724
0.11471216828 0.0398033999451
0.130272674241 -0.0544645904615
0.146675992288 0.00341005793237
0.16807887996 0.0397473523833
0.186623757005 -0.0587482203748
0.19813421763 -0.0580824028756
0.219886978776 0.0298459509974
0.233490143688 -0.00645629241581
0.249231968513 0.0133686125261
0.263629197194 -0.0110464869642
0.28414884136 0.00687468323032
0.298974143903 0.017625230962
0.309141301723 -0.0127150884054
0.325992545561 -0.0505490583681
0.342077721758 0.0183784032097
0.350343491856 -0.0446835019258
#31
-0.504194528489 -0.0243793357256
-0.481452146638 -0.0375508761782
-0.465086135162 -0.0254682987936
-0.447400243093 0.00688578976457
-0.433827304121 0.0424289955292
-0.407837175083 -0.0501331531047
-0.391355214467 -0.0103485036875
-0.372781082964 0.00422426092996
-0.356974348356 0.0358868457637
-0.340937380101 -0.0539171045801
-0.329326813162 0.0287989162226
-0.307649502489 -0.0135345373489
-0.289000735462 0.0448793740202
-0.269681528896 -0.0341409523997
-0.254113235268 0.0693687056046
-0.22910375285 0.00947684321895
-0.208268769286 0.0363520133784
-0.183408957604 0.0257142617212
-0.153241025475 0.0765363029212
-0.141130894757 0.0210241350124
-0.118878066198 0.0546179109096
-0.106709513104 -0.000441071760923
-0.085736578413 0.0515932527332
-0.0705670905516 -0.0135021418687
-0.0514423911531 0.00458930681376
-0.0326947127163 -0.00209853503822
-0.00578952614656 0.00958011022896
0.0110207819428 -0.025575806873
0.0292695763231 0.0266380585298
0.0551974299092 0.0120268021107
0.0678035476119 0.0119696036879
0.0833281185184 -0.0420266008587
0.100535814874 0.0206335326555
0.121298251874 0.00221560606341
0.134801734848 0.0230814846437
0.149452950152 -0.0152890975837
0.168708228279 0.0267292723178
0.189936116932 0.0251657008612
0.211213754601 -0.0322127424477
0.222486376741 -0.00904706300663
0.246129051894 0.00754328311912
0.256541967802 0.0503280102016
0.27475065317 -0.0373712458264
0.286268998901 -0.0202341909312
0.309372311747 0.00551058548576
0.321789997781 -0.0101269399336
0.334056496586 -0.0520620837762
0.351195450865 0.0064978324867
0.365743356087 -0.0242044479175
0.375727583588 -0.0441788464708
#32
-0.480917410664 -0.0195246166295
-0.4553469494 -0.0296943623906
-0.436763550049 -0.0263314333061
-0.42169765776 0.0195818352992
-0.411697740452 0.0511630922999
-0.398503060887 -0.0127673981992
-0.383456415423 -0.0166862039571
-0.367993698282 0.0356381684246
-0.351723309414 0.05081794297
-0.339785816384 -0.0211873275655
-0.324068608883 0.0408382342213
-0.306875371446 0.0245746848631
-0.291200885768 0.0569147429123
-0.274245238804 -0.027153970721
-0.25701931949 0.0644804494574
-0.23592795505 0.0519326471393
-0.214176511512 0.0735249768141
-0.194549251864 0.0178862491752
-0.170503557716 0.0918378151078
-0.157670504576 0.0401867591863
-0.135367433327 0.0344849207941
-0.124417686544 0.00451878130214
-0.104398658867 0.0345538711256
-0.0914627995374 0.0305493574992
-0.0713567424547 -0.0199620498286
-0.0516922926517 -0.0159890228708
-0.0247115011574 0.0211930101254
-0.0055566908465 -0.00937613329097
0.0116515031079 0.0145086988946
0.0388734127473 0.0183757006505
0.0525302872757 0.0457675406432
0.0743583816347 -0.0611669177749
0.0924251860639 -0.00489432036146
0.116808143404 -0.0341983849519
0.130233552435 0.0317985812986
0.146282631539 -0.0390906076418
0.166107234159 -0.0185075065192
0.188773963867 0.00363487495909
0.207010349365 -0.0411176593764
0.217060076688 -0.0339241489255
0.235835326267 -0.00769638116759
0.251124031393 0.0234622270911
0.275543724641 -0.055461973204
0.295987835365 0.0110993567682
0.322539127629 -0.0401922796564
0.338035290049 -0.0391322256567
0.353796577819 -0.0750929543187
0.370559399627 -0.00929405941391
0.384808848003 -0.0486527960039
0.397604935008 -0.0310449265669
#33
-0.459384965661 0.0444131540467
-0.43900386592 0.061178136918
-0.425099820359 0.046845641911
-0.413129992125 -0.00175393634123
-0.400790229672 0.0764343292972
-0.386731169694 -0.0219826414048
-0.370228405403 0.0091255669121
-0.355830149572 0.0180878612644
-0.340577524545 0.0160530482561
-0.328640620364 0.00276340826169
-0.313670957799 0.0790494420286
-0.299751527251 0.0431257506394
-0.285553578283 0.0597372453253
-0.268732529416 -0.0510636214727
-0.25301429594 0.0591190579411
-0.234188684641 0.0344106606418
-0.214487723831 0.122476664857
-0.195030302363 -0.00169385817877
-0.174819353737 0.102432082105
-0.16064652148 0.0307197300352
-0.135554709204 0.0608729976876
-0.121658115136 -0.0328581399402
-0.104397009483 0.0449950378669
-0.0879712524605 0.0101285192193
-0.069980611634 -0.0396278299109
-0.0540675728365 -0.0219915184969
-0.0316085423602 -0.013653755626
-0.0114051533423 0.0159878051034
0.00632061207082 -0.0187810813653
0.0278361958692 0.00121743533983
0.0423772196823 0.0591084319183
0.0698894130441 -0.0330807197546
0.0922144759415 0.020634150527
0.115993908642 -0.0293309074243
0.128977391958 -0.00536318142226
0.142555756614 -0.0462206533451
0.166517849754 -0.0235248317807
0.184194119814 0.0148589759957
0.206447720602 -0.0376280109106
0.22347696271 -0.0138447360761
0.244862510085 -0.00799309780902
0.263288335653 0.0240165355648
0.295796938013 -0.0739828145896
0.32124604774 0.0424030842847
0.344996370693 -0.0460380250429
0.361292760628 -0.0550272063143
0.377853682394 -0.0525111350657
0.396596217449 -0.0205547083135
0.410222339571 -0.0638499675935
0.424582104001 -0.0120845775882
#34
-0.445572184325 0.0466884623581
-0.425398172511 0.0636277128101
-0.411545039824 0.0433616986644
-0.400887860216 0.00442918008955
-0.390121745151 0.0708880140692
-0.375337167309 -0.0201866222558
-0.361259210545 -0.00147763821778
-0.347075465873 0.0231631040097
-0.333947198015 0.0142434828099
-0.32237279073 0.0103063638244
-0.302017713818 0.058127941711
-0.28728796566 0.0268369736479
-0.275354659235 0.0415484415792
-0.259176924098 -0.0592276010575
-0.24253290084 0.0259960737567
-0.22666233815 0.0322603621795
-0.207984549368 0.103678633747
-0.187168836149 -0.00294759200805
-0.166756938362 0.0940472970829
-0.154585257657 0.0425359266126
-0.129830110011 0.0334387939206
-0.115504513817 -0.0600300618182
-0.0994066372226 0.0317207586502
-0.0859838881862 0.0365676439173
-0.0683047108939 -0.0761995605595
-0.0545750446664 -0.0325662573575
-0.0325594112701 -0.00465827721167
-0.0114195853615 0.0211402319607
0.00964047319529 -0.0232360194452
0.0319395259174 0.00658115037417
0.0445937609726 0.051680013242
0.0728065335569 -0.0398484563683
0.0945486373636 -0.00844379417414
0.117898508157 -0.0398285381127
0.13289298078 -0.0347267653378
0.147834818027 -0.0643422040665
0.171639194891 -0.0595718466941
0.187599180766 0.0308148858243
0.210973228364 -0.0551889931019
0.229158650108 0.000214990621753
0.249163949821 -0.013665844227
0.267862434969 0.0133907303268
0.30215646148 -0.0652298664998
0.326973782076 0.0619647208887
0.349303238384 -0.0254714179046
0.364175592967 -0.0586291854976
0.382845720359 -0.0412411047899
0.397306277656 -0.0159954159025
0.421570866843 -0.0351471761619
0.435075661806 0.0164203540804
#35
-0.422084478262 0.0672841554327
-0.408627839031 0.0963018801858
-0.391746663094 0.0576362476142
-0.385416281021 0.0678945995028
-0.366457404431 0.0409133456465
-0.354321197827 0.0264169978329
-0.338793101866 0.0145240853722
-0.327666252355 0.0123231463474
-0.315087518706 0.0964500751994
-0.297890406316 -0.0374008462881
-0.278884879373 0.0558448661608
-0.266923085099 0.053747950607
-0.253226668643 0.0243488936772
-0.241468602333 -0.019415979751
-0.227080443015 0.079433803859
-0.210550542145 -0.0256503191195
-0.199606620374 0.0410989036602
-0.179338976371 -0.0389600702524
-0.168642394831 0.046117157423
-0.15714645986 0.0704544323569
-0.139210199431 0.0276000559389
-0.118038868983 -0.100665752845
-0.103298748952 0.00405441569389
-0.0939621168973 0.105358682466
-0.0682379257708 -0.113532173639
-0.0595801432457 -0.0161215391508
-0.0469103182437 0.0629514740905
-0.0208487485845 -0.0329088870782
-0.0006250465185 0.0276369957442
0.0311749401813 0.00151295576913
0.05467184819 -0.00585060176748
0.0785092458988 -0.0524509467388
0.105378852526 -0.0452139139106
0.122531857682 -0.121078420554
0.136803821956 -0.0371244374161
0.152804001378 -0.0641152346618
0.183563945205 -0.117661738668
0.193066490065 0.0090413142134
0.221098231124 -0.0816600691045
0.239251545508 -0.00874514158334
0.265570523793 -0.0412787744435
0.286283654355 0.00165425809193
0.323279115145 -0.0529891374825
0.345975312112 0.0460932606073
0.373644663848 0.0108870581359
0.388627143749 -0.0756543536508
0.407191843345 -0.0110594598406
0.422652276128 -0.028337824306
0.45458986025 0.00830121549189
0.467474756065 0.0816215384194
#36
-0.42020780623 0.0355314695037
-0.40669391412 0.0925429458612
-0.390063331411 0.0266242026855
-0.383635537101 0.0398589017169
-0.364289907257 0.00781827362583
-0.3526640665 0.0290236274459
-0.334845401535 -0.0152738981385
-0.326939976165 0.0209369242122
-0.309476718068 0.102294453517
-0.291279516315 -0.0432982512462
-0.278583801767 0.0736519806006
-0.265118571663 0.0810724218708
-0.249847020422 0.0346604056071
-0.239241266544 -0.0321957996382
-0.227427909457 0.1137450049
-0.20914165791 -0.0460788622125
-0.197974086316 0.0477902417969
-0.178670032351 -0.0627959605754
-0.169034742421 0.0385866879478
-0.155310957358 0.0497180401067
-0.137994289282 0.0373352512393
-0.118626384412 -0.0920814171531
-0.101827877381 -0.0119785305453
-0.0920867297284 0.0992326587712
-0.0657468652464 -0.0802314676138
-0.0508718346629 0.0138780358563
-0.0387991072487 0.0627469564189
-0.0144616118302 -0.0243853568402
0.0028906527719 0.0374192828532
0.0349080857264 0.00671788121296
0.0610470299823 0.00868501318135
0.0839108220144 -0.0399338965857
0.110757491001 -0.0140777056772
0.126992600884 -0.105626451106
0.139573321761 -0.00231173988564
0.150653796128 -0.0329762048601
0.182721232228 -0.0909113500341
0.193545911829 0.00648102410065
0.222200313553 -0.0792902120969
0.23687492014 -0.0188927708498
0.269213940045 -0.0612793127904
0.287652478801 0.0197039198882
0.326943494675 -0.0311590913385
0.349887541532 0.0340918228595
0.383966454039 -0.0165385220285
0.39761872033 -0.0834426632338
0.425545270057 0.012958741829
0.444940094035 -0.015898517017
0.468307436669 -0.000893175048244
0.480101110855 0.073514096762
#37
-0.417270371162 0.00388411530094
-0.402531420914 0.106552815127
-0.383012773519 0.0234928941187
-0.375701239556 0.00634914274277
-0.356325482433 0.0183299537986
-0.342536869634 -0.0105563685971
-0.325625224906 -0.00439096842656
-0.315706817321 0.0342727633187
-0.295696572747 0.0743576579119
-0.278085311864 -0.0336071423597
-0.262442987175 0.042928578999
-0.247924050275 0.0607262263702
-0.232690106105 0.00177908397322
-0.223952985743 -0.0310291773848
-0.211353168588 0.106769478949
-0.191929828562 -0.0801507944396
-0.183023608552 0.045069674267
-0.163946417899 -0.0591383137347
-0.154055717598 0.0583840903614
-0.13937849311 0.0460851711249
-0.123936851003 0.0575172087881
-0.105275029613 -0.116486668499
-0.0929034862843 0.00546684664159
-0.0835536502912 0.107782639119
-0.056754417075 -0.072843226808
-0.0438927249285 0.0368464352
-0.0313073009086 0.0635393739355
-0.00962500830267 -0.0413303243784
0.00630049675261 0.0321272490369
0.0237541185986 0.0295462804607
0.0518490936762 0.00417625115586
0.0747370783004 -0.0312664216916
0.104382032725 -0.0306893092393
0.120120503995 -0.105989898577
0.130814630783 0.0143232069498
0.13989142401 -0.0208147332906
0.170422479805 -0.0904750891491
0.181966209439 -0.00890185150929
0.21144394923 -0.0790186168771
0.226824290843 -0.035128042403
0.259215310677 -0.0555839419696
0.277814197386 0.0171036167893
0.318904078469 -0.0448356360323
0.341710939547 0.0519140830381
0.378971478371 -0.00887058108703
0.391271849832 -0.0916758012626
0.423574466083 0.0084244113689
0.443232926521 -0.0107613768134
0.465582515156 -0.00495928623139
0.477225998504 0.0782077135471
#38
-0.41730451241 0.00304075638366
-0.402817087451 0.103567970863
-0.38299451695 0.0180702869367
-0.375624780295 0.00251279903085
-0.353941187421 0.0128150584512
-0.341354375475 -0.0106803383966
-0.323365697166 -0.00813638532328
-0.312944644302 0.0339437598889
-0.291815041639 0.0684552720044
-0.275658495697 -0.0369851088365
-0.259367184476 0.0372381261243
-0.245664773922 0.061350145201
-0.229244414145 -0.0023653883489
-0.220536171433 -0.0347043810973
-0.207261560683 0.101987068494
-0.188207934022 -0.0818317250805
-0.180249438174 0.043550252669
-0.161938653706 -0.0610032180991
-0.153053139278 0.0601169433827
-0.138680351648 0.0467533729775
-0.122842558333 0.0542650199083
-0.105845571177 -0.11726044128
-0.0939499787854 0.00660272410308
-0.084772867487 0.108491649692
-0.0576449031551 -0.0758863266681
-0.0442007794946 0.0316278828062
-0.0316051987972 0.0628016854154
-0.010345676105 -0.0383497352397
0.00535065957908 0.0338449361554
0.0228781903013 0.0333353751684
0.0516831676554 -0.00160491485986
0.0740285050344 -0.0294753570462
0.103736348472 -0.0270940741847
0.120006304224 -0.10358547574
0.130660143611 0.0104851599371
0.140250401412 -0.0224166323092
0.170372727133 -0.0919774152847
0.180994551289 -0.00370191147081
0.211034168813 -0.0747066552879
0.2265631222 -0.0321149711363
0.259041860882 -0.0532074866267
0.277229253619 0.0222862246526
0.318254232124 -0.0410171561319
0.339349027453 0.0568851292916
0.377445902922 -0.00479045900294
0.389695539746 -0.0852237924909
0.422059998854 0.0161277487238
0.442590020489 -0.00945437627077
0.464715818131 -0.002341524711
0.475898911794 0.0831751701233
#39
-0.409111143129 0.0160400265233
-0.39539026573 0.0949844569537
-0.375537994743 -0.00918767108548
-0.369841832892 0.00521980820077
-0.348216829287 0.0141399951439
-0.338497547446 0.0246669401131
-0.317300202571 -0.00998981985029
-0.307959774961 0.0668859943994
-0.285892972056 0.101185121359
-0.269362134268 -0.00862819535574
-0.249760378956 0.00374162863455
-0.237576410932 0.0409421191437
-0.221673077627 0.0222778652799
-0.212159671351 -0.00264916999934
-0.198049219444 0.0921593865162
-0.183213378049 -0.0673414211093
-0.173989812687 0.0261498591849
-0.158230985366 -0.0901236826211
-0.146980502326 0.0439381643651
-0.135334519168 0.0191337927726
-0.120458963525 0.0349169196962
-0.106566876695 -0.120990641588
-0.0933722249166 0.0048456888131
-0.0881547355203 0.118270484209
-0.0577845803045 -0.0960542355175
-0.0433138920345 0.0489657199376
-0.0300989781032 0.0904795861776
-0.00760825027818 -0.0363486494002
0.00964535463965 0.0707086588913
0.0283252514705 0.0701219659819
0.0588830944462 0.00151675926492
0.079181084497 -0.0363680690254
0.111047269404 -0.0396980687983
0.126603256877 -0.113687633636
0.138444204997 0.0218141668003
0.146031126364 -0.015783203762
0.177400681703 -0.100979398116
0.188976140891 -0.0220458997881
0.219408792312 -0.0892871816224
0.227953226979 -0.062092720723
0.259593206193 -0.0704459040913
0.273130948917 0.0263204143499
0.310111912999 -0.0482269790584
0.327009433316 0.0520500559885
0.36874240706 -0.0229483565549
0.38032286531 -0.0729541152701
0.418863374507 -0.00492365854692
0.429547760367 0.00853567872087
0.453577636022 0.0138665276974
0.46190304352 0.076635965447
#40
-0.410781227726 -0.0317854884861
-0.400361038293 0.0726439898794
-0.382453024237 -0.0264457748946
-0.376825533139 -0.0153294457481
-0.354037682578 -0.0364103368979
-0.342685663149 0.0232942633521
-0.324170889799 -0.0379823138787
-0.318254853233 0.0812829596622
-0.289212573813 0.116194785061
-0.267418648261 -0.00573907257559
-0.249955939103 0.0108056754442
-0.230555371793 0.06913676251
-0.211639928662 0.0109088794927
-0.203136529785 -0.0497678851639
-0.187753784238 0.0669472620396
-0.174727454749 -0.109755686015
-0.167735423839 0.0326652905673
-0.148132937095 -0.122787215998
-0.139761760875 0.011268245005
-0.125603250554 0.00572840706207
-0.114306028714 0.0330819951018
-0.0988184353166 -0.129524395924
-0.0868959829194 -0.0424122701612
-0.0811762022587 0.0880556493941
-0.0557816160755 -0.0483525253529
-0.0336787267905 0.073282611842
-0.0222734277046 0.104857455219
0.00229493795702 0.00498135044007
0.0195099700744 0.0804343647866
0.0397493721523 0.0477466562354
0.0660030809484 0.023590613343
0.0863668689942 -0.00103812769519
0.111137039754 0.0106748959275
0.1309670819 -0.0882582975299
0.141557055055 0.0225352629392
0.146396390369 0.00387218556095
0.172604818951 -0.0762418357615
0.18685091332 0.0195704489205
0.213329736127 -0.0510891665721
0.227192066162 -0.0770183233293
0.261409910367 -0.0892624305804
0.272016889273 0.0311013164269
0.30325955818 -0.0116289767814
0.322147672958 0.0754743667403
0.366868744134 -0.0117542748625
0.382677764999 -0.0929030366716
0.429088751015 0.0344552481228
0.439674755881 0.0547062409401
0.465249848746 -0.00703592627874
0.472442550638 0.0810019430989
#41
-0.397927403357 -0.0450672786848
-0.385680904501 0.0724199924952
-0.367991563676 -0.0401206129544
-0.362041204259 -0.0149190660386
-0.340985996398 -0.0612318732486
-0.327606902095 0.0335859914836
-0.313695584935 -0.0222197487456
-0.306387760423 0.0783294716151
-0.277874494387 0.104699763176
-0.254060560498 0.0148008427829
-0.2385872954 -0.0089485002066
-0.217364141078 0.0961962179962
-0.199776338939 -0.00660962917343
-0.190238633585 -0.0501711509505
-0.176754974852 0.0447985647691
-0.16330311383 -0.100258146812
-0.160471750268 0.0277350708896
-0.137093193581 -0.12483069116
-0.132683431611 -0.00954142848477
-0.11647326027 0.0221929339882
-0.108793698037 0.00794157933843
-0.0911850529753 -0.125238731019
-0.0835714949404 -0.0370022693836
-0.076514317923 0.0720865215998
-0.0535155799419 -0.0300208021812
-0.0290211998272 0.0578042939823
-0.0217351833383 0.0985089246915
0.00014445138919 -0.0106693251715
0.0143006991587 0.0749352140731
0.0330608092375 0.0337308531662
0.0548491986749 0.0187233002691
0.0790296081043 0.016404568049
0.100527984663 0.00417648950521
0.124412474081 -0.0851211135183
0.130605578108 0.00454786969889
0.136751583363 0.0147014637132
0.160685826272 -0.0698651250416
0.177267663577 0.00793522624661
0.200974633874 -0.0443984679173
0.218410830777 -0.109462694855
0.250953855946 -0.0937897102687
0.263770830231 0.0201037014917
0.294234646214 -0.00897361822968
0.316591463526 0.076738401246
0.361121262994 -0.0234042462995
0.380376098486 -0.0996641407024
0.426350630413 0.0408688841521
0.438241030781 0.04994146935
0.464549102842 -0.010768855628
0.472700352346 0.0847655113827
#42
-0.396728821153 -0.0479544029794
-0.385852175075 0.074929009648
-0.368459065738 -0.0477152193667
-0.361999294278 -0.00908265374088
-0.340339469774 -0.0707107567994
-0.325833264987 0.00454476153066
-0.314636064024 -0.0322452232152
-0.306395211022 0.0635360768186
-0.279790150645 0.109544538192
-0.257263717224 0.0289958081601
-0.2434258069 -0.0328497506079
-0.222696849817 0.0608797893253
-0.205871344785 0.0190859885075
-0.196030287624 -0.0290702920808
-0.182127055313 0.0136422008399
-0.169794768835 -0.0825146746095
-0.167670143017 0.0359272401975
-0.144275254942 -0.136823081728
-0.141270823977 -0.00333773297122
-0.121558183282 0.00311012080255
-0.112394061766 -0.0104269153481
-0.0935342251591 -0.118557778586
-0.0835374910537 -0.0551759265139
-0.071509260944 0.0550586478916
-0.0507008381457 -0.0481297679048
-0.0272770741474 0.0642383794518
-0.0178371713727 0.0950139210278
0.00296656419115 0.00430011108515
0.0232507992104 0.05841375882
0.0407084745103 0.0453931949394
0.0586415132107 0.0389082535643
0.083137227747 0.0358955363052
0.102965165463 0.0199426763941
0.125643500681 -0.0486667918097
0.135807591067 -0.0389636336245
0.144674529023 -0.0107402170992
0.164711819447 -0.0392280157044
0.185287147657 0.022991615171
0.208861440153 -0.0716378678203
0.2249185646 -0.128466435332
0.253459940438 -0.108418354006
0.265126803047 0.0230627004559
0.303575440655 0.00600222979237
0.327123775456 0.073036471192
0.373200742683 0.00390713389174
0.396135134743 -0.0640634252749
0.440126651374 0.060663687772
0.451366302843 0.0601458812563
0.474706849474 0.00506104136619
0.481838159456 0.093573632803
#43
-0.399695887515 -0.073745359056
-0.386613055343 0.0281789969702
-0.374040113313 -0.060199222622
-0.366430858782 -0.0240135156605
-0.348570422718 -0.0792760972503
-0.33176174461 -0.00192760485254
-0.32611485575 -0.0266882102001
-0.316278530458 0.073899879668
-0.285268375541 0.0731900777811
-0.265977790519 0.0746570139463
-0.249601323447 -0.0165686330814
-0.225892962716 0.0814498072842
-0.205814141887 0.0197318018074
-0.194390744446 -0.0790814583834
-0.177537359851 -0.0347316706154
-0.170483825361 -0.0464829682918
-0.167850899003 0.0876090401346
-0.140403078199 -0.136459416741
-0.136679859853 -0.0018877207226
-0.114191203854 -0.0292155747921
-0.103586814744 -0.0502834315397
-0.0891763628626 -0.0868576067913
-0.077936133245 -0.0872524183679
-0.0649305657505 0.0243084660526
-0.0477491334203 -0.00237099579994
-0.0210972222574 0.0506518999319
-0.0105470414296 0.0855464703114
0.00662858245212 0.0539470702242
0.0290932830922 0.0551701786587
0.050331605087 0.028739079603
0.0564926406299 0.0943649968272
0.0849086841448 0.0240387881686
0.0934378376306 0.067502602549
0.12037376499 -0.0229147819209
0.131445300831 -0.0568144210038
0.141681407351 -0.0310290680011
0.158283309256 -0.0125580695144
0.181088865654 0.0411921996561
0.200925823808 -0.0636754620313
0.22005243479 -0.136907845723
0.245609086724 -0.113403630779
0.260067156555 0.0286238116362
0.296080497705 0.00662660058736
0.323322508114 0.0880185390754
0.367937624661 0.00309591761008
0.394458569024 -0.0807002954419
0.436825638165 0.0608336150423
0.449586265021 0.0596874841373
0.469905612455 -0.0044017405334
0.478347065568 0.0758980232858
#44
-0.417541904526 -0.0932382121148
-0.399344087511 -0.012627207737
-0.392028570407 -0.0583856355274
-0.381919680163 -0.0213846611313
-0.361298226626 -0.105952679495
-0.346535641683 0.0157913040501
-0.339320708521 -0.00367427119438
-0.327103954753 0.0648769520602
-0.293619967119 0.0755446863742
-0.267383607137 0.0310559568583
-0.252121177136 0.00941952301499
-0.222744518884 0.103240557355
-0.202018704814 -0.00461889840484
-0.188597367027 -0.115609832177
-0.171505830942 -0.00628457610496
-0.162213935394 -0.096103308177
-0.158325124378 0.0542217955562
-0.130159444256 -0.121259348485
-0.124658913987 -0.0616053018187
-0.0994707406756 -0.0429456368
-0.0939345917812 -0.026084298877
-0.0796065497406 -0.0786249422598
-0.0687764062925 -0.0971685663636
-0.0599802228259 -0.0108713264411
-0.0435340766622 0.0527541181975
-0.0109478256471 0.0698466710683
-0.00113996871744 0.0947888390547
0.020781340677 0.0411012503065
0.0346102113128 0.0850240797187
0.0593770743006 0.0150718680765
0.067348020187 0.0964162219897
0.0903248243128 0.0290160742734
0.100602772387 0.0664273662349
0.130329507256 -0.043902771095
0.138589495568 -0.0194963334952
0.143584822496 0.00637584755831
0.156014859092 -0.0297851909352
0.171538385572 0.0307452493862
0.188450345996 -0.0155505272493
0.207772212066 -0.10850289719
0.239874917799 -0.114245703075
0.250269607475 0.0420855971498
0.271660989807 0.01564744906
0.28741333262 0.103143942026
0.3283138825 -0.0310187520245
0.346105195778 -0.118035695122
0.393871765737 0.0497969303734
0.408135450555 0.036255448175
0.429219613816 -0.0159636503067
0.440559151153 0.0719496120593
#45
-0.417541904526 -0.0932382121148
-0.399344087511 -0.012627207737
-0.392028570407 -0.0583856355274
-0.381919680163 -0.0213846611313
-0.361298226626 -0.105952679495
-0.346535641683 0.0157913040501
-0.339320708521 -0.00367427119438
-0.327103954753 0.0648769520602
-0.293619967119 0.0755446863742
-0.267383607137 0.0310559568583
-0.252121177136 0.00941952301499
-0.222744518884 0.103240557355
-0.202018704814 -0.00461889840484
-0.188597367027 -0.115609832177
-0.171505830942 -0.00628457610496
-0.162213935394 -0.096103308177
-0.158325124378 0.0542217955562
-0.130159444256 -0.121259348485
-0.124658913987 -0.0616053018187
-0.0994707406756 -0.0429456368
-0.0939345917812 -0.026084298877
-0.0796065497406 -0.0786249422598
-0.0687764062925 -0.0971685663636
-0.0599802228259 -0.0108713264411
-0.0435340766622 0.0527541181975
-0.0109478256471 0.0698466710683
-0.00113996871744 0.0947888390547
0.020781340677 0.0411012503065
0.0346102113128 0.0850240797187
0.0593770743006 0.0150718680765
0.067348020187 0.0964162219897
0.0903248243128 0.0290160742734
0.100602772387 0.0664273662349
0.130329507256 -0.043902771095
0.138589495568 -0.0194963334952
0.143584822496 0.00637584755831
0.156014859092 -0.0297851909352
0.171538385572 0.0307452493862
0.188450345996 -0.0155505272493
0.207772212066 -0.10850289719
0.239874917799 -0.114245703075
0.250269607475 0.0420855971498
0.271660989807 0.01564744906
0.28741333262 0.103143942026
0.3283138825 -0.0310187520245
0.346105195778 -0.118035695122
0.393871765737 0.0497969303734
0.408135450555 0.036255448175
0.429219613816 -0.0159636503067
0.440559151153 0.0719496120593
#46
-0.435813990976 -0.062618406388
-0.417668144512 -0.0258133426481
-0.41025188937 -0.0199581427136
-0.397997381819 0.00469537380842
-0.375953170805 -0.0665187870834
-0.358891625928 -0.00777948671279
-0.350341430528 0.0394210711988
-0.33106498229 0.0452631849714
-0.30085653313 0.0616761484901
-0.271587149936 0.0066011363388
-0.253489433142 -0.011937178714
-0.229221249199 0.0769112819077
-0.207438805914 -0.00985004798333
-0.195168685482 -0.0738433696321
-0.172804312195 -0.0254853934411
-0.161599420819 -0.0530625449961
-0.153584201317 0.0471167147353
-0.124922000991 -0.082303834371
-0.114989327241 -0.0671948107215
-0.0924049972241 -0.0131757752915
-0.0855336593382 0.00386768450608
-0.0704435025085 -0.0643466976985
-0.0572460899804 -0.0826000183541
-0.0487121937029 -0.0240104673979
-0.0302275031381 0.053175874859
-0.00752338536268 0.0636703243621
0.00289591232317 0.0782977652516
0.0236367852312 0.0184978870667
0.0408153320878 0.0909954764753
0.0654386410685 -0.00216459658961
0.0736567955195 0.0783178327808
0.0925024034603 0.0267211522893
0.107949566449 0.0418663867004
0.136008184412 -0.045115087702
0.1430547443 -0.0280268994927
0.152931097862 -0.00544860402056
0.164986963363 -0.0451007831222
0.17683105647 0.0139247858738
0.191779784921 0.0100004759459
0.214890949995 -0.102274175346
0.23911460237 -0.101522103562
0.252141838453 0.0419338800028
0.273922343067 -0.0154610295159
0.284801878066 0.0839776702608
0.315696162861 0.00255261070929
0.332219682802 -0.10827159503
0.366365712889 0.0263021246174
0.378601190062 0.0242549691791
0.399214105258 -0.0161799669161
0.409038260308 0.0581484147469
#47
-0.435813264449 -0.0626187844385
-0.417667475599 -0.0258133878035
-0.410251208885 -0.0199586870772
-0.397996713033 0.00469553341811
-0.375952613307 -0.0665188229041
-0.358891076578 -0.00777914760582
-0.350340879346 0.0394203654132
-0.331064485321 0.0452633174229
-0.300856064531 0.0616754530779
-0.271586769066 0.00660130708054
-0.25348907045 -0.0119374680033
-0.229220908654 0.0769110852428
-0.207438550696 -0.00985050718698
-0.195168508418 -0.0738433746681
-0.17280419039 -0.0254859003848
-0.161599233779 -0.0530632011315
-0.15358410005 0.047116971947
-0.124921996885 -0.0823046584769
-0.114989407318 -0.0671944659091
-0.0924050514656 -0.0131765158175
-0.0855336055848 0.00386805039648
-0.0704435956858 -0.0643463768494
-0.0572461540129 -0.0826002484099
-0.0487124545534 -0.0240104457342
-0.0302278008367 0.0531760989282
-0.00752373481194 0.0636701176389
0.00289557474022 0.078297496399
0.0236364879269 0.0184977083431
0.0408152055166 0.090995529394
0.0654384245252 -0.00216431030682
0.073656618869 0.0783176121781
0.092502189797 0.0267209896596
0.107949635716 0.0418664270278
0.136008309403 -0.045115134887
0.143055011434 -0.0280268612874
0.152931286181 -0.00544769921107
0.16498721504 -0.0451010124485
0.176831129811 0.0139251683948
0.191779844602 0.0100000893393
0.214891186 -0.10227375839
0.239114846205 -0.101522090642
0.252141947413 0.0419336099131
0.273922367298 -0.0154603012449
0.284801959794 0.0839779637816
0.315696291089 0.00255252631823
0.332219732838 -0.108271257645
0.366365673026 0.0263023953773
0.378601135268 0.0242551236248
0.399214111038 -0.0161796862911
0.409038216061 0.0581485956703
#48
-0.459887005858 -0.015261411843
-0.44827503054 -0.00966339416477
-0.42762217257 0.0187032135438
-0.416146378822 0.0514062734741
-0.39517495527 -0.0117893300413
-0.375048257413 -0.0423459847254
-0.364907340531 0.0750986396448
-0.346841711282 0.0512503278677
-0.320838149831 0.0249094311676
-0.288422986319 -0.0193029365834
-0.264551002498 -0.0130638026149
-0.236416695561 0.0684522278272
-0.212497391086 -0.039390798036
-0.203501584603 -0.0124824911408
-0.177186606183 -0.0339576935182
-0.164163225699 -0.0108306785295
-0.144075548626 -0.0246053386598
-0.121769936944 -0.0493817663591
-0.102146507269 -0.0466349818264
-0.0832746698815 -0.00898790635883
-0.0718859624462 0.0452501212144
-0.0502974801564 -0.0783376980028
-0.031818699761 -0.0684340365278
-0.0210144926328 -0.0412280993223
0.000574322621857 0.0135584744228
0.0133831407741 0.0713849259356
0.0231068184565 0.0810953264785
0.0423804231507 0.000746264004852
0.0594745391241 0.0636733290307
0.0871190940536 -0.0477545031121
0.0973161158002 -0.0120708051347
0.106080330433 0.0586629085036
0.120021027386 0.0660142953371
0.14824539024 -0.0540355027827
0.157193843132 -0.0126806251134
0.167845039302 -0.011243600533
0.176251085043 -0.0320737067077
0.188351300377 0.0193634634998
0.194640823915 0.0571053360095
0.225059073885 -0.0639862825333
0.241681039121 -0.0446213138175
0.262187815782 0.00409399695412
0.279074369235 -0.034972991062
0.284887494125 0.0235672641312
0.298005826869 0.0692981878365
0.316093729277 -0.0612323775196
0.330915748455 0.00883872349082
0.349058044358 0.0125446975705
0.380653741962 -0.055388237351
0.383514658481 0.036761409814
#49
-0.476306115948 0.0454126227454
-0.459595403065 0.0522146744415
-0.415547950115 0.0363075390166
-0.403179270763 0.0481785039241
-0.382507211549 0.0237076308601
-0.359628563545 -0.0245961239613
-0.347211862435 0.0595686164175
-0.330023399539 0.0330596227823
-0.311799097719 0.0166607374765
-0.287445962735 0.00859738423191
-0.252832941931 -0.0221058260133
-0.221459402905 0.0391339769838
-0.192696961179 -0.0404593193997
-0.180389682075 -0.0191282784041
-0.15284739933 -0.00703323532895
-0.137344347989 0.0131350006125
-0.110875564526 -0.065353659527
-0.0949654981301 -0.037559402015
-0.0737513955678 -0.0443335470448
-0.0550649707834 -0.0137767336399
-0.0425219591963 0.0421820583285
-0.02364414949 -0.0619839285262
-0.00907889529419 -0.0366695175568
0.00610174100489 -0.00244030533053
0.036054163696 -0.0297952096288
0.0568252150856 0.0640176420044
0.0704590914179 0.0199197296175
0.0855755258697 0.0010090975053
0.0958224667145 0.0649087147488
0.11338182907 0.00303857837226
0.128030123686 -0.0520680475307
0.1344019564 0.0572460132768
0.14554341183 0.0847397074558
0.170940279897 -0.0362549510998
0.180237728029 -0.0138674741692
0.187742254569 0.00655358185106
0.199716720763 -0.0343646551812
0.210689184676 0.0113288881711
0.219619447973 0.0323471767092
0.242808082307 -0.0328004097538
0.254232782153 0.0174914695598
0.271919446511 0.0205191297736
0.292309433386 -0.0651001688054
0.298510017194 -0.0010035462381
0.309759548832 0.0617104225332
0.330888415248 -0.0892189559006
0.339968113635 0.00505173347757
0.354111681155 0.0207062434553
0.384939776444 -0.110411118599
0.388199195117 0.0357628604222
#50
-0.468174683824 0.0416352285056
-0.454316530341 0.0639501924957
-0.413361505239 0.0477309167755
-0.40092853024 0.0508250394211
-0.375313536748 0.0108105013074
-0.356951484802 -0.013689484949
-0.337478513689 0.0504227317996
-0.323307831486 0.0214025196146
-0.307985768061 0.0237178473352
-0.281187651023 0.00735035554806
-0.246233925099 -0.0104685482898
-0.216240848752 0.0651624462484
-0.180824543097 -0.0373619352018
-0.163846919853 -0.0245200407611
-0.128891182788 -0.0204150786656
-0.115304743221 0.020904659811
-0.0949655194777 -0.0537545563983
-0.0829421801298 -0.032395754007
-0.0659434403674 -0.0579695147421
-0.0444585129978 -0.00698502488877
-0.0314713112429 0.043250694207
-0.0108664978121 -0.0486233124702
0.0012803846647 -0.0427046912296
0.0180138874508 -0.0064790886968
0.0484194111588 -0.0259705892476
0.0708510637117 0.0679222271417
0.0842688726359 0.0052169321115
0.101909428341 -0.0122649086816
0.112671192606 0.0263379515311
0.130495882196 0.0306270400294
0.145920851969 -0.035510815089
0.154227842701 0.0487577374108
0.163584817195 0.0908302917916
0.185819270815 -0.0537587716979
0.19451068633 -0.0137130193537
0.199126998437 0.021298793538
0.212697409297 -0.0433079371439
0.217805870333 0.0267858554112
0.229159157747 0.00138286062836
0.250400146389 -0.067900003713
0.264038828003 -0.000292014167261
0.277149355714 -0.0181102805935
0.29255148286 -0.0529060048974
0.300635500988 0.000351179336006
0.30919884534 0.0564097190785
0.349221469502 -0.119722795966
0.353128082229 0.0285427070304
0.36404398237 0.0572281416631
0.396123813187 -0.111730975282
0.399219194338 0.0451493462157
#51
-0.477515941918 0.0321951656432
-0.45218443302 0.0438639426787
-0.417372322926 0.0173218823682
-0.398964162062 0.0120857397212
-0.375856013012 0.0121865551227
-0.350998573961 0.0102155074845
-0.333162291856 0.0438619991933
-0.315551167093 0.00314702419364
-0.296536720418 0.0220952961922
-0.274017374885 0.0251974018141
-0.236283061432 -0.0157506129338
-0.202674628872 0.0524084093525
-0.169814014986 -0.0162846548817
-0.15322964786 -0.0166868545761
-0.125566968608 0.00443404466615
-0.115005004968 0.0311340274863
-0.0939854769612 -0.0423953008392
-0.0829743279782 -0.0222044485101
-0.0673479766972 -0.0456109166512
-0.0510368915868 0.00578122020312
-0.0346791047402 0.0381497771227
-0.0172852481481 -0.0313739723014
-0.00509231482799 -0.0290916795755
0.0117274321488 0.0445423504208
0.042080014919 -0.00405339868151
0.0622197567637 0.058423910919
0.0780077760637 0.0089434026473
0.103944023273 0.00115772048101
0.11499577 0.0334215604117
0.128931776389 0.0374213550397
0.146661954353 -0.0198023357354
0.155227883594 0.0522830868748
0.165687699855 0.0352442755871
0.188924355175 -0.0566674479342
0.20190173794 0.00827638313083
0.209232438846 0.00783554275608
0.229175533432 -0.0545908703077
0.235126512478 0.0186096833648
0.249264216518 0.00846339171004
0.267733028732 -0.0410547960357
0.279345441398 0.00568611221629
0.292226070297 -0.0418864441968
0.30816124576 -0.0420842394807
0.314183625181 -0.00777042569414
0.329350933405 0.0247780475368
0.359473851856 -0.113324822793
0.370610038324 0.0105213101425
0.375974366354 0.0392704017041
0.404113452396 -0.107204813205
0.406600142601 0.0214821585304
#52
-0.471687133153 0.0165291423834
-0.446510797158 0.041403361199
-0.410936364037 0.00224198497703
-0.392882148346 0.00148827792302
-0.37104893611 0.0134549891332
-0.345738000601 -0.00471697722253
-0.328646225025 0.035041338889
-0.311725554768 -0.00381721526838
-0.293685243381 0.0144939187415
-0.27172530092 0.0280792987189
-0.232884467412 -0.0119197634349
-0.198090052944 0.0483677750615
-0.166296558047 -0.0127792169054
-0.150742860251 -0.00878965236713
-0.123315919313 0.0109409485383
-0.112279576861 0.0302930612181
-0.0919341019482 -0.0522651616864
-0.0820846375764 -0.014634252999
-0.0668528792236 -0.0440113979794
-0.0504207878979 -0.00027832872075
-0.0338067876907 0.0386554624274
-0.0176499755614 -0.0333172663006
-0.0064897147113 -0.0248149833262
0.00959930332853 0.0421171456867
0.0413380281446 -0.00618578442876
0.0615439201633 0.0596741966164
0.0776573752191 0.00484463715243
0.103115190706 0.00196829040391
0.114451719759 0.0360120804839
0.127639510375 0.0437665892296
0.146793285572 -0.0138808099768
0.156092003969 0.052094794035
0.167945947359 0.0383058106548
0.190850748966 -0.0482267644102
0.204892271418 0.0139218136324
0.21246332679 0.0100527996055
0.232818976052 -0.0470150803873
0.239064009375 0.0198895153252
0.254230214153 0.0128969717889
0.271911759169 -0.0300043777077
0.284539197706 0.0147760510319
0.297625292413 -0.0347596038428
0.314753593286 -0.0373749047667
0.320828977856 -0.00678170069437
0.336807649177 0.0287120352165
0.365170716468 -0.103431668194
0.376770426879 0.0163443504346
0.382082998912 0.0400451769439
0.409208826437 -0.0950825534385
0.411661046792 0.0238291877654
#53
-0.490676348822 -0.0109927162052
-0.465827789675 0.029395469811
-0.441568396491 -0.0232645311196
-0.433219012936 -0.00576619307817
-0.405967493865 -0.0155724728962
-0.381571089745 -0.00609946159293
-0.342805955992 0.0586615326148
-0.325099474432 0.0275836355705
-0.302447379722 0.0449587992709
-0.271648691949 0.0240239618817
-0.234838915424 0.0130954573287
-0.204841055048 0.0442464029698
-0.166784402459 0.0151490048877
-0.144516545362 0.00812647307581
-0.120055497466 0.0314372829566
-0.104654725978 0.0271799249542
-0.0841226350733 -0.0279119404359
-0.0682160662216 0.00290790802973
-0.0515442155684 -0.057063363202
-0.0364864911686 -0.024697759502
-0.0180461773938 0.0344895656259
-0.00337924622624 -0.0111994609651
0.00698945134619 -0.00798175823912
0.0218871123593 0.010810169843
0.04951882871 -0.0462468080297
0.0538035835835 0.0950327322272
0.0685664500595 0.0304519929775
0.0960915020808 -0.0212145071305
0.108284510549 0.0446001136847
0.125405478961 0.0224916744191
0.140328679169 -0.0518186300105
0.150909723245 0.0381859820125
0.163596885177 0.0499593704021
0.187478703506 -0.0493516992583
0.198011608764 0.0345201840805
0.207576369514 -0.0173184371639
0.225099480831 -0.0358568059952
0.232531751166 0.0298743079119
0.248145440271 -0.0166782937316
0.264779312723 -0.027528111267
0.283061857103 -0.0361885061348
0.295559776043 0.00364230854002
0.312608894929 -0.0324883948057
0.320240865563 0.00604961662686
0.336357928634 0.0118232408884
0.370231400781 -0.0691874838763
0.37967434491 0.00648114781348
0.388542245257 0.0168011655318
0.415524098361 -0.0668867728325
0.42020790092 0.0414188758788
#54
-0.481310039123 -0.0150119119976
-0.458641703604 0.0232743850278
-0.43702419371 -0.0208357989169
-0.422858518448 0.00104704100541
-0.394737591564 -0.0180639594532
-0.366443922646 -0.0174461774794
-0.329492332435 0.0333031569171
-0.312335180308 0.0393012103164
-0.286652336828 0.0526574078765
-0.260546721255 0.00321312031287
-0.230900716814 0.00309367809587
-0.202287566621 0.0327697557863
-0.168627477644 0.00880547064417
-0.14419258698 0.000850531408802
-0.119868455771 0.0418247809756
-0.101702757164 0.0204454715034
-0.0778713553079 -0.0290231389117
-0.0624052176805 -0.00340710126505
-0.0450822363084 -0.076092122446
-0.0331549185358 -0.00477886627615
-0.0112722886855 0.00463742538121
0.000271314307919 0.0066299389813
0.0119429408453 -0.00884647594116
0.0235873898132 0.00345785563832
0.0448455119624 -0.0165837579488
0.0527321588864 0.0629073972237
0.0713017291533 0.000739066168785
0.0945103452941 -0.0019987852012
0.107891824348 0.0552040847194
0.127503311923 0.0092382106927
0.1402216968 -0.0254569148349
0.150963151288 0.0373848945888
0.164623437399 0.029440310323
0.184544302754 -0.0214345645943
0.196093918788 0.0394155097002
0.208847233283 -0.0197803090026
0.227047511415 -0.0212709325139
0.23477654659 0.035229213066
0.254147175553 -0.02423218328
0.264364461077 0.00280749724412
0.280041298749 -0.0336140491982
0.287215681863 0.0326299895819
0.306987566824 -0.0182724537233
0.316441494663 0.0263393290365
0.335074233658 -0.0183093363787
0.365647529393 -0.0378701163424
0.381383739333 -0.00350152112538
0.39101344533 0.00333022533589
0.410787290029 -0.0642708129262
0.415465602595 0.0378040173408
#55
-0.445490259421 -0.0204678235292
-0.422644717489 0.0114530647829
-0.406390505504 -0.00995849846603
-0.39341380825 0.0320208093175
-0.362183208011 -0.0182794811676
-0.33699872372 -0.0489041286137
-0.317120122648 -0.0111396783241
-0.302721091831 0.00982963346851
-0.274566872137 0.0284383603981
-0.258377464945 0.00175418759194
-0.239122432124 -0.0120197754233
-0.21138381434 0.0485396317566
-0.188031764418 0.00849029547509
-0.166539298382 0.00164992846044
-0.141445072661 0.00880213736928
-0.12523063261 0.0166400508269
-0.103617348474 -0.0649529015052
-0.0907029766319 -0.0226945181114
-0.0728420112831 -0.0958255944348
-0.0636537155418 0.0109927917656
-0.0379872169784 -0.0316585058804
-0.0270082361442 0.00681613979432
-0.011926750191 -0.0140493712534
-0.00249223030821 0.036950598604
0.0162311672727 -0.0204783052676
0.0273159539008 -0.00619330377704
0.05482821001 -0.0657074748775
0.0759666989419 0.0112106727819
0.104810476582 -0.0167815576903
0.121587436234 0.0241137094761
0.145089297508 -0.0166405088197
0.152926444062 0.0664247180229
0.1709229648 0.00381769898171
0.190550942277 0.0174801091713
0.201465939182 0.0540124979216
0.218779619223 0.015688266043
0.239071544512 -0.0400861694241
0.250518555294 0.0313476184355
0.270706423765 -0.0229512456671
0.282201918916 0.0248219707247
0.297932731294 0.00899232252546
0.307011874527 0.0303312932973
0.322807286889 -0.00447774534931
0.332158911043 0.0562652603133
0.356048481913 -0.0161030225124
0.382625389872 0.00566992878022
0.401933606351 0.0177317562599
0.41044889487 0.0491610052572
0.435028183242 -0.0193914325286
0.446195384298 0.0418129599202
#56
-0.451920662567 -0.0125404283737
-0.425973367254 0.0209681416868
-0.410527904426 -0.0166981053515
-0.399568275721 0.0300329186936
-0.370253977593 -0.0104888200394
-0.345043054596 -0.047246363648
-0.323522181299 -0.0152375359944
-0.307795678688 0.00415481885973
-0.280907820126 0.0286244210777
-0.265673022903 0.0102793345411
-0.24531939462 -0.0020556924792
-0.214735410177 0.0462976140166
-0.192167757258 0.0221665677805
-0.16808692966 0.00627773983965
-0.144150022598 0.0250034682122
-0.126481664326 0.0239071367186
-0.103924657328 -0.0781097226817
-0.0924685969803 -0.0155182612749
-0.0740977134814 -0.0964057845535
-0.0644121078982 0.00286899950346
-0.0373868110747 -0.038908256513
-0.0279895499378 0.0174687362882
-0.0126170874451 -0.00254637111621
-0.00265611725409 0.0475432714376
0.0166684164701 -0.0277230072247
0.02828951475 -0.0157210015111
0.0573441458499 -0.0788983492706
0.0779120289346 0.00174405277957
0.108433837874 -0.022200625233
0.124425369587 0.0328106996363
0.148978299825 -0.0229669679592
0.156884969251 0.0645215512135
0.175211386824 -0.00407210740588
0.19408877294 0.0232798820238
0.204559324118 0.0646370056977
0.223366680095 0.0145720962773
0.244534652616 -0.0436966317392
0.256814133602 0.0195692516346
0.277292727633 -0.0345695818549
0.287105393484 0.0313754436327
0.302998839249 0.019449946404
0.311615045967 0.0281837817893
0.328209438378 -0.000907813698307
0.336770514556 0.0474305029301
0.363144409537 -0.0271743055286
0.389060382529 0.0106277968888
0.410146355223 0.0132747128138
0.418631633809 0.0409122227949
0.443134012483 -0.0117498049008
0.455366499954 0.0371486667184
#57
-0.416357285326 -0.0184077398457
-0.405278257044 0.0198373073133
-0.395800432911 -0.026207560319
-0.379289618254 -0.0175125253729
-0.35591149477 0.0025599282668
-0.336359518764 -0.0570942017261
-0.318938931141 -0.0648341385869
-0.301708789158 -0.0201375052299
-0.285558982269 0.00814887134504
-0.268503553638 -0.0238969195611
-0.252966885357 0.0384217717167
-0.218576670529 0.040146800379
-0.203239323746 0.0261065552954
-0.182664772389 0.0204591354055
-0.16211197416 0.0637316387413
-0.139464930258 -0.0290276934651
-0.125342809693 -0.014181708053
-0.107874245831 0.0227234063516
-0.0925129159721 -0.0776248852813
-0.0796251916211 0.0461740681871
-0.0565309590977 -0.0295181444815
-0.0424561301651 -0.0456883277203
-0.0262950168647 0.00507527735885
-0.0169727253753 -0.0311064329589
-0.0023674930579 -0.0196549539358
0.0130974433754 -0.026534885033
0.0359535994993 -0.0519418426663
0.0463279772386 -0.0275251377065
0.0833612660241 0.00810873326429
0.101951272701 -0.0167252635085
0.123248273359 0.00266619332327
0.137130756987 0.0628977704909
0.152350674418 -0.00519165135417
0.171814972706 0.0380901857925
0.184920913475 0.0508242908505
0.206482529174 0.0266377947883
0.231179180996 -0.0080881958163
0.245839168669 0.0316861676535
0.266515383298 -0.00392349783018
0.280680961104 0.0237336041141
0.297202763349 0.0422168109844
0.316143782202 0.0213305258353
0.337883952547 0.0505276087782
0.354538607625 0.0248893143808
0.379770683037 0.0145211395761
0.402494751181 0.0418660527692
0.428613768726 0.0298881118931
0.443404217709 0.041435226212
0.470660062077 0.0351393882687
0.485610251722 0.0400229007405
#58
-0.391000606957 -0.018052237542
-0.378907208871 0.0196435809698
-0.372143746712 -0.0324018977635
-0.357481041644 -0.0214898405308
-0.333664367452 -0.0192024866
-0.319843481257 -0.060395455593
-0.303924920558 -0.0513597485317
-0.287905129098 -0.0402588809502
-0.274488689239 0.00264454551436
-0.260480999133 -0.00260695395882
-0.244756717285 0.0422385065266
-0.216524258066 0.0307307966669
-0.200425198842 0.0245713378197
-0.18289281084 0.0268603559718
-0.16479907842 0.0620199284929
-0.145001828079 -0.0326241771657
-0.135151846548 -0.00221370172373
-0.116010918813 0.0161468375118
-0.103223752193 -0.0472640851883
-0.0882908762096 0.0370854233089
-0.0695087428057 -0.0130791105084
-0.05447897796 -0.0326081376332
-0.0404385224463 0.00845246593535
-0.0298635279987 -0.0269111768767
-0.0144673045457 -0.0227226263932
-0.00244565349525 -0.0210460218779
0.0190832506044 -0.0415976252744
0.0315588736873 -0.0177856498984
0.0686367135423 0.0135029905036
0.0879319097229 -0.00412432720851
0.112734583407 0.00227120418776
0.129610409919 0.0559260680417
0.145846249022 0.00302602601622
0.168295367542 0.0385442890016
0.18545681964 0.049483739164
0.208246413283 0.0377909585016
0.233340545294 0.00707898404854
0.252102055311 0.0293336531562
0.271951029461 0.00989268851977
0.287705069846 0.0244555673966
0.301428305454 0.0517146120042
0.323626599753 0.0180405512988
0.34553067591 0.0526973661535
0.366721354614 0.02200984695
0.390195451874 0.0206116149886
0.417036473542 0.0453180135448
0.440464563316 0.0453942160928
0.455765919377 0.0580534486992
0.485889036172 0.0395947197455
0.501260226057 0.0372058274908
#59
-0.388393887743 -0.0160620395529
-0.375830257802 0.0119870228138
-0.367908732338 -0.0175813392711
-0.356926896573 -0.0158021694751
-0.332272990784 -0.0129483879806
-0.320862861741 -0.0487334320403
-0.30361453835 -0.068568066389
-0.28954630007 -0.0579082712339
-0.276660517056 0.0136189955955
-0.264928943512 0.0130925221798
-0.24899325137 0.029138736788
-0.226058939686 0.0431324863484
-0.204699251102 0.036676862249
-0.190409859119 0.0337019369735
-0.171038096822 0.0203985648392
-0.152783503918 -0.0624717384917
-0.144924627398 -0.0158766140526
-0.126055506884 0.00960026719556
-0.116031220986 -0.0485960648829
-0.101314665093 0.0494121601143
-0.0790764994841 -0.0586981524158
-0.067508173598 -0.0543311448349
-0.0530830280326 -0.0266190693876
-0.0432787687607 -0.044583896012
-0.0314784249222 -0.0620305576254
-0.0192842719102 -0.0385223512668
0.00795948595053 -0.0829522279102
0.0225090317011 -0.0693741525012
0.0613593940732 0.0245984029142
0.0782264717199 -0.00237670487135
0.105148218765 -0.0346531235241
0.117893704742 0.0430918143833
0.135120231136 0.00774985165306
0.164951469242 0.0325550735791
0.18010931899 0.059602783916
0.205035716471 0.0507675715222
0.233812101563 -0.0220539050532
0.254384309455 0.0555740116921
0.287069769633 0.0414816468114
0.302745179417 -0.00402320282897
0.316499708836 0.0513924263709
0.330276679334 0.0425053322416
0.349602004131 0.0200020131386
0.367333120264 0.00971298994845
0.389542441018 0.0162392931236
0.415800101169 0.0696147101556
0.447350114135 0.0412552930036
0.459354697287 0.0846655152613
0.493505996406 0.0654722672664
0.5111035656 0.0724967095494
#60
-0.424516604457 0.000247543955032
-0.406545155836 0.0229628645176
-0.399863397716 0.0137568637685
-0.383951341839 0.00184729765553
-0.361770608933 0.0128741813156
-0.345293329826 -0.0277394851299
-0.323322684366 -0.0594991129029
-0.306380861016 -0.0233108019488
-0.291482808508 0.0239223147569
-0.272365232354 -0.000799671493905
-0.259951987734 0.025661616096
-0.23683260624 0.0393815298416
-0.216651802626 0.0300264246339
-0.201665073942 0.0082524637575
-0.182488879128 0.0166257162912
-0.159505958798 -0.0512669389682
-0.146784681072 -0.0410584859832
-0.126135548106 -0.0565840302535
-0.112701480647 -0.0849427681032
-0.0964130427354 0.0481613058611
-0.0723556076026 -0.0765294322232
-0.0624110191051 -0.0702092510204
-0.047752390062 -0.0623351873472
-0.0401272248656 -0.0312595217923
-0.0294164168332 -0.0720997446382
-0.0170840940343 -0.0348668422642
0.00982783209463 -0.0722386775807
0.0250699085562 -0.0639959497185
0.0597968015378 -0.0161116438194
0.0740915274735 -0.0153130132688
0.100410644521 -0.0641994500965
0.1086573162 -0.0116303233778
0.123812746838 -0.00860722031563
0.146159140984 -0.0250740860175
0.161723615359 0.0216755966091
0.184385740897 0.0497587150372
0.216781583932 -0.00133035397489
0.231420118448 0.0499065203959
0.265531449348 0.0678168572534
0.283192775504 0.0352543579978
0.301119988156 0.0759996337815
0.322061360599 0.0559172144371
0.339270422645 0.048207534148
0.352094220893 0.0427008535922
0.376855949179 0.047781862063
0.396693760614 0.0582385331852
0.431237394477 0.0754685617038
0.443007901507 0.0632149471679
0.471207087349 0.0469548460853
0.488335295231 0.0625866041446
#61
-0.440717509606 -0.00279735554163
-0.418770794572 0.0143083081957
-0.40819966259 0.0439886204361
-0.388503209146 0.0576302558188
-0.368328428633 -0.00964375417474
-0.35271843094 0.0210072884754
-0.328578469639 -0.0405926092999
-0.312763145405 -0.00457920728229
-0.299646135793 0.0642538929129
-0.280303441635 0.00505660914322
-0.269404783842 0.0403296666676
-0.246740460063 0.0246309112478
-0.225026525442 0.0497426388642
-0.201738673865 -0.0200026924823
-0.185732023149 0.0163846972553
-0.164346513879 -0.040520900698
-0.151594602814 -0.0175423941648
-0.129276211757 -0.0997820249622
-0.118907445698 -0.0806449796122
-0.106603704799 7.49264997345e-06
-0.0837339037035 -0.0758320993346
-0.0755311302397 -0.00856455245633
-0.0602630387579 -0.0667269229512
-0.0499171241643 -0.00108925905585
-0.0375915732313 -0.0544722652618
-0.0240528313957 -0.0689885950992
0.00404592547213 -0.0576379261975
0.0224311827688 -0.0992395415445
0.0486867056767 0.0143207081752
0.0708532652375 -0.0657014284894
0.0933991624521 -0.0493797643915
0.100785936902 -0.084678626498
0.118958680511 -0.0143983766869
0.133337114097 -0.0739766198372
0.146373337361 0.0125870628913
0.174257091436 -0.00101613244654
0.204461936329 0.0139938994394
