#0
-0.44623950112 -0.0677255950944
-0.430761105784 -0.144657478836
-0.412738977579 -0.0894836880872
-0.396084246651 -0.213394738126
-0.386461177814 -0.0257753428652
-0.354542286202 -0.181777762156
-0.340473456516 -0.142415804427
-0.326375250125 -0.0600159915984
-0.307275435329 -0.0767232130039
-0.29659195341 -0.0831302382842
-0.279349715974 -0.0133054570837
-0.258230808449 0.0930436139033
-0.233154833064 -0.0382475589672
-0.218441331498 -0.0274970221814
-0.19531135859 0.0309528886198
-0.176314822914 0.0128806993763
-0.161417189659 -0.000644179672537
-0.140777519083 -0.00173623653879
-0.108283726946 0.0530216565833
-0.082537242554 0.0152524316851
-0.0661048131421 0.0919055173676
-0.0587508601776 -0.000875607135142
-0.0331613132412 -0.00366207375339
-0.0121121663981 -0.0292944596297
0.00518554102625 0.0346709920477
0.0274008638038 0.0682564323368
0.054422650805 -0.106979803337
0.0839937473947 -0.0184905925946
0.107368886888 -0.031480905558
0.126715470059 0.108926051446
0.148156318751 -0.089726082343
0.162013851015 -0.070302460928
0.171002305518 0.0845264265625
0.193252213368 -0.0504635049995
0.20081810306 0.083441232274
0.216210411642 -0.0302481676617
0.233369853569 -0.00530357956107
0.248309396403 0.0345182788422
0.26030792799 -0.00483426763528
0.269207645273 0.0776650174867
0.28789873004 0.0694150941884
0.30295892767 0.0801209656249
0.332181495283 0.10999530142
0.344608660724 0.147753983858
0.368625926332 0.147001284885
0.39580779016 0.117105354282
0.413404487392 0.100356304833
0.433966571478 0.174902305511
0.466031591562 0.0915930368309
0.471139565279 0.152960293835
#1
-0.44623950112 -0.0677255950944
-0.430761105784 -0.144657478836
-0.412738977579 -0.0894836880872
-0.396084246651 -0.213394738126
-0.386461177814 -0.0257753428652
-0.354542286202 -0.181777762156
-0.340473456516 -0.142415804427
-0.326375250125 -0.0600159915984
-0.307275435329 -0.0767232130039
-0.29659195341 -0.0831302382842
-0.279349715974 -0.0133054570837
-0.258230808449 0.0930436139033
-0.233154833064 -0.0382475589672
-0.218441331498 -0.0274970221814
-0.19531135859 0.0309528886198
-0.176314822914 0.0128806993763
-0.161417189659 -0.000644179672537
-0.140777519083 -0.00173623653879
-0.108283726946 0.0530216565833
-0.082537242554 0.0152524316851
-0.0661048131421 0.0919055173676
-0.0587508601776 -0.000875607135142
-0.0331613132412 -0.00366207375339
-0.0121121663981 -0.0292944596297
0.00518554102625 0.0346709920477
0.0274008638038 0.0682564323368
0.054422650805 -0.106979803337
0.0839937473947 -0.0184905925946
0.107368886888 -0.031480905558
0.126715470059 0.108926051446
0.148156318751 -0.089726082343
0.162013851015 -0.070302460928
0.171002305518 0.0845264265625
0.193252213368 -0.0504635049995
0.20081810306 0.083441232274
0.216210411642 -0.0302481676617
0.233369853569 -0.00530357956107
0.248309396403 0.0345182788422
0.26030792799 -0.00483426763528
0.269207645273 0.0776650174867
0.28789873004 0.0694150941884
0.30295892767 0.0801209656249
0.332181495283 0.10999530142
0.344608660724 0.147753983858
0.368625926332 0.147001284885
0.39580779016 0.117105354282
0.413404487392 0.100356304833
0.433966571478 0.174902305511
0.466031591562 0.0915930368309
0.471139565279 0.152960293835
#2
-0.456402495532 -0.0799108782302
-0.440698118918 -0.134857145803
-0.422092094674 -0.0940235697131
-0.404582878204 -0.210677410176
-0.392972975075 -0.0356589679516
-0.361027154362 -0.18015054529
-0.342320228227 -0.14104049389
-0.327582967776 -0.0468406211421
-0.308508545121 -0.079890781246
-0.297152512548 -0.0834474462342
-0.279928278784 -0.018105915859
-0.257820480856 0.0846840522312
-0.233549149703 -0.0324432676821
-0.219324505465 -0.0261696359253
-0.197548987035 0.0352991289689
-0.177280486892 0.00450456886445
-0.162580837366 -0.0147529229499
-0.142338272868 0.0229401038316
-0.109456632819 0.0685082208103
-0.0779063170527 -0.00112066646073
-0.0613991581915 0.0597005911905
-0.0540306714765 0.0336596037928
-0.0301331229334 -0.00352674028336
-0.0087081629573 -0.0341958275726
0.0073462152772 0.0241247077917
0.0275302606789 0.0425865152735
0.0545063876859 -0.0984142356852
0.0838465452974 -0.037730292692
0.107019470566 -0.047398506328
0.122355203979 0.0993245105499
0.144663218246 -0.0781704857941
0.158347702033 -0.070854087491
0.168704974148 0.0704929757754
0.190048335748 -0.0413866681312
0.198278498761 0.0945846874618
0.215018955352 -0.0189929072948
0.232927442152 -0.018594192459
0.245690949911 0.0372000024802
0.259508880788 -0.0186959971535
0.26643115383 0.0921495199744
0.286642751935 0.0589841179866
0.299655508785 0.0780817498161
0.32968270178 0.0981525226249
0.340694427623 0.134397517915
0.366437584931 0.13535195635
0.393246629103 0.10599240674
0.411596639181 0.0951448408142
0.431282907146 0.155289695903
0.46413450069 0.0795112490677
0.468870265508 0.145661715256
#3
-0.436596564304 -0.0065509655274
-0.407558461282 -0.115017071616
-0.391084399433 -0.0345911270937
-0.365990278504 -0.208789609893
-0.356146606428 -0.0698792246081
-0.340256983385 -0.124915397535
-0.321020919418 -0.119452978692
-0.307250628266 -0.0285647963089
-0.28630366729 -0.073938961569
-0.277375953837 -0.0794374916702
-0.259397018145 -0.0781669087341
-0.246250219218 -0.00409366641127
-0.229870538181 -0.0418077476464
-0.221308417553 -0.0131389307793
-0.207044857704 0.0859981861361
-0.18438769543 -0.0845694677342
-0.167149967134 -0.0968715872109
-0.15068764248 -0.0440317867825
-0.133303857871 0.00490465271145
-0.111453264242 0.079731236512
-0.0844109579505 -0.0059145150109
-0.0767641413296 0.0791443644014
-0.0524285132119 0.00426001109794
-0.0349657838343 -0.0487795423483
-0.0213537809646 0.053870362944
-0.000167533468745 0.0211900759023
0.0370282242922 -0.0532356764212
0.0549056942438 -0.0302797731361
0.0758283205427 -0.078328397542
0.0888310070479 0.0887269650894
0.110419610741 -0.0596602146778
0.129718212344 0.0395137145052
0.14677268355 0.0149669159298
0.16824409831 -0.0893383748164
0.175920793437 0.0415280405585
0.192090241408 -0.00943696333871
0.211472209442 -0.0604541880583
0.229167543991 -0.0101803040689
0.242981240174 -0.0684183478605
0.261198224439 -0.0237711729049
0.27763511165 0.0469017993532
0.296240375174 0.0710891954912
0.319600288625 0.10666858915
0.337332634511 0.120407792176
0.36953103909 0.039618138727
0.392260292029 0.10503089659
0.411193738085 0.0384339930542
0.429284414398 0.154036028069
0.449440522043 0.123947534338
0.467202942942 0.164641028445
#4
-0.418875088215 0.0017408040998
-0.389636511769 -0.123956412538
-0.377643297547 -0.01258665572
-0.351244702461 -0.208101967466
-0.339762934205 -0.0694681572693
-0.322948408143 -0.107138732512
-0.305828430168 -0.116150098793
-0.294495309088 -0.0119309932855
-0.270996052859 -0.0954770849826
-0.260757444116 -0.0634960045091
-0.240891590941 -0.0396295810895
-0.228101797396 -0.0556738982417
-0.213591783816 -0.0115398957899
-0.198899995151 0.00222719104516
-0.185500349709 0.0608086913547
-0.170443440975 -0.0700612986809
-0.150728638876 -0.137014186644
-0.134686272367 -0.035045723849
-0.118608430232 -0.0388669033838
-0.101488585199 0.100513080225
-0.0784081928374 -0.0429444523962
-0.0682126013331 0.0528087385286
-0.0463873172181 0.0051362893827
-0.0348964990923 -0.0349809306831
-0.0232257897459 0.0334693042715
-0.0072589302421 0.0431151500727
0.0312794762887 -0.02931134142
0.0431500379475 -0.0413135505961
0.060071054215 -0.0514157247835
0.0753871171951 0.0787484538476
0.0934327276327 -0.00476767478651
0.114784688697 0.0676892240434
0.133774884715 0.0116067261182
0.156866276843 -0.0822178514968
0.163940660284 0.0388104396761
0.181726915815 0.0185468398999
0.204020464221 -0.0603306553783
0.221795603524 -0.0124289147238
0.240750230843 -0.0693065050486
0.260075462788 0.00733455412088
0.282861910506 0.0142529340007
0.301530056607 0.0977038790238
0.333416482044 0.100159104861
0.353653507687 0.111242028053
0.389987467681 0.00498294927926
0.40815690589 0.121889684922
0.429051117788 0.0215319331063
0.446407182894 0.120624002447
0.462347523014 0.11221778795
0.481634947836 0.135712278346
#5
-0.418110505291 -0.00293192162009
-0.403514814779 -0.0937878671405
-0.38745505177 -0.0551765481376
-0.370335523865 -0.15114911679
-0.351876411806 -0.0545563860295
-0.33072590437 -0.0999209258785
-0.316317296292 -0.113329980061
-0.305144127886 0.0143383765733
-0.285456992624 -0.0931502615661
-0.269284166843 -0.0533287642187
-0.25244835288 0.00473535182723
-0.237471773024 0.00927792418925
-0.219425250076 -0.00882301503131
-0.198599874064 0.00299764661708
-0.181960354214 0.00708872921486
-0.167598728136 0.009882172276
-0.152178675273 -0.0767779943512
-0.130779556103 0.00852912596385
-0.108810488819 0.0123830259478
-0.0858254814408 0.0286414302311
-0.0709731158882 0.0126517428355
-0.0565714032738 -0.0171716889144
-0.03851037605 0.0182501352299
-0.0222986475215 0.00862680390267
-0.00676095335233 -0.0186128114555
0.00929051134373 0.0397472268468
0.0371720696165 -0.0465021005164
0.0542410981104 -0.0192028845325
0.0729365500128 0.0212800927605
0.0957231572021 0.0723009813421
0.113902698294 0.0211013081895
0.130147501821 0.00541540776872
0.147680627635 0.0461482579516
0.171864234447 -0.0198872930118
0.18268158684 0.080777330336
0.200805339924 0.0263457804689
0.223616964735 -0.0165883948514
0.23912258283 0.0354533940901
0.262218918542 -0.0393432303497
0.272719522616 0.108146486333
0.300006963738 -0.00384455402324
0.313626682036 0.0960339663649
0.353577452589 0.0951102412659
0.370094658825 0.0877710055637
0.400950469102 0.0683108864626
0.420914542333 0.0903368061474
0.439842203692 0.0671562642576
0.462100945505 0.0820495169055
0.482426672503 0.0576130525915
0.491119502267 0.0837562698975
#6
-0.368639212857 0.0498401207852
-0.359220421885 0.0237333775229
-0.348941766473 0.0268993379595
-0.336333417856 -0.0411179617236
-0.320668553868 0.00447190522549
-0.309026261717 0.0181826137044
-0.29617237494 -0.0279494032548
-0.283376604676 0.0393913273638
-0.274011634389 0.0150222041026
-0.254368001483 -0.0372663673888
-0.24391256348 0.0347993696235
-0.236008010364 0.0169497613326
-0.221833834584 -0.00603466073711
-0.199536444318 -0.0666259158553
-0.187815855363 0.00983016371475
-0.174046374958 0.000151031979224
-0.163364985411 -0.0597799956661
-0.14599778781 -0.0483342434505
-0.135225411837 0.0607557256276
-0.107514947234 -0.0355610195226
-0.0923075824537 0.00284601749228
-0.0785633119027 -0.0107467704463
-0.0593298379761 -0.0548987243924
-0.0456640553282 0.0316404113844
-0.0306354124165 -0.0468764832286
-0.0133860615344 -0.00263526584407
0.0109533747089 -0.0694373824452
0.0265593647266 0.0245578525455
0.0514149804201 0.0273358442962
0.0707709805654 0.0910392846434
0.0939871364025 -0.00560870549242
0.111274263227 0.0341998184262
0.134602827422 0.0403552994691
0.161974975584 0.0194026578595
0.179971750743 0.0730438202833
0.206480445639 0.0117866864994
0.231764895872 0.0236263478671
0.247414693968 0.0645024900859
0.279183083721 0.00579655743105
0.294258749828 0.106207697736
0.323328308671 -0.011470278767
0.344486666871 0.115719443894
0.377239706835 0.0978732556845
0.405533484232 0.0330986643991
0.435649381967 0.00909909135469
0.452488214804 0.0294605099784
0.466530891172 0.0398296733575
0.477901469921 0.0462944750507
0.492813458754 0.0238665566317
0.499059932187 0.0564423715823
#7
-0.38012908962 0.0295012517905
-0.371638535799 0.0236910493868
-0.351796662117 0.0116421403881
-0.337688147369 -0.0619994954714
-0.322976359966 -0.00625648415678
-0.311893909045 0.0151989682566
-0.298024937741 -0.0268918911911
-0.288480523423 0.0335911745745
-0.27422783175 0.0164482656645
-0.257708242839 -0.0270002892189
-0.245516856154 0.0488274999016
-0.231826468672 0.0262329668583
-0.2160648477 -0.000554173656392
-0.196759713342 -0.0670060659811
-0.182809848193 0.0168004123769
-0.173225333904 -0.0056168322138
-0.160981708267 -0.066168025908
-0.144936832492 -0.0390056993238
-0.1332575161 0.0261678787329
-0.103174094589 -0.0404251219667
-0.087766940008 -0.00152291054745
-0.0739655911315 0.00306620688274
-0.0534240702576 -0.0800291851621
-0.0404822952423 0.00639873613742
-0.0275704278166 -0.0569002596647
-0.00983922955636 -0.0113895372197
0.0119990386535 -0.0864701668353
0.0267302852563 0.00031657722512
0.0467264941339 0.032329113136
0.0647996884737 0.0657215552251
0.0831212658107 0.000751628293467
0.0990386677064 0.0134011903427
0.117701602921 0.0230298601945
0.145486118833 0.00177032567273
0.1591522591 0.0518843845113
0.182408515847 0.0315715724061
0.208419702374 0.0436750696642
0.227927513691 0.0464554194527
0.259524610048 0.0105265760915
0.279155142266 0.102793956455
0.308578141185 -0.00172169941541
0.328810441603 0.126909668462
0.375413543817 0.0955454436821
0.403706030147 0.0384891561844
0.433427449235 0.00340059074461
0.44997082379 0.0398982065773
0.465507056352 0.0304100944374
0.474581464949 0.0519199793328
0.491131773882 0.0282281023306
0.50004757954 0.0519809082567
#8
-0.40012703998 0.00329839846055
-0.392260096361 0.036279733214
-0.371702735857 0.0291635348342
-0.356323157692 -0.0293394714691
-0.342389057032 0.00897421642018
-0.33145847589 -0.000641200067238
-0.317900759451 0.00992342603999
-0.310040643968 0.0604482388663
-0.292067191806 -0.00940901579642
-0.277210578632 -0.0324133281451
-0.261247040306 0.033929629508
-0.248367707021 0.0311689584488
-0.233316547859 0.0261840205372
-0.212581431511 -0.0721237107331
-0.200092063904 0.0264471744615
-0.188292558987 -0.0163900174269
-0.176333662488 -0.0902327585192
-0.158929084901 -0.0231472824943
-0.145564384947 0.0462238601459
-0.113306539808 -0.056449156513
-0.0972974345694 -0.0294637790242
-0.0820296355899 -0.0150149808742
-0.0633495213719 -0.0600112772741
-0.0501985101085 0.0228694479824
-0.0363031916045 -0.0799903499246
-0.0187496921679 -0.00254145519554
0.00193150601119 -0.0671042175117
0.0206427882738 -0.0023234228967
0.0398833245199 0.0333466569587
0.0586946049773 0.0487324680789
0.0794028570438 0.0214246396953
0.0956855923375 0.0210869598202
0.114657681397 0.0157774171045
0.141017538031 0.00621481621056
0.153541269267 0.0451111986481
0.179031676833 0.00508097343399
0.202777604401 0.0682682479026
0.222803869152 0.0166845843937
0.254281645282 -0.0201230014269
0.280596397157 0.108334688506
0.310150157216 0.00460232003773
0.327642375493 0.129551264409
0.371272527254 0.0979942417452
0.401060297855 0.0412370279509
0.430840028098 -0.0246545096577
0.449941558161 0.0158109863435
0.466364569021 0.0215025110241
0.473876369183 0.0300897971965
0.49312174884 0.038445454054
0.504612958138 0.055044988033
#9
-0.415024085962 0.0189717633601
-0.408240855077 0.0852950289565
-0.377659538368 0.0447791386561
-0.360410860129 -0.0168080797836
-0.345443070325 -0.00798766554903
-0.336999112434 0.0168766728803
-0.322695974939 0.00372983850375
-0.31407881281 0.0352843400433
-0.295074416699 -0.0367116968209
-0.281540172548 -0.0386887694207
-0.264826936044 0.0106741447983
-0.250547847873 0.000944565814743
-0.240959434888 0.0105109252648
-0.221825015076 -0.0478753876068
-0.206721595605 -0.0144700664489
-0.197733602526 -0.0120543346834
-0.184442341858 -0.128980260743
-0.164676195325 -0.000454103218234
-0.148786299721 0.0363277515816
-0.121809605713 -0.0547467987505
-0.103327976472 -0.0663217860013
-0.0874660709843 0.0139019680711
-0.0696930898123 -0.010691596227
-0.0561394522422 -0.024390352326
-0.0406486499093 -0.0345025841437
-0.0181426602577 0.00686290179217
0.000334208588633 -0.0748276338833
0.0196391321731 -0.0028781558104
0.0381312789897 0.0072994343838
0.0563884386257 0.0465607825064
0.0779811586719 0.0239863564396
0.0901038098423 0.0396011129432
0.114538607351 0.0172614187489
0.138840336512 0.00476311150469
0.152069167623 0.00971524900315
0.177495793343 -0.00687607548471
0.198990877443 0.0997403944421
0.224296063872 -0.03332026194
0.254592094599 0.0194113897738
0.281339193205 0.109888069321
0.306985460611 -0.0247529645273
0.323333326884 0.101707535991
0.36688232557 0.0990249826265
0.396488980528 0.0647633119645
0.427999558093 -0.0344999940207
0.444296215099 0.015096031399
0.460971420745 0.0333949620103
0.466212238954 0.0274559823601
0.483025227761 0.0339728018534
0.498637725209 0.0448181560862
#10
-0.406205344181 0.0417024779426
-0.397827415286 0.0640033917089
-0.367019036977 0.039243097133
-0.350059625357 -0.0702997333953
-0.33596848518 -0.0259305031813
-0.324952718984 0.0532249463551
-0.307623726389 -0.0426879274421
-0.297742369413 -0.0163205740223
-0.284415563886 -0.0166039301734
-0.269453589788 -0.0317078551559
-0.256887301404 0.0213576391489
-0.242648352351 -0.00621129304119
-0.231429999573 -0.0260874803854
-0.21614492803 -0.0121988997419
-0.199235090907 -0.022855809499
-0.192155255146 0.00483156681817
-0.178509968411 -0.105093410487
-0.156897591313 -0.0118643659245
-0.142734829306 0.0382017596687
-0.116537502678 -0.0327999923252
-0.10065893233 -0.0408591295277
-0.0867275243866 0.0219292604475
-0.0698893558746 -0.00439165550031
-0.0530595678053 -0.0354533209247
-0.0374837446774 -0.00691787422508
-0.0172457230312 0.00944012034956
0.00307356640098 -0.0814318101137
0.020308938263 -0.00362434558967
0.036656871786 0.0103269070331
0.0568589065957 0.0611420743899
0.0757457906757 0.0052289641359
0.0902007850309 0.0331054906695
0.113357667562 0.0170737303921
0.13875747407 -0.00892256117025
0.150942292969 0.0178979439463
0.174782514929 0.00825518441981
0.19631106077 0.0738473881285
0.226061581692 -0.00664110926451
0.254816293619 0.0334656653224
0.273211191047 0.0853725137529
0.295001967317 -0.0437054502228
0.318471743527 0.0669398716906
0.35915821934 0.0929685607642
0.388356238556 0.049230556615
0.416872603752 -0.00273875159299
0.431161777472 0.0264190451955
0.462597294453 0.0504014299086
0.46939146676 0.0469108384277
0.487021178626 0.0263308783681
0.502608321807 0.0443493297723
#11
-0.39651691421 0.0423520679861
-0.388656920932 0.0637546804282
-0.358817014455 0.0260708726872
-0.342510123058 -0.0699790285453
-0.329572895998 -0.0128335758801
-0.319015235334 0.0415976852091
-0.303418155472 -0.0322882103736
-0.293716093931 -0.02182751096
-0.280265306268 -0.00625340150405
-0.265847982503 -0.0326379837935
-0.252986327617 0.0254260124297
-0.239036396879 -0.0137351218775
-0.227585168683 -0.0188626931173
-0.213355896829 0.0119965385899
-0.197536041942 -0.0248771693179
-0.189521497262 -0.00381672444382
-0.176351308768 -0.0817880915885
-0.155185480832 -0.00685625948266
-0.142608368491 0.0235057134398
-0.118425867964 -0.0304510182039
-0.102277428539 -0.0280581136047
-0.0878938617221 0.0146118894569
-0.0723519864824 -0.00429727253176
-0.0549573594707 -0.0365559228944
-0.040413744192 0.00837199584937
-0.0224122586953 0.00131306416289
-0.00391637197687 -0.0740336854028
0.0149154036936 0.00578806070769
0.0294120211427 -0.00017847915454
0.0511145029875 0.0575319948998
0.0675221746027 0.00235448406433
0.0845968554775 0.0355895465418
0.106347611613 0.00911008494193
0.131535032225 -0.00440424162721
0.143043731336 -0.00116790318167
0.168167785214 0.0116730983618
0.190671880903 0.0749164896997
0.223095319252 -0.00261922309309
0.254287218877 0.0388461585063
0.275428969645 0.0875738592262
0.296606519159 -0.0429082875434
0.320104132969 0.0498675624339
0.359859074956 0.0972863946437
0.388149822679 0.0430466659084
0.414288783824 0.00813975128348
0.427868184244 0.0253238114094
0.459445978863 0.036310792606
0.466110591326 0.0401124458667
0.482434975729 0.0285199993239
0.499478346521 0.0317958416843
#12
-0.409585114482 0.00526799807149
-0.404827499878 0.0721863398042
-0.374621380855 -0.00891144081594
-0.35523835641 -0.0322410454914
-0.342646522969 -0.0490977360874
-0.337949041543 0.0190499243774
-0.323423269774 0.00480409707903
-0.31650130172 0.0190657673048
-0.295127316478 -0.0281508772993
-0.287349464229 -0.0106371136629
-0.270748177203 0.0147665005619
-0.258977912213 -0.0253604542193
-0.245460427517 0.00913435776167
-0.230606419722 -0.0239314270294
-0.213981778465 -0.069094233201
-0.207934661818 -0.0157151866756
-0.189567205017 -0.0850420551019
-0.168667558538 -0.025578027033
-0.153887099314 -0.00437884013053
-0.130898563239 -0.0709733704175
-0.107455246064 -0.0402727290587
-0.0925500768936 0.0154237048495
-0.0738502836524 -0.0503506391099
-0.059721543003 -0.0724336737915
-0.0430954084654 0.0488705038864
-0.0232780169456 -0.0619575397236
-0.011079054107 -0.0593469984609
0.00335807511404 0.0248396791547
0.0226052948068 -0.0217981210043
0.0402203067503 0.0625124531203
0.0598812137577 -0.00782255941414
0.0734419735894 -0.00260660551212
0.0930629536158 0.0289269010316
0.131447639042 0.0523767953311
0.147687415018 0.0171976176499
0.171232805842 0.0567986321112
0.197773843876 0.0809354527576
0.22611514367 0.0373859052571
0.247267419954 0.0848505656961
0.272279255638 0.111250937146
0.287834501424 -0.0184318638232
0.299448948608 0.0772828566553
0.337897473384 0.12195914789
0.374858293845 0.0651653283979
0.39900283576 0.0243356384665
0.413421602067 0.0558016203988
0.433533916509 0.0533243924337
0.43739323085 0.0863906162431
0.454635844828 0.0611969442577
0.477234837215 0.0339967075206
#13
-0.405537779317 -0.0151379464038
-0.401223062372 0.0571292814217
-0.375635066881 -0.00690771045469
-0.35726018931 -0.0136100849794
-0.345367691791 -0.0260484041556
-0.341548920325 0.0341247609904
-0.328953156827 0.00293981706504
-0.317209169833 0.0616481058201
-0.296002887189 -0.0498611497076
-0.289071513406 0.0262726446161
-0.277348593042 0.0560359178717
-0.265026308871 -0.0119804576561
-0.256465585751 -0.00408515328431
-0.239728893578 -0.0131625901521
-0.228226292754 -0.0432994147867
-0.221319644512 -0.026677349304
-0.205847474825 -0.114526288438
-0.185655311623 -0.045251525727
-0.173521370524 -0.0569678977746
-0.158862916164 -0.107652388663
-0.131231126002 -0.0680171957354
-0.118460039596 -0.0446157706339
-0.103735132766 -0.103482888962
-0.0933612011775 -0.0903546779159
-0.0817864856094 0.0416957359202
-0.0593619668686 -0.0536915702094
-0.0377427588651 -0.0307249186474
-0.0246550867276 0.029057291951
-0.00969743262295 -0.0133364319242
0.00859698239895 0.0635267967453
0.0307137057696 0.00331201503229
0.0498467889633 -0.00072478743088
0.0724584268433 0.0572814801168
0.103518484456 0.0561968830598
0.13413036036 0.0184525903744
0.166797476069 0.0328022724169
0.194363066053 0.0363625531497
0.226012514006 0.0533895075523
0.244278635312 0.0722513478338
0.28769254236 0.0878553229024
0.302891305765 0.0192644876475
0.322501518253 0.0362154163797
0.351265324343 0.068294423303
0.384432569688 0.0443956683586
0.403855822277 0.0339521937133
0.426497174593 0.0503024601324
0.451545606009 0.0694872279401
0.458967482394 0.0859349898063
0.479465461763 0.0623201033806
0.503314181018 0.0562508853139
#14
-0.418118807028 0.00518527071301
-0.413911746508 0.0797956687124
-0.385860023702 -0.0142633069207
-0.371278267031 0.00747365709164
-0.356328629887 -0.00991214983888
-0.352734030533 0.0444756203103
-0.336963938243 -0.00766852504219
-0.324780162299 0.0546400744997
-0.303911279081 -0.0355025992234
-0.296934427654 0.0484105418527
-0.285212404842 0.0840861540657
-0.269780459653 -0.0044710949973
-0.261255899093 -0.0187610959609
-0.241807022481 0.00106880772378
-0.230535125101 -0.0223808993076
-0.223177309093 -0.0131307669143
-0.208479830422 -0.102895226509
-0.192424538706 -0.0206451678983
-0.177320059293 -0.0470269569753
-0.163451385612 -0.0944916669954
-0.135770440557 -0.0549595093349
-0.123346488269 -0.024025396408
-0.112636383327 -0.082854625987
-0.0997438110795 -0.0866865646184
-0.0883310567685 0.00627507348064
-0.0664288603106 -0.0308996025939
-0.0404759836355 -0.0520938558151
-0.0246145203446 -0.00261954708933
-0.013523126477 0.0190207984853
0.00786389570016 0.0474218970272
0.0353879959753 0.0370730490857
0.0582601576352 0.0270085650754
0.0867979357027 0.0368519422832
0.106133562139 0.0399200034631
0.140830888516 0.00572922487399
0.172893959481 0.016585728443
0.205500676109 0.0283311505636
0.236754590732 0.0549505599164
0.257750670536 0.0452161739785
0.300162350636 0.0903489310897
0.315348406819 0.0285839056892
0.338892096208 0.0182749140732
0.366335886584 0.0347646871807
0.388034572223 0.0436008236871
0.403704131757 0.020335813168
0.42769554501 0.0406119569723
0.451437503449 0.0641488606095
0.462076825986 0.0756934721444
0.482119301212 0.0431616046323
0.497680178872 0.0623245343829
#15
-0.416375623038 -0.0288828000841
-0.412024458465 0.0670189650877
-0.387789533296 -0.000984926758047
-0.377472830804 0.021538654621
-0.359934798906 -0.00988777260563
-0.356752587014 0.0366443078269
-0.337456571238 -0.0341942473968
-0.326771261152 0.0736259640624
-0.309329321506 0.00378612756552
-0.300135895876 0.0744171526574
-0.284704977627 0.0737339360917
-0.271019889513 0.0416380118577
-0.258921249851 -0.0167471110429
-0.241127580632 -0.00886169591103
-0.228346720589 -0.0146377605459
-0.218587963701 0.0373522267885
-0.199798557668 -0.0606755013634
-0.18513758734 -0.0284252580471
-0.171667129497 -0.0256340454881
-0.148011954283 -0.0439222817861
-0.130603942422 -0.0513888785508
-0.122168884026 -0.0282309889758
-0.111782333523 -0.063964182749
-0.0948819387002 -0.0433995210882
-0.0817788082464 -0.0273079296701
-0.0616428962267 -0.0742674978543
-0.0446829727693 -0.057534344116
-0.0260525367901 -0.0495425754883
-0.0136563740704 0.0111017125244
0.00725156469681 0.00712515378505
0.0412373293983 0.0011365897791
0.0681624190341 0.00275722552276
0.0946749730917 -0.00192762081723
0.110952281167 0.0530956169369
0.138213191833 0.0244775702291
0.171093733112 0.0230354661628
0.20536089442 0.00447557335335
0.240666995869 0.0744938611204
0.261449250219 0.0128673704354
0.298813763281 0.0842194986725
0.313048805799 0.0497889407376
0.328914357616 0.0352629578539
0.355875567727 0.0292976419463
0.377214208157 0.0366835392826
0.395770146543 0.0135144085949
0.411259295182 0.0363767834643
0.439273134895 0.0286163041069
0.454969958218 0.081430189969
0.476187654774 0.054443357668
0.49096497984 0.0486645341332
#16
-0.428333611389 -0.0344486751737
-0.424116334334 0.0681146808264
-0.398989497688 0.0102181385007
-0.387749985177 0.024155090348
-0.368710616578 -0.00398380881542
-0.365032850631 0.0392936508293
-0.344383468546 -0.0492110653182
-0.334211251142 0.0836498232135
-0.315374728259 0.00772485854593
-0.305236637089 0.0660033591838
-0.290875793967 0.0695138954559
-0.276575180103 0.0458131460995
-0.263785826752 -0.0167399698163
-0.247047759481 -0.0200211168355
-0.232948565507 -0.0243634827882
-0.222517204144 0.0444856215054
-0.202569289917 -0.0610126350223
-0.187315706131 -0.0272487698212
-0.173387439477 -0.0332658100412
-0.148663491267 -0.0424767036049
-0.13106620424 -0.0484219912322
-0.121882326863 -0.040496349355
-0.111671204934 -0.0639723817721
-0.0952401015309 -0.0401028254347
-0.0808638009704 -0.0300431547618
-0.059578704582 -0.0754298841063
-0.042587179242 -0.0573772813435
-0.0241299812825 -0.0611624137594
-0.0130865013721 0.00520588488867
0.00722576991244 -0.000627260175884
0.0399335942513 -0.00511043391257
0.0659486703846 -0.00473954690529
0.0916259224185 -0.00605943652083
0.107237256053 0.056250321535
0.132172539794 0.0258097603742
0.165555389463 0.0220299070769
0.199124416608 -0.00533290604568
0.235258246927 0.0763074555273
0.256074364179 0.00829956965963
0.294121927223 0.0857913185964
0.309961433708 0.0512473693531
0.325887584613 0.0310661826837
0.351047437935 0.0337774267786
0.370588822048 0.035487098999
0.390820973284 0.025268858575
0.404699064374 0.0313771352484
0.433691105455 0.032855404729
0.449724253589 0.0824916281927
0.47019287346 0.0526921549663
0.485302692274 0.0515956913624
#17
-0.444578306965 -0.0343482420011
-0.440301236969 0.0581838544047
-0.421535923875 0.0731816962153
-0.409755148288 0.0631940018757
-0.388393968614 -0.0129750924092
-0.373349441966 0.00635860468547
-0.354641503296 -0.0596467804738
-0.345892446482 0.0395051538502
-0.333253279957 0.0663201944662
-0.317334001833 0.0104186261315
-0.307695171228 0.0677504355298
-0.293463063203 -0.0134558816979
-0.272821855903 -0.0350911879776
-0.257683687762 -0.00118148304133
-0.240208218193 -0.0794753643993
-0.232511639541 0.0361848675156
-0.211831019923 -0.0174786986183
-0.186492669957 0.0191402476038
-0.170375656937 -0.0226402722091
-0.147016559084 -0.0187446720113
-0.126505444372 -0.0522392418848
-0.120584012324 -0.0220100610528
-0.107293818779 -0.0127330816832
-0.0880445155022 -0.0290148154301
-0.0740646945103 0.0213801140634
-0.0452742748262 -0.0633307426289
-0.0329395651727 -0.0447130073193
-0.0122054716356 -0.0579777999051
0.000518699846192 -0.00514469962924
0.0232267005894 -0.05927388218
0.0540395755298 0.000688700253449
0.0756217360611 -0.0148034558198
0.100534358711 0.0123835260269
0.121466316625 0.0119099963124
0.142316435722 0.0517304854669
0.174761194069 -0.0159877129528
0.209792955983 -0.0305601849204
0.238119483914 0.0584584034563
0.260658740216 0.00443100499843
0.272767171177 0.0841591351148
0.290451973968 0.0817300349019
0.313959926109 0.0211758769526
0.334195502003 0.0488317052428
0.352327200498 0.0436281544028
0.370333720653 0.0404486340014
0.383312570325 0.042844178639
0.412584252261 0.0442119686457
0.432734537037 0.0807698243512
0.453002943238 0.0534826634957
0.466404400652 0.071302861318
#18
-0.447555186922 -0.0719332473833
-0.440935673649 0.0893911660172
-0.422117915527 0.0689673482382
-0.411142842959 0.0814173194501
-0.388881565104 0.00327160482311
-0.373041899185 -0.006382525374
-0.356037769719 -0.0199425252552
-0.345397205192 0.0274629667467
-0.33556117359 0.0973376740517
-0.318009506055 0.00411109822592
-0.305722861557 0.0495064838544
-0.292733757617 -0.0280632196151
-0.271092495479 -0.0217313862102
-0.258287791556 0.0450035821829
-0.236419008325 -0.0663013401029
-0.223512147599 0.00256855357088
-0.204898716206 0.0280921738339
-0.18019139071 0.0412107351364
-0.162997707655 -0.0565335720438
-0.138563316764 -0.045597281353
-0.121981195564 -0.0509906985267
-0.114268741947 -0.0424866744365
-0.102610011391 -0.0250162694294
-0.0832261589617 -0.0187971716265
-0.0710378218517 0.0470211070443
-0.0441472563599 -0.0564116169663
-0.0286200540022 -0.0574158978178
-0.00748819162292 -0.0637425550931
0.00820269571095 0.0102236038001
0.0348170114959 -0.0282521514288
0.0641489639232 0.0242652240228
0.09047274363 -0.0223835850067
0.113534292599 0.0120043663785
0.131190267962 -0.00888410441176
0.157815725069 0.0595833720198
0.188194973003 -0.0423356679436
0.217803118107 -0.0388349857021
0.243193878492 0.0246533942395
0.263100438466 0.00819049804439
0.274968883401 0.0556762346708
0.292193684417 0.0566210510979
0.312841309998 0.00357452815844
0.334298192363 0.0290092580068
0.352132105743 0.0361009991392
0.365059765998 0.0447574000828
0.381421071859 0.0083072594239
0.405439066183 0.0195904535895
0.425207234943 0.0596450910055
0.443670135112 0.0566565694645
0.465468247565 0.0443029346993
#19
-0.443131803165 -0.0457309139108
-0.437574401216 0.0873557405842
-0.421300450546 0.0548453430833
-0.410082901903 0.0831962849341
-0.388159336828 0.0121212302362
-0.370347336454 -0.0304835054965
-0.35419312847 -0.00790166875591
-0.342923638397 0.0233378971808
-0.33029517812 0.104381717094
-0.315029167151 -0.00578811548847
-0.30562115834 0.0450079794783
-0.289768379747 -0.0445067187103
-0.268088861801 0.00356914334427
-0.253156683329 0.0360337603989
-0.232919378239 -0.0610175187648
-0.222505618257 -0.0141391039154
-0.204008965072 0.0327685864525
-0.178881581185 0.0264950526723
-0.160869812215 -0.0736154521072
-0.144646626507 -0.0407210535723
-0.126270949866 -0.0352797177546
-0.116937613486 -0.0524718406823
-0.106319241579 -0.0366933999364
-0.0887121048159 -0.022726769045
-0.0777513703324 0.0708678883906
-0.0502529378104 -0.0469669225917
-0.0336880030476 -0.0655524147218
-0.0140611401085 -0.0583576144949
-0.000379110001336 0.0394499799242
0.0288852384499 -0.0197090038952
0.0532300223919 0.0545296256988
0.0783694307872 -0.0214048226599
0.100116626932 0.0318754471273
0.122869096381 -0.0118124521207
0.148538026164 0.0741908323449
0.181176382811 -0.0501748084514
0.213003982866 -0.0293898627059
0.238361935436 0.0141696631654
0.259146019587 0.0135133919626
0.272558100674 0.0273477319052
0.291933454302 0.0603717057165
0.315963271142 -0.0270756760618
0.339158558921 0.0221525225565
0.361067975829 0.00609766685098
0.37190375083 0.0473482041789
0.391582074785 -0.00485351100666
0.417064968983 -0.00176771901794
0.43297862627 0.0479874481862
0.450131616373 0.0328977559249
0.471987731848 0.0340216282506
#20
-0.445079124486 -0.0565351606304
-0.439096407206 0.0895949327776
-0.415116430501 0.0547354476117
-0.402940766351 0.0768757669756
-0.3830790363 0.0189350622182
-0.361650679831 -0.038718831919
-0.346631701329 -0.0229872812837
-0.334845292322 0.0122710510539
-0.324497831572 0.0998255334534
-0.30926456885 -0.00339386472545
-0.298630284385 0.0296268416142
-0.284555525595 -0.0472835184914
-0.261976507412 0.0010596876673
-0.248917946864 0.0511783223266
-0.228099953547 -0.0559357384358
-0.215707606096 -0.0288836678954
-0.199310698019 0.0446866619712
-0.173727774953 0.0274733859004
-0.156934838034 -0.0680812008713
-0.140701752862 -0.0383236437927
-0.123765339018 -0.0341848818192
-0.113204243545 -0.0555831853095
-0.101816635463 -0.0546553485637
-0.0865732139615 -0.00721651745793
-0.0748824189897 0.0863085476408
-0.0472569109026 -0.0399591579632
-0.0307311797025 -0.0605444127937
-0.011779486286 -0.0491821008586
0.00307552948495 0.0348275840395
0.0316314805673 -0.0282378778148
0.0498447457392 0.0573463002607
0.0739342637529 -0.0231057137596
0.0930476998826 0.0353216985301
0.123082116539 -0.0125263352071
0.146729391807 0.0863515083113
0.178914666515 -0.0403125453575
0.205667246797 -0.0379960872676
0.232319439866 0.0103687771456
0.25187143937 0.0258140934647
0.268948914962 0.0182866253378
0.289568738221 0.0586297294573
0.31382384398 -0.0393035555766
0.338190458884 0.0223698136688
0.360477213301 0.00555203114378
0.372344709581 0.0418641301986
0.394868101813 -0.020667167404
0.420941859887 -0.0185768308721
0.43635649761 0.0332768179303
0.452900962936 0.0170855283755
0.473085448634 0.0237347481783
#21
-0.435021091814 -0.0954673042863
-0.429094142544 0.157568003341
-0.395850518642 0.0314236734597
-0.387560633795 0.0554921199272
-0.371378427929 0.0129824603065
-0.353941294755 -0.0394329026917
-0.34021693035 -0.0322757788835
-0.325670077419 0.0268160208091
-0.313922188807 0.0740520888893
-0.30199049161 0.0231176808936
-0.284654185947 0.0232252244165
-0.274859592005 -0.0457299080669
-0.26070867296 0.0162843695763
-0.246919847379 0.0848447056988
-0.222963915061 -0.0463392310695
-0.201108560016 -0.0433268479351
-0.187935644756 0.0475188701104
-0.171460319836 0.0187007608081
-0.153866579699 -0.0654627990808
-0.130597228689 -0.0836474151361
-0.119710686989 -0.0288568253681
-0.103910195939 -0.0687946959716
-0.0943044045576 -0.135987826817
-0.0839220100257 0.0291247750419
-0.0709513720156 0.0961005274681
-0.0511652027983 -0.0385236145787
-0.0326593165773 -0.0598449680779
-0.0151162634634 -0.0283821075286
0.00516780368463 0.0146818529688
0.0318981585846 0.0403969376813
0.0451439448742 0.0426472593665
0.0686665572354 -0.00976922682227
0.0898060327011 -0.00481665632494
0.116227524359 0.0737588382551
0.14327356414 0.0986853664358
0.180999865042 0.0158599451865
0.202754315846 -0.0494751400751
0.237388798655 0.0561999931315
0.256758024947 0.0393436738794
0.280979183784 0.0397827301484
0.30155007905 0.0221029416649
0.315278486717 -0.0455850382319
0.333845799677 0.0249004610257
0.351090851283 -0.000430356867662
0.365544057688 0.0125707811376
0.386825591584 -0.0451210630918
0.420997703624 -0.0531861798455
0.431015640505 0.0139886501992
0.445569659982 -0.00544154289248
0.46493832565 -0.0136693884438
#22
-0.444764443715 -0.0820259640845
-0.43279746164 0.125073848786
-0.405550835751 0.0913871776331
-0.391376044257 0.0476072262032
-0.379975163256 0.0188318209822
-0.362268803957 -0.0216971376223
-0.327372758046 -0.034393273274
-0.311627550814 0.0633281386373
-0.295612920806 0.0184303349277
-0.287997140928 0.0765050766751
-0.268849270189 0.042405253822
-0.259766517045 0.0241731633818
-0.244544779956 0.0185932408283
-0.230811632857 0.0672705916108
-0.213568506217 0.00943580274907
-0.196749465434 -0.0126208190863
-0.179024552685 0.0129298845137
-0.16307356493 -0.00159605559772
-0.145065085125 -0.0701183450873
-0.12906947195 -0.0607996399088
-0.119047464532 0.0166149273138
-0.107196683787 0.00247600518351
-0.0886867346195 -0.147713335518
-0.0832267031328 -0.0186421026607
-0.0708551088348 0.0860711545116
-0.051985257045 0.0171155013732
-0.0430081335881 -0.0014088250465
-0.0252293324339 -0.0333883277932
0.000702357803257 -0.0498027211843
0.0153738688212 -0.0258153981501
0.0294111297221 -0.00298207191981
0.0395693539449 0.00387295467292
0.0705396025338 0.0319787973055
0.097241324736 0.10546924059
0.126638244631 0.0397828085762
0.156953872464 0.0419282554036
0.184133150324 -0.0731584943812
0.213415978459 0.0441016369979
0.237688646037 0.0219173035142
0.262613841199 0.081100891624
0.282825974645 0.00996056689719
0.301628040684 -0.101620969746
0.316051968339 0.0110115659569
0.343007591 -0.0415047520444
0.356332989836 0.00585265688455
0.379305674055 -0.0706261030925
0.410621082422 -0.0787870562996
0.426087861116 0.0429120268605
0.444959593916 -0.0734844351436
0.453169207883 -0.00781576317857
#23
-0.45147982492 -0.0647574950195
-0.441228230486 0.121432056205
-0.39673820495 0.0750218958784
-0.382245384507 0.0287413853831
-0.372478744307 0.0391952448159
-0.350260800019 -0.00430028114905
-0.318016979774 -0.053206385746
-0.304528743741 0.0334326839031
-0.290809704904 0.000821433205615
-0.284285596643 0.0681237956927
-0.265532554936 0.0125835810137
-0.257751754314 0.00866644029805
-0.242362060995 0.00388636269502
-0.225897686698 0.0719145132001
-0.211126248085 0.0311460835805
-0.19201832253 -0.0345548686994
-0.176834158658 0.0224378115762
-0.163169639378 0.015844818938
-0.145392664459 -0.051631379288
-0.131689916517 -0.0348723235798
-0.120754606051 -0.00365912281865
-0.108252664805 0.00763167648542
-0.0900461028365 -0.150282767419
-0.0853687307097 -0.00168316522028
-0.0724206310851 0.0792440146843
-0.0515558647013 0.01432194769
-0.0391657695488 -0.00447241426764
-0.0215855503668 -0.0230917418355
0.00297889523252 -0.0459293658352
0.0178972337442 -0.0283058417965
0.029922346243 0.0029559785941
0.0409743477368 -0.00287311776861
0.0698551077111 0.0182785633549
0.109178554995 0.0900107634266
0.136711512526 0.0512922969236
0.162681595844 0.0560555832254
0.188314795642 -0.0747133688081
0.213400124261 0.0403651745332
0.234193465663 0.0330623186444
0.262595473493 0.0662100808579
0.282260222895 0.00819262569459
0.303066920167 -0.0873944365099
0.322472947652 0.000316845785249
0.345564660291 -0.0358954805553
0.35932984289 0.00467355738165
0.383709327841 -0.0666932289004
0.412885771224 -0.0853858637873
0.428485381057 0.0188684616348
0.44700186737 -0.0837687133336
0.454034687535 -0.0187370854552
#24
-0.459779981227 -0.0162657576531
-0.453100196615 0.100820816014
-0.405461993309 0.0522619918706
-0.39024817335 0.00664116784951
-0.380458251621 0.0176970278585
-0.358875610279 0.0104463507993
-0.324265746014 -0.0469563083502
-0.309727956914 0.0482764469668
-0.295088763868 0.0111249809017
-0.2870501207 0.0796861523159
-0.27061056211 0.000333464881818
-0.263152977016 0.00327993704933
-0.246953349767 -0.0112274476791
-0.231708558478 0.063252132585
-0.221574615778 0.0394774714328
-0.201254815645 -0.0300028746109
-0.186620865852 0.0157263004011
-0.17393017602 0.0543969061415
-0.155155038426 -0.0251900365018
-0.142729079421 -0.00606112341419
-0.130058315631 -0.0159566579505
-0.11713328505 0.0379348122098
-0.095661062021 -0.150116991268
-0.0897411121453 0.0151138274721
-0.0767037524824 0.0724387333462
-0.0521969439022 -0.00967570521206
-0.0402216997131 0.00344489244577
-0.0230766441321 -0.0327679833064
0.000201225092001 -0.0668475435315
0.0141142967081 -0.0515163873083
0.0246489158439 -0.0143808716761
0.0376868063109 -0.0337509240384
0.0701278818557 -0.00551688575806
0.11075342412 0.102815469602
0.127926560245 0.0381256897168
0.153702815643 0.0686645831792
0.182265959736 -0.0897546161457
0.21109363964 0.0412230992238
0.228323871487 0.00124875828483
0.253770297926 0.0911096451172
0.276780067032 -0.0222436648608
0.29931904393 -0.0788438751031
0.317380985358 -0.0242304834322
0.339946839371 -0.0514938375102
0.353935129175 0.0251355626527
0.37504507861 -0.0444569930984
0.407992659833 -0.0816931117426
0.422692407009 0.0401683724434
0.440978291159 -0.0833401361343
0.443793204905 0.00580181602672
#25
-0.467560950009 0.0209839594756
-0.460393625092 0.0920284225867
-0.408636769762 0.0324488421566
-0.391095727773 -0.0139553982538
-0.382154910471 0.069905139057
-0.36001039512 0.0594268388608
-0.323301648408 -0.0198463801906
-0.313461583351 0.031632192562
-0.295967056091 -0.0221059055376
-0.289298494098 0.0669691620532
-0.27016707627 -0.020668849828
-0.264252427629 -0.000274550311235
-0.245432316793 -0.024839283847
-0.227050557874 0.0351546051706
-0.217663378985 0.087120651495
-0.194196465476 -0.0224752313972
-0.176708741251 0.0197052425647
-0.167765670871 0.0785799106707
-0.145603877462 -0.0133773620291
-0.133242844883 0.0172996122358
-0.117501790273 -0.0174622699268
-0.105192274778 0.0914839212839
-0.0810306435327 -0.128617116331
-0.0733496053342 -0.00448721736645
-0.057132898571 0.0523735609573
-0.0319948561606 -0.00841559440862
-0.01785528116 0.00598555413826
-0.00156993863758 -0.0193992281338
0.0249344890315 -0.0624886952487
0.0385259716192 -0.0235837782791
0.0506948813221 0.012649665178
0.0631508306744 -0.00529528464685
0.0925218900944 -0.0430265798688
0.140339487061 0.0877478439085
0.16042270975 0.00345506001017
0.171298303078 0.0711940197487
0.198636982689 -0.0488913182203
0.213471749435 0.0110838802629
0.226805214947 0.0156682233933
0.253962928305 0.0935451361235
0.274096194644 -0.0601278740348
0.296681007611 -0.0373488372987
0.318018918493 -0.0107678773862
0.34053712624 -0.0448574607211
0.354226203197 0.0268634838249
0.37495687639 -0.0281443774667
0.39067664734 -0.08728729382
0.403789242177 0.0134446750105
0.42155479112 -0.0884911780095
0.425207095694 -0.0213517484416
#26
-0.466105988786 0.0126531281271
-0.457649862311 0.0858472480601
-0.404303875986 0.0267808394927
-0.385493113431 -0.0366586100481
-0.378391478725 0.0854470183258
-0.353341288928 0.0296572516266
-0.317893940824 -0.00839087882742
-0.307129694275 0.0138747405535
-0.291940244085 0.000312030857281
-0.283402622645 0.057077337744
-0.26683769874 -0.0213278250367
-0.258719483907 -0.00156567111282
-0.242577761412 -0.0328381061817
-0.21998804201 0.0577518091184
-0.213861840037 0.102975415337
-0.186626716725 -0.0446041980784
-0.171570007583 0.0124352771806
-0.164006588724 0.0637920704513
-0.144731114449 -0.0301785289914
-0.134181162994 0.00364586037968
-0.119130163149 -0.030683561243
-0.109390323557 0.0720658509076
-0.0830315571297 -0.104146133143
-0.0768681614661 -0.0244150765706
-0.0627534540245 0.0537902454612
-0.036001257443 0.0291567129142
-0.0187634633957 0.0288769975449
-0.00114169780972 0.0106706102622
0.025343854585 -0.0827735042408
0.0390011241105 -0.0231813788223
0.0498435587865 -0.0244871065889
0.0634343632072 -0.00842657502635
0.0948363679697 -0.0663359386011
0.138640855213 0.0580639806355
0.158120357856 -0.0149473909679
0.169949665193 0.0205616444827
0.193269540259 -0.0564257410912
0.208236089864 -0.0175285651987
0.224845023055 0.00823842935168
0.249814134662 0.0686424665448
0.271600751616 -0.0626782413257
0.292440396097 -0.05269352145
0.31512438075 -0.0298155527308
0.337708686262 -0.0807329826158
0.35041682667 0.029772838446
0.370505088448 -0.049729117569
0.388971227748 -0.11047137343
0.402059138968 -0.00873824301273
0.421425234512 -0.107251243174
0.425450024776 -0.0403703115967
#27
-0.487511210528 0.00150041994688
-0.473786787891 0.0797689032403
-0.434438123882 0.044356228806
-0.413187818045 -0.025155466136
-0.403442287067 0.0680053093378
-0.378310877454 0.0328861457404
-0.339938025284 0.0178195428878
-0.327114084442 0.0517085352465
-0.308530635554 -0.00562037420823
-0.297667089477 0.0826284787038
-0.282005363571 0.0117118007979
-0.269336960207 0.00914607407269
-0.253143996657 -0.0281472935291
-0.227587752017 0.0331043286123
-0.220177326453 0.117762097212
-0.192237197684 -0.0104274697951
-0.173868511812 -0.0215979597612
-0.162405922477 0.0516083994661
-0.139386130512 -0.0356799278217
-0.126289937644 -0.0210996770949
-0.113090817162 -0.0395073155648
-0.102115102118 0.104545627196
-0.0704965865441 -0.0985611471567
-0.0632085831778 -0.0572138184477
-0.0498060083012 0.0391107393273
-0.0196082583585 0.0485634151688
-0.00441731629045 0.0496411133869
0.00938562244004 -0.00415297032632
0.0414603477652 -0.0911833681226
0.0498211940642 -0.0353934969752
0.0638883683856 -0.0106144577545
0.0713305880263 -0.00771773946641
0.109934487533 -0.0698488222407
0.135952322803 0.0680994817209
0.159891226227 -0.0234414152957
0.16983003 -0.027729093791
0.190925818241 -0.0665675898286
0.203960448692 -0.0459021102737
0.217102464452 -0.0277564255224
0.231884934113 0.0634730510263
0.256615644421 -0.0819428701724
0.274007199198 -0.0634758743845
0.291882448301 -0.0400186300439
0.321200290769 -0.114286732367
0.33108239146 0.0156265646765
0.349868540276 -0.0504859867593
0.370665951667 -0.101810121509
0.384041623451 0.00151462346526
0.406265222925 -0.118279516691
0.408897814735 -0.0378832196982
#28
-0.482391838457 -0.00720254148001
-0.469769581024 0.0724696834079
-0.430769677382 0.0481039488279
-0.409223052533 -0.033278630375
-0.400231098388 0.0619826804825
-0.375499656924 0.0371502514173
-0.3378493523 0.025658461221
-0.324257785019 0.0423632222546
-0.306241844738 -0.0132032465095
-0.295776428756 0.09185686922
-0.280663737361 0.0190117861801
-0.267400169358 0.00251559345432
-0.251883576666 -0.0156488287629
-0.227553402673 0.0444265415377
-0.219379437016 0.111808708646
-0.192952740887 0.000619466644125
-0.175100808901 -0.00794589797158
-0.163212389471 0.0436352511864
-0.140585872 -0.0216405202677
-0.126978996481 -0.0326255901703
-0.113666366875 -0.0483129306277
-0.102090754175 0.0971923798629
-0.0714963102387 -0.0984898969849
-0.0654560026231 -0.0502694323969
-0.0523503174783 0.0524760414756
-0.0214935019741 0.0395386526442
-0.00686788272001 0.0553191512068
0.0063685861472 0.00349682726418
0.0394648306491 -0.092344702341
0.0470554601155 -0.0272411629699
0.0608006682655 0.00185642661948
0.0679625355659 0.00332414740999
0.107120992133 -0.0761121239541
0.132480289851 0.0675717037864
0.155780749501 -0.0118781295526
0.165661050419 -0.0174645845571
0.186968139518 -0.0724854996362
0.199444189999 -0.0435018682116
0.213244825654 -0.0312881986384
0.22841815461 0.058440346016
0.255244516331 -0.0867689416448
0.273426071446 -0.0611159059089
0.2916445977 -0.043889387546
0.321157191958 -0.119548638787
0.331780225332 0.0122775422144
0.351082652741 -0.054760003361
0.372507730954 -0.100983837865
0.386673450641 -0.00387338621394
0.408258025298 -0.118653398443
0.413012873522 -0.0383406840116
#29
-0.482649308772 -0.00647938664038
-0.470067590324 0.0727198389846
-0.431108063216 0.0476166422188
-0.409489824487 -0.0341314280354
-0.400369222071 0.063528147401
-0.375743711352 0.0356528221006
-0.337936766415 0.025684998654
-0.324452011027 0.0434263787217
-0.306207770456 -0.0129084731625
-0.295798431265 0.090365289325
-0.280495836672 0.0191823091191
-0.267216279916 0.00169962489976
-0.251662822537 -0.0140784181516
-0.227252883904 0.0420696617752
-0.219259168002 0.114501092873
-0.192832237145 4.96929425532e-05
-0.175119341588 -0.00801605735971
-0.162964187797 0.043848062265
-0.140294175841 -0.0223367774969
-0.126707786398 -0.0332885052446
-0.113574701592 -0.048226908187
-0.101596859843 0.096062746926
-0.0711406516445 -0.0988138640784
-0.0650365117194 -0.0519754680991
-0.0519872170384 0.0541006729252
-0.0209677270172 0.0385223170204
-0.00646651138556 0.0542920674834
0.00682995487045 0.00376270446438
0.039949663254 -0.0926479667556
0.0472633987142 -0.0280953190164
0.0610915698008 0.000282210468014
0.0681322548977 0.00359201576325
0.107414812554 -0.0772953357779
0.132766747968 0.0666240052019
0.156108494401 -0.0126813952908
0.165922216194 -0.0204953139678
0.187060713317 -0.0720844556017
0.199549971523 -0.0455618473315
0.213404183859 -0.0332770810632
0.228263653098 0.056430051595
0.255116367186 -0.0864253259169
0.273169191243 -0.0613850083523
0.291288700774 -0.0472447224175
0.320675124525 -0.119937917064
0.331221607741 0.0114800294937
0.350460224777 -0.0567239598871
0.371767252171 -0.101662461537
0.386015867443 -0.00706597822843
0.407479432022 -0.120517802307
0.412296321172 -0.0406481221835
#30
-0.482482380386 -0.00549191454769
-0.470186972551 0.0724951628801
-0.431340779314 0.0476181010697
-0.4102757296 -0.0321663586482
-0.400911911091 0.0661089025863
-0.376578463971 0.0375512745849
-0.338733753692 0.0259124568125
-0.325723283494 0.0427947392134
-0.307133008542 -0.0126177572846
-0.296789513653 0.0896933524591
-0.281306854113 0.0216806928347
-0.267850823634 0.00136841544507
-0.252131573914 -0.0138148434887
-0.227431550395 0.0402515544251
-0.219322260835 0.114725020243
-0.192855380946 0.00247705067993
-0.175161679762 -0.00916397924702
-0.162448271266 0.0453308197101
-0.139502088558 -0.0258770626192
-0.126649259676 -0.0335573245828
-0.113955390166 -0.0480583685173
-0.10168437647 0.0928360272276
-0.0711146488922 -0.0990822855449
-0.0654065773447 -0.0553084085007
-0.0524281884711 0.0533284900827
-0.0211443484833 0.0377166057422
-0.00677350616829 0.051157923934
0.00660866983454 0.00321352237532
0.0398632189353 -0.0933323421248
0.0471933968307 -0.0279441266712
0.0610768079213 -0.00398595313641
0.0677993766458 0.00383036590972
0.107400500029 -0.0777210488572
0.132221732272 0.067010394282
0.15585819975 -0.0139804425635
0.165771208908 -0.0238536190541
0.186927165277 -0.0721953822429
0.199229751064 -0.047541520354
0.213060234012 -0.0360435237406
0.227653516458 0.054951391113
0.254421969041 -0.0856141442301
0.272605729305 -0.0621781266615
0.290712977961 -0.048866548614
0.320266178637 -0.120008944977
0.330903562526 0.00976618128169
0.349857767835 -0.057492250343
0.371375925785 -0.103080213559
0.385584476642 -0.0107146022144
0.406674397704 -0.122372809824
0.411423453026 -0.0432208656113
#31
-0.48253136523 -0.00568201009304
-0.470256396077 0.0724227338909
-0.431361996326 0.047506942027
-0.410282303325 -0.0322625059674
-0.400890421763 0.0658575217888
-0.376506050445 0.0371481623021
-0.338677478336 0.025509446541
-0.325676654422 0.0426167614999
-0.307099541415 -0.0127113968742
-0.296752413871 0.0896897981836
-0.281261210335 0.0216489900807
-0.26784271157 0.00140169842063
-0.252046978577 -0.0140639137498
-0.227351484562 0.0398054089082
-0.219260905089 0.114761333364
-0.192802085006 0.00252771201098
-0.175110632107 -0.00915495415163
-0.162411256336 0.0454845598678
-0.139396987077 -0.0257938518828
-0.126553985611 -0.0335718625493
-0.113862909888 -0.0480317538166
-0.101552134414 0.0929410226902
-0.0709974699619 -0.0989435308567
-0.0652841736065 -0.0551442319948
-0.0523212956691 0.0532103596303
-0.0210116593498 0.037482400743
-0.00666819469122 0.0510141649646
0.00672169863419 0.00297509927748
0.0399699753535 -0.0934354796161
0.0472992387009 -0.028106176722
0.0611596497016 -0.00409637067336
0.0678598735275 0.00379175215049
0.107420221219 -0.0775144475915
0.132245831767 0.0668601979949
0.155945170712 -0.0138903742614
0.165863152304 -0.0236211812163
0.18702541824 -0.0719748447615
0.199309504144 -0.047308581346
0.213113741673 -0.0358231250346
0.22770463936 0.0552514299568
0.254476376374 -0.0854950888682
0.272660895809 -0.0619228891355
0.29075825728 -0.0485672786409
0.32031874794 -0.119942261865
0.330923427822 0.00997706354471
0.34987915936 -0.0573726001683
0.371420118801 -0.102975694401
0.385614809557 -0.0105472568811
0.406666716877 -0.122168131531
0.41141008876 -0.0430285177813
#32
-0.453956251939 -0.0327077481189
-0.445024445455 0.0299943243904
-0.429132502013 0.0222955532019
-0.412567184887 -0.0478752752903
-0.397930862762 0.0771115147511
-0.377521128427 -0.0144424614232
-0.36867957669 0.0232049265575
-0.35539014777 0.0144987333984
-0.331028483198 0.00353505705407
-0.317436473545 0.0256757202596
-0.306150772379 0.107024854355
-0.280476979201 -0.0655069319194
-0.265869056771 0.02306811469
-0.238708258509 -0.0154683452331
-0.224337954176 0.0301529756578
-0.196468309163 0.0797053690635
-0.173691864592 -0.0435654083953
-0.15612449024 -0.0607760706006
-0.132394703532 -0.0523251134133
-0.108778931822 -0.068240639428
-0.0910090934486 -0.0782056294088
-0.0765205867234 0.0191450282551
-0.0487163343269 -0.0746062015903
-0.0370879363253 -0.0855239529561
-0.0234043293012 0.0462701084743
0.0105917034717 -0.00508609386337
0.0255623245744 0.0309995271217
0.0339220064228 0.0694001042253
0.0619125918204 -0.0766528889535
0.0708052356566 0.0205945034344
0.0847402006162 0.0446006462141
0.0913451766887 0.0897620992128
0.120562480017 -0.119298344912
0.127851728689 0.0607008337037
0.153306278148 -0.00664777606104
0.169786385035 -0.0617780916617
0.1880229656 0.00772564101622
0.210739495239 -0.0389151001046
0.224704785953 -0.0258455025638
0.235782573169 0.00845757152177
0.262349938737 -0.0353542271461
0.275727824818 -0.00607495109711
0.292340961354 0.00827795152283
0.317029104706 -0.110627887514
0.333266231273 -0.015899268736
0.345333281433 -0.00578188333137
0.370674666233 -0.0272640075156
0.381288793767 -0.0747792729135
0.401184397081 -0.051754068712
0.411169156695 -0.0419733534734
#33
-0.453621085543 -0.0326726711185
-0.444793172974 0.0297917725798
-0.428745536669 0.0218289054001
-0.412294377235 -0.0482117453615
-0.397697033796 0.0772176812419
-0.377384398859 -0.0150593168815
-0.368399881869 0.023481590341
-0.355198076929 0.0139377345246
-0.330855784138 0.00387401066919
-0.317249602206 0.0268248665705
-0.305948642861 0.106542638335
-0.280211396266 -0.0665410387738
-0.265596066979 0.0234853455626
-0.23832980208 -0.0155343804082
-0.223887897175 0.0306642678645
-0.195948170351 0.078680770418
-0.17302258205 -0.0434987778645
-0.155548881472 -0.0614855364678
-0.131789033124 -0.051117578481
-0.107997787952 -0.0672023476976
-0.0901885827077 -0.0781624716873
-0.0757704749066 0.0194371894497
-0.0478841826721 -0.0739352898342
-0.036360867467 -0.0861000175861
-0.0227572553053 0.0467406207358
0.0112215379693 -0.00484388150198
0.0261817735639 0.0322058238227
0.0345504758472 0.0699137524764
0.0625234381903 -0.0772304625569
0.0714732681045 0.0210918800223
0.08518479317 0.0457158549677
0.0918156217381 0.0895282608245
0.120952177755 -0.119949560886
0.128104323311 0.0619709367319
0.153573992129 -0.00675061061381
0.169995158942 -0.0615115337719
0.188126426726 0.00717055359651
0.210742774972 -0.0377246543019
0.224647842618 -0.0263110107635
0.235757286375 0.00825994507881
0.2623296899 -0.0344725591428
0.275650430263 -0.00592053603303
0.292130296145 0.00789803952838
0.316867073149 -0.109875229064
0.333108665759 -0.0154713630315
0.345241354594 -0.00463017132254
0.370590928811 -0.0268334766581
0.381282190094 -0.0738253036925
0.401069403449 -0.0516194326658
0.411089378901 -0.0417303951639
#34
-0.455799424442 -0.0249636642557
-0.447131973326 0.0272507184181
-0.431919427032 0.0243930547854
-0.415035757816 -0.0441933712164
-0.400960738843 0.0730438886171
-0.380818172702 -0.0155782010289
-0.371766309516 0.023409574623
-0.358048847542 0.00930629979944
-0.334967012387 0.00509922947352
-0.320780194754 0.0205370714377
-0.309840218208 0.0960887963657
-0.28450827312 -0.0644990788192
-0.270088408338 0.021722835263
-0.243865084553 -0.0194071548559
-0.229373038917 0.0280242482467
-0.201626508773 0.069216626586
-0.177968940059 -0.0424203237681
-0.15889210414 -0.0596418438045
-0.133965504556 -0.050708673927
-0.108970546344 -0.0650201552748
-0.0894647845868 -0.0741496821843
-0.0732581613585 0.0150390769098
-0.0453098870372 -0.0672703520596
-0.0322995211277 -0.0765585016369
-0.0167982490678 0.0430235083654
0.0173112662547 -0.00426713985839
0.0340486255244 0.0290301699557
0.0442334842535 0.0646114197838
0.0724674862055 -0.0674072950346
0.08232545696 0.0136015786778
0.0963634159203 0.0425600814079
0.103390072065 0.0766015248741
0.131980629675 -0.107206852053
0.139442166221 0.0513402927096
0.164192474479 -0.0041122218074
0.180615066519 -0.0605126214862
0.198243868556 0.00925238112576
0.220261281361 -0.0382895450412
0.234601228218 -0.0216050974173
0.245611702034 0.00426353154322
0.271308040989 -0.0276787767769
0.284960206041 -0.00906646871757
0.301244471362 0.0108241357763
0.324802293082 -0.101294545203
0.341123157144 -0.00877616230473
0.353633977178 -0.00664124567876
0.377737788339 -0.0206347699657
0.388899381775 -0.067805087352
0.408045428644 -0.0439702882104
0.418437530499 -0.0375594141483
#35
-0.47676279001 -0.000130797310814
-0.46793859071 0.0414250737683
-0.448355308159 0.0237540164153
-0.434718332072 -0.0181153543658
-0.414447091081 0.0435169267863
-0.399868235961 -0.000406411760822
-0.38771719598 0.0378690484074
-0.371474243563 -0.0145780546124
-0.359055973779 0.00742585078249
-0.340740086436 0.0494136756979
-0.32299313159 0.0649553787466
-0.298765829855 -0.0186801521856
-0.26952241345 -0.00206762780835
-0.235354352039 -0.0153891583059
-0.224094286066 0.0223935722621
-0.192536229954 0.0139936884298
-0.16123846875 -0.0144535645338
-0.134268735885 -0.0683397958335
-0.114737245354 -0.0220141308673
-0.0882648719187 -0.0483651427685
-0.0644693670909 -0.05689459342
-0.042860447835 -0.00594080867004
-0.0152525222232 -0.078629791493
-0.00223542924927 -0.0417510605496
0.0141886696924 -0.0170228980513
0.0418309502603 -0.00608930438212
0.0582737240976 0.00414078138197
0.0698556501041 0.047514051614
0.0949652308357 -0.0572556906143
0.108862290496 -0.017344605099
0.119902010235 0.0212126959331
0.13129976044 0.0136131480167
0.152087230371 -0.0410392042819
0.163399970196 0.0385177283108
0.180175976186 0.005284575386
0.194476169994 -0.0263399803448
0.207940296843 0.00689414502701
0.223608465731 -0.0321052187738
0.235672653791 0.00484823275755
0.245832879354 0.015207959107
0.274937792077 -0.0469362725483
0.288224767876 0.0186759296838
0.305319089339 -0.00640108510145
0.325130614531 -0.0430840988931
0.344515884981 -0.00401327946471
0.356713964204 -0.00899256526786
0.373484456658 -0.0125305616067
0.387373147661 -0.0577793284475
0.413190619347 -0.0306550427423
0.419543248934 0.00103950884005
#36
-0.48451571058 -0.00811638570285
-0.473788108936 0.0433709833251
-0.45096441264 0.0355648005376
-0.434048665988 -0.0153306736697
-0.414057003744 0.0406432579655
-0.397909384565 -0.00258456281486
-0.385068940444 0.0242454270019
-0.37021162483 0.00452967845261
-0.34859089454 -0.00461180285175
-0.332506983311 0.0176399413283
-0.318830444198 0.0838682176974
-0.29159195152 -0.0517562436173
-0.263120055768 -0.00648277302791
-0.223929447011 0.00513903486836
-0.206876177311 0.0160318460546
-0.177875323034 0.0423321787798
-0.148283446158 -0.00841763130096
-0.123966133298 -0.034392358281
-0.104786892792 0.00424528849742
-0.0788363384995 -0.0128191443284
-0.0584812686867 -0.0249340469377
-0.0297904035551 -0.0103592332733
-0.0063182589716 -0.0716272995065
0.00606422582466 -0.00750061485707
0.0222861396228 -0.0055103953772
0.0505199106889 0.00423549823213
0.0635809947141 -0.0104455960286
0.0714031527832 0.0682757559607
0.0958752354119 -0.0705843020734
0.106098243447 -0.0014478463704
0.119407925334 0.00663136349697
0.131083184628 0.0387797746632
0.150846321077 -0.0548455768575
0.159890856856 0.0494440963078
0.17573561146 0.00587706836186
0.186512907837 0.00280924589951
0.201554804793 -0.0261241641998
0.220663474128 0.00203241409337
0.235160459778 -0.0400618412546
0.243940076506 0.00293343603468
0.267328863514 -0.0350979024151
0.278115040441 0.0447538612199
0.297214225715 -0.0329078912461
0.320244839116 -0.0683605760512
0.335036255954 -0.00923111936943
0.347084143218 0.0166275118139
0.371685349846 -0.0445346077479
0.382567913697 -0.0779242080081
0.40592811054 -0.0259019754352
0.414764245491 -0.0121906133986
#37
-0.490886184497 0.00175844752229
-0.480928376187 0.0404166435635
-0.455849784968 0.0168330640358
-0.439169017717 0.00342935594796
-0.415751142542 0.0105374599454
-0.399677771717 0.0110970498509
-0.380709035528 -0.000766081763686
-0.365231843068 0.027555490936
-0.338961139574 -0.033067864441
-0.324395241312 0.0407635320598
-0.304866264382 0.0858921809592
-0.278856532513 -0.0666213653752
-0.251239857077 -0.00382985563439
-0.211452546309 0.0143764677045
-0.195560473026 0.0125183105301
-0.170475492183 0.0307549120676
-0.143170343783 0.000628244392098
-0.121953170048 -0.0457484791974
-0.10182795265 0.0145920667737
-0.0782731286105 -0.00263075198965
-0.0589843533503 -0.0324681718306
-0.0313288777565 -0.0176549945475
-0.00857327464769 -0.0579355744964
0.00477204250474 0.000556496394873
0.021227891419 0.000256752385616
0.0505334618201 0.0139100898526
0.0605757034911 -0.0177101825238
0.0704103687905 0.0618405121432
0.0931642426673 -0.0768317616924
0.105288963696 0.00664176329285
0.11838239474 0.0199162698084
0.12901539619 0.0153831087097
0.149671782253 -0.039567592582
0.15982816677 0.049891460202
0.174083290781 0.00433981276181
0.185791892115 -0.0268889874354
0.197546797006 -0.0425848562106
0.21606038642 0.0214720147045
0.23220323917 -0.0377523044346
0.241194267462 -0.0141655906744
0.263885560911 -0.0358137890046
0.27483605257 0.0507458071066
0.294583856834 -0.0341889696832
0.317924396499 -0.0740686157399
0.330575778644 -0.0175247822916
0.344324190569 0.0402683166002
0.369489252804 -0.0348585139872
0.381266936198 -0.0842184110315
0.402931293822 -0.0397647995598
0.411027199267 -0.000343751606301
#38
-0.490357544242 -0.0277373783475
-0.482886260747 0.0287573667472
-0.456846527792 0.0195651871394
-0.444356042978 0.0332544143585
-0.417772672891 -0.0166223602374
-0.40459026474 0.00938783468056
-0.386583334686 0.031421352016
-0.366822873214 0.00747446954294
-0.343170885521 -0.00392186453366
-0.320741108105 0.0740625749813
-0.296928318431 0.0627055969979
-0.276545649532 -0.0705272225403
-0.254413003151 0.0326279924023
-0.217618150628 0.0125755271152
-0.20098845863 0.00701230363923
-0.171901479519 0.0248912271889
-0.147818740032 0.0243214977979
-0.127040227637 -0.0398498475967
-0.106292186294 0.000814609924709
-0.0816330579334 -0.0258838284631
-0.0643866871407 -0.0628502066363
-0.038241244371 -0.00015436137223
-0.0182644752937 -0.0419968967988
-0.00344943724437 -0.0221092300302
0.0138966554648 -0.00670241623805
0.047115732411 0.0166396370906
0.0534760188222 0.00161379990709
0.0629548389333 0.0740223011882
0.0830120695317 -0.0587025619334
0.0990045123196 0.0111416629078
0.108636006185 0.0328745649621
0.118367893118 0.0263124257242
0.139835294827 -0.0536417064812
0.153003950706 0.0354545847629
0.164010213579 0.021356318705
0.175323659908 -0.0133616289197
0.187305126112 -0.0452745141083
0.209241002154 0.014430733739
0.222876038337 -0.0263088851016
0.235746983757 -0.0291865525021
0.25871484466 -0.04865625427
0.270077598164 0.0408229430222
0.291247327723 -0.0387671826778
0.313503350095 -0.0689898651058
0.329419650467 -0.0454860932068
0.340868310657 0.0213155483249
0.357617597192 -0.0289416191218
0.369593341716 -0.0851707132371
0.391452233799 -0.043694506382
0.401733692026 -0.00825037671979
#39
-0.483531255322 -0.0183235151742
-0.469749202203 0.0222885032247
-0.444554070484 0.0324332814508
-0.42525437784 0.0412344434132
-0.402584263027 -0.0280081995594
-0.388782981893 0.0389237167304
-0.371848748343 0.0528115871305
-0.346972371889 -0.0204610427648
-0.321234406133 0.0270366491378
-0.289894497879 0.029483378673
-0.267895667041 0.0303857601722
-0.247499880254 -0.0621157909559
-0.222260275795 0.0590853648449
-0.191080641226 -0.0103766873709
-0.17219665137 0.0112211344444
-0.147059988906 -0.000125557058425
-0.121843574893 0.0322820322426
-0.104887819972 -0.00372345936482
-0.0883700297554 0.06315264434
-0.0645642997225 -0.0344508255213
-0.0437617293553 -0.0351894416285
-0.0187557954169 0.00808201147097
-0.000542839773027 -0.0101484724195
0.0152859353592 -0.0115235058494
0.0353714164065 0.0230817962161
0.0611212288309 0.0359721533001
0.0686509284861 0.0399037915242
0.0834986096484 0.0398289540705
0.101469304417 0.0187375698227
0.116202315285 0.0133385075598
0.125782392392 0.0389164997441
0.138786015664 0.0224221112226
0.157998797821 -0.0674202370256
0.167782039882 -0.0149118940883
0.17697590745 0.0528752235006
0.184139178053 0.0577824457138
0.197441197958 -0.003481646013
0.216036843185 0.0194091477682
0.233879015144 -0.0374745428465
0.24490990814 -0.0265255091263
0.267044873938 -0.0420689569581
0.27870089883 0.0690251651615
0.307487157402 -0.0710364389287
0.321282547638 -0.0203123827882
0.342597452052 -0.0826641976513
0.360878134671 -0.0405054545453
0.370124774609 0.0100177962826
0.383870290451 -0.0888493890351
0.39914304203 -0.00740665083272
0.411187078954 -0.00434225692957
#40
-0.483475119129 0.0157976183403
-0.467201050406 0.0409177607428
-0.437768273703 0.00176051137256
-0.41779396005 0.0167589910247
-0.396178576876 -0.0153178290913
-0.381111514077 0.0709932916963
-0.357455217114 0.0199793888752
-0.337553967183 -0.0194963310957
-0.316509930994 0.00149063221056
-0.285340743265 0.0327586749313
-0.261338639035 0.0258935025527
-0.240612003529 -0.0118996737622
-0.20551376836 0.0245504735728
-0.174932018607 -0.0229092933203
-0.161635427801 0.0265287517671
-0.140778811097 -0.0101618201072
-0.111383398597 0.0155068354256
-0.09370878436 -0.0280428080332
-0.0832982470448 0.0647939178253
-0.0529879496569 -0.0249920665642
-0.0264905544198 -0.0369621809783
-0.00685583194969 0.000448792407004
0.0148445486218 -0.0401327963542
0.0276963613898 0.00633559543576
0.0435600666162 0.0332016936083
0.0644818770114 0.0223183052763
0.0741097417233 0.0433630815166
0.0916124974664 -0.00161983746779
0.107055036664 0.0269803458895
0.123270001943 -0.00285575435146
0.133674299124 0.0358063156678
0.14567413663 -0.0149385248945
0.162499900478 -0.0296315856972
0.172277488017 -0.0390390372871
0.182678160171 0.0313503407148
0.190886937897 0.0394671225642
0.202617247592 0.0200242083043
0.21428158465 -0.0152323023864
0.231301424798 -0.0193101369292
0.237164697366 0.0167177810339
0.266996780806 -0.0547877358774
0.283284997775 0.0683629258163
0.316207921349 -0.0492274255574
0.327483179195 -0.0043719103243
0.353023794613 -0.0799795476771
0.374450073005 -0.0476238345959
0.380962498888 0.0472286090465
0.398017086367 -0.082779078578
0.41454805701 -0.0137566023708
0.42259517644 0.030683772828
#41
-0.444276150033 0.00134047463116
-0.429491218621 0.0183916927621
-0.40563237101 0.0029006200355
-0.381912711516 0.00165558484799
-0.363542084359 -0.00741037734773
-0.343731242506 0.036024424813
-0.324579147473 0.0174996897828
-0.302623277379 -0.0273859199584
-0.283367455009 0.0154145973098
-0.252467208551 0.0186582891779
-0.235007266043 0.0188144085517
-0.215633321726 -0.000929492802198
-0.186621912592 0.0275599463975
-0.16017181091 -0.0263522924352
-0.146172884291 0.0356246100566
-0.126958200487 0.00402907862471
-0.103498808915 0.000782218696176
-0.0863967405643 -0.00746059900226
-0.0750164917108 0.0542178137031
-0.0503322032514 -0.034381684004
-0.0317985387564 -0.0201452033647
-0.0113132724383 0.0193700760202
0.00561885225882 -0.0187144196551
0.0234464067715 0.00289873794931
0.0371413495204 0.027566885068
0.0557510786238 0.028176562372
0.0674874917745 0.0434697949729
0.0865286956447 0.00722800442082
0.101648845282 0.0218211539071
0.118135130529 -0.00338557113313
0.130948238038 0.0465199885707
0.146315772441 -0.00386117323312
0.164452074236 -0.00614038818819
0.177679224608 -0.0218063189067
0.190995079321 0.0376143456196
0.204416070221 0.0305626745693
0.217733673479 0.0299921211841
0.234299015576 0.0107683809788
0.251355915681 -0.00930573048449
0.26270584796 0.02526362782
0.286120896451 -0.0347770157231
0.306173377122 0.0630187053747
0.33078567771 -0.0235557004398
0.344917057117 0.0129169645055
0.366363817852 -0.0547703923439
0.388891295126 -0.0144461085489
0.397363749134 0.0420516854737
0.415505771908 -0.0396417268469
0.429488470756 0.00574312609962
0.436674637036 0.0251464474562
#42
-0.440760344533 0.00903747704282
-0.425130753589 0.0210348530512
-0.401448986346 0.0052292293237
-0.378529434256 0.0128743858815
-0.358239224955 4.52884279335e-05
-0.3382442958 0.0211581887576
-0.31830158876 0.0215186764929
-0.293286805269 -0.0238965696572
-0.274842232539 0.0222523010393
-0.246998229195 0.0195870644282
-0.227555298007 0.0225179519262
-0.205077317667 0.00444454736315
-0.179273139703 0.0145179243657
-0.156331004445 -0.0184949128525
-0.142201174913 0.0204255064161
-0.123950923157 0.0100513779131
-0.102001395491 -0.00866664869369
-0.0830135834372 0.000997411017397
-0.0712534477827 0.0381680926685
-0.0484380920893 -0.0331285164673
-0.0329943008244 -0.00220274511619
-0.0107564688107 0.00636162392983
0.00499997004814 -0.0115601414026
0.023366795694 -0.00868820088223
0.0369740184013 0.0344067791513
0.0549006048724 0.0141577655382
0.0653911496039 0.0477405197426
0.0835569161832 -0.00388435279677
0.0997907966815 0.0337386904789
0.117629044192 -0.0154998134033
0.129554880281 0.0540187785565
0.148894480805 -0.0190018115421
0.167478398994 -0.017309573598
0.17929251259 -0.0093035420025
0.193226810832 0.025897595986
0.208916707587 0.0235292993033
0.22294760167 0.0324784124339
0.23997803786 0.0335046803732
0.257896963675 -0.00717916025754
0.271015111224 0.0110468194619
0.29186156329 -0.00521152992349
0.313052098523 0.0397061802667
0.332701484124 0.00166899637618
0.348693008853 0.0216875915187
0.36807283917 -0.0499167981584
0.388227108565 0.0107832964752
0.398658593716 0.0360685517402
0.414952407472 -0.0431858946125
0.427397905463 0.0204040844398
0.433151006595 0.0311520173537
#43
-0.433311629032 -0.031161233015
-0.421669620037 0.0295970181252
-0.394441957938 0.00666749751873
-0.38389614766 -0.000736758226909
-0.359707652155 -0.0256273175016
-0.344647438872 0.00951968797947
-0.322592433024 0.0349098731971
-0.300042994629 -0.00799690787556
-0.285681060262 -0.0026509977814
-0.267226831411 0.0427395144213
-0.244260776466 0.0152845201913
-0.221484839046 0.0167045476252
-0.193811297539 0.0150928003507
-0.17742089647 0.0353497226083
-0.157787907057 0.00835466821426
-0.138859347062 0.0362605619851
-0.120414926634 0.0290168047239
-0.0972143370266 -0.0306498829313
-0.0851921246592 0.0372989744541
-0.0597830698124 -0.0139792261617
-0.0409417002158 0.0239135523577
-0.0174021752039 -0.0617438908861
-0.00123644681926 0.0171341968155
0.0148463385322 -0.0381042341929
0.024051089008 0.0358196917313
0.046735356693 -0.0626382338084
0.0559261228871 0.0158368449512
0.0662171155965 0.00974620755852
0.0841488770246 0.00355077709655
0.106505035034 -0.00725723871043
0.120269177856 0.00213945727639
0.136294599687 0.00584295212838
0.152304427041 -0.0460078272602
0.16632915374 0.0327766678969
0.178048903737 -0.0132629641964
0.193249761839 0.0129945147694
0.205563292963 -0.0055026029589
0.221956892419 -0.0121006442997
0.236077818569 0.0154921452876
0.248251008471 -0.0438517123026
0.270847810205 -0.0126464405942
0.291979737052 0.000612356204677
0.314492223089 -0.0220754308299
0.331482019967 -0.0172655434183
0.350839703641 -0.0324579143343
0.364159637259 0.016585502256
0.377579259768 0.0124656571394
0.388062622389 -0.0666000748431
0.404533363078 -0.00231757624911
0.410715299359 0.0231815023055
#44
-0.426760128557 -0.0325790870698
-0.416420056619 0.0259490370519
-0.392237289415 0.00786601099018
-0.382870826555 0.0263946897202
-0.361387352902 0.0111344615084
-0.334854753959 -0.00785887024598
-0.315266180581 0.0181153014368
-0.295238467759 -0.0188520449841
-0.282482641575 -0.000410388086182
-0.266092166824 0.0627267128373
-0.245694428234 0.0451888284199
-0.218887254226 -0.00375976946147
-0.187730179148 -0.0086146724761
-0.173172732505 0.0139414381464
-0.155735319267 0.00936450912775
-0.138923558175 0.0535489039409
-0.122541794593 0.0528208829139
-0.0953574579208 -0.0458184985549
-0.0846797012604 0.0362130794196
-0.0621121649862 -0.00590723656463
-0.0453778437667 0.0380181407908
-0.0244707669722 -0.0357778708035
-0.010112867531 0.0399848590387
0.00417136479088 -0.00793507455329
0.0189250305269 0.00637092225244
0.039072494156 -0.0799352279064
0.0472354482352 -0.00795382771368
0.0563755893456 0.0151649578735
0.0723020244806 0.0256382250421
0.0987363628434 -0.0330298064143
0.110961248365 0.0152556759717
0.125194531386 0.0253917944253
0.139413964079 -0.0195193293544
0.15844858357 0.0401844291722
0.175435993349 -0.0360816403568
0.188936924691 0.0283201981288
0.199873422049 0.0130327615669
0.221012000707 0.00260805411475
0.233553769751 0.0293973848954
0.250943911856 -0.0666730172474
0.271013691739 -0.0104291590721
0.296360706683 -0.0226168784566
0.316355600622 -0.0222270931561
0.338023703726 -0.0373543436085
0.355216599143 -0.0360130219186
0.367046952226 0.0178160139131
0.378965845448 0.0210036863703
0.394855135586 -0.0834540149779
0.409483937621 0.00330914713922
0.414974541604 0.0305211685928
#45
-0.421793347188 -0.0373210113859
-0.407241841357 0.0134934416503
-0.384699518416 0.0190578225751
-0.372709306291 0.0332540428201
-0.34819614329 0.00521405589205
-0.320885409563 0.0021068388432
-0.296755519677 0.00858023176362
-0.277962607178 -0.00860133950539
-0.260875710493 0.0016352005955
-0.244391205339 0.0597046682432
-0.224406879637 0.0563041325654
-0.197289643843 -0.0300470867838
-0.177206800336 0.0100512482548
-0.164726925508 0.0264741539037
-0.144436384412 0.0121188466587
-0.130825109716 0.0837043774971
-0.118707482233 0.0563737900144
-0.0928511832429 -0.0413773108701
-0.0849055750805 0.0463985438727
-0.0602180445001 -0.0141985893632
-0.0448408004816 0.0440748260715
-0.0247579916879 -0.0570156072503
-0.0141259354542 0.0511196046242
-0.000777746009811 -0.00673750074
0.013245133088 0.0256216589331
0.0330086376171 -0.0915237631775
0.0380495599424 -0.00104303152657
0.0451115394876 0.0199542386708
0.0614849039395 0.024784701294
0.0872371915552 -0.0148452947311
0.0998005065085 0.0247534816524
0.114076889949 0.0290136582382
0.128890296284 -0.0458043633309
0.1482536137 0.0218481704075
0.164782547311 -0.0303388076998
0.177777831342 0.0282286325462
0.190963343645 0.0105009525113
0.214661296742 0.0110177390358
0.231230792637 0.01823806686
0.252297185504 -0.100357061619
0.268401100083 0.00300114901479
0.296070134628 -0.0419432609784
0.315435531661 -0.013935879211
0.339085639556 -0.0631069569621
0.355475515068 -0.0379485220228
0.36726397843 0.0327125932292
0.382622978448 0.000543463803852
0.398728712131 -0.106669863475
0.407557659158 -0.000944103019928
0.415532454716 0.0321028252252
#46
-0.447039697822 -0.0619763939984
-0.433059416352 -0.00127177281299
-0.398078856763 -0.00831894595214
-0.38437928637 -0.032694590178
-0.338616007007 -0.0561928422794
-0.309428996528 0.0130720000551
-0.286207179248 0.0342965216518
-0.265856350355 -0.00541769885064
-0.249437267152 -0.00678386767322
-0.233581896808 0.0485798536538
-0.214421721256 0.0719096336519
-0.194661576238 0.0427550457798
-0.177268866972 0.0900007553461
-0.158633421804 0.10651730994
-0.136942998366 -0.00336915258741
-0.123822170656 0.125766192973
-0.110030430733 0.0915526672659
-0.0892659233245 0.00416190135285
-0.0816674705658 0.0866584290279
-0.0557670940762 -0.0223214913187
-0.0410233541617 0.0495444023886
-0.0217289600855 -0.0109195645853
-0.00706819694108 -0.0017136083238
0.00572805983971 -0.0232999498476
0.0150456424047 0.0238270958002
0.0340472044937 -0.0568584199172
0.0411067887271 0.0294664279163
0.0501107953507 -0.0113161127442
0.0724572215912 -0.0349381960212
0.0909085360372 -0.00874272293476
0.105159615378 -0.00981026630464
0.123378861992 -0.0264471430193
0.13980260317 -0.0829840629082
0.154301573514 -0.00601208898854
0.166063003568 -0.0384606569227
0.178604341289 -0.00536214886764
0.19344471686 -0.0379267639936
0.209906533464 0.0215281970231
0.22807318746 -0.0102458513495
0.244126024764 -0.10027278266
0.261810062232 0.0116357573514
0.284243829741 -0.0264706759421
0.307316959471 -0.00337898625351
0.328083866696 -0.0623973199771
0.343811782854 -0.0320023119691
0.355046450936 0.0466247530623
0.372073961303 -0.00717806705789
0.38340997265 -0.0973107871094
0.394146106897 0.00765121023801
0.406215520929 0.0309487008014
#47
-0.478913034037 -0.00123957778524
-0.464545807579 0.0385248457612
-0.430432223139 0.00435790108186
-0.412459378313 0.0330401278832
-0.362760730944 -0.00759116610522
-0.326903186498 0.0459455283408
-0.30198820756 0.0480798306493
-0.275945479908 0.002398455765
-0.261915948936 0.0188503887919
-0.247722041127 0.0870077521845
-0.221010468058 0.0878479975017
-0.198307995861 0.0594445275117
-0.181052575628 0.0914972587525
-0.159849736728 0.0901178912576
-0.141637868736 -0.0153611856003
-0.126783336734 0.105768772122
-0.111220756432 0.0912117066797
-0.0948946599086 0.0712302323406
-0.087251442141 0.0515098422075
-0.0554807725187 -0.0212764988539
-0.0453285585674 0.0754598169182
-0.0227615909879 0.0183392470843
-0.00975270535396 0.0062513917292
0.0127427006232 -0.0218535176575
0.0243038202889 -0.0198212175764
0.0401932512711 -0.0251560975417
0.0452633525235 0.0404372632987
0.0550840529995 -0.0218592809145
0.0824173478228 -0.0194933506959
0.100659879001 0.00954501257628
0.118576887466 0.00060055507588
0.135343727394 -0.0910316761454
0.151942472664 -0.103342508458
0.165557478323 0.00170244914213
0.179189741138 -0.0353557915255
0.194955355132 -0.0724211149492
0.208514281065 -0.0916281327167
0.225337763469 0.0107249773154
0.241185956573 -0.0258568326061
0.25909661869 -0.122690198838
0.272387179856 0.0490812928792
0.294486666315 -0.0598906087428
0.313787951675 -0.0433617776891
0.335070541656 -0.0994098877262
0.344519902796 -0.0586937023479
0.358582253444 0.0346157237579
0.375249985175 -0.0235482220008
0.39076819913 -0.134215362721
0.400330563113 -0.0589770902621
0.410532149672 0.0580808194021
#48
-0.476708872445 0.00327005693844
-0.462875565204 0.0414398547515
-0.429088977896 0.00886489272195
-0.410324610206 0.0340722783764
-0.361756788777 -0.00165836209826
-0.326507256494 0.044192217896
-0.30136777296 0.0510609814829
-0.27611813854 0.00175341118905
-0.261535332187 0.0273274412017
-0.248032465595 0.0827967736821
-0.221840321032 0.0881071755991
-0.199943812513 0.0637787686823
-0.181357901789 0.0921932566575
-0.160680246059 0.0883031292337
-0.14258657272 -0.0120001775747
-0.128213244181 0.102065662992
-0.1119364603 0.0926985754844
-0.0952363538777 0.0713730882762
-0.0873586129193 0.0444813752895
-0.0557184354991 -0.0162814500421
-0.0451140144331 0.0783964030216
-0.0227391725755 0.0245333930939
-0.0100828228055 0.00277053402472
0.0115354474313 -0.0201055606072
0.0237738518584 -0.0222546446224
0.0390863351489 -0.0240147764974
0.0456716759812 0.0388140420497
0.054750051676 -0.0241890542543
0.0810209199437 -0.0210796497354
0.0996270059402 0.0062286281644
0.11815054892 -0.00700943154852
0.135505282086 -0.0920207097736
0.150780618618 -0.102283010139
0.164378963224 -0.0138848849599
0.177527551081 -0.0410185516824
0.193312953451 -0.079273297778
0.206430509391 -0.100957003527
0.222668806124 0.00128975286029
0.23816659993 -0.0243376964405
0.255447354719 -0.121697917646
0.26860395206 0.0532504824597
0.291994480244 -0.0610436608075
0.310556951575 -0.0389049495136
0.333560030912 -0.0976699724605
0.343620067776 -0.0604461225302
0.356269862819 0.0351123404509
0.373475777656 -0.0265082692792
0.390339634709 -0.133816806663
0.400009759036 -0.0560616736652
0.410764962367 0.0555995631427
#49
-0.475354466152 0.0390260720282
-0.46043566594 0.071151647179
-0.431066805188 0.0349016150095
-0.411154239669 0.0596070960739
-0.364170259906 0.0225628374236
-0.32964323154 0.0603004155799
-0.303766548388 0.0702754001953
-0.2641384099 0.02031663115
-0.251028276453 0.0432546059688
-0.240842341027 0.0891494018937
-0.209701460236 0.0825401782122
-0.191587609849 0.0770055373986
-0.167120598271 0.0893689381919
-0.148525050358 0.0759123916514
-0.13384366125 -0.00348515201276
-0.116776441825 0.099617796588
-0.100207639375 0.0807103659016
-0.0826008552208 0.0920221877324
-0.0736994019427 0.0215500914484
-0.0493753276303 -0.0452876422285
-0.0419993061154 0.09296130089
-0.0203871937972 0.0347545440278
-0.00599638258139 0.0249699434859
0.0137870246843 0.000567069479556
0.026689055695 -0.0662170006096
0.0395505309962 0.00541727927793
0.0496221780395 0.0114218835659
0.0590906251918 -0.0575687619538
0.0817830075263 -0.0293513165807
0.0975744394699 0.013319775269
0.114382682918 0.0107717933051
0.134016493045 -0.133656078462
0.147635905248 -0.124833801477
0.161008627483 -0.0166246361313
0.175041696699 -0.0697006029623
0.188596959293 -0.0918125713506
0.199897463999 -0.0662984970704
0.217452210011 -0.0411257221677
0.228385693134 0.00351039583937
0.248817844407 -0.129366764691
0.26308394269 -0.00291728319402
0.282374561932 -0.0928133965432
0.296228792077 -0.0603192208089
0.316643956527 -0.0754781111098
0.328239326196 -0.0757016719865
0.339628743335 0.0520715230106
0.356216072258 -0.0615455222165
0.373942924908 -0.149195085182
0.386031009549 -0.0941488441941
0.394291369224 0.0726346870545
#50
-0.477121606778 0.136842532154
-0.461773604802 0.147289942869
-0.440149703912 0.119720413426
-0.420439409685 0.159629339399
-0.381737714103 0.0997270573807
-0.354518868108 0.119900488884
-0.327066264944 0.102319421541
-0.282412937165 0.0757541133767
-0.266523651349 0.0873345241273
-0.245468997119 0.0887779505511
-0.214052050885 0.0603696394401
-0.192297258124 0.0399732899731
-0.17049971706 0.0400002391348
-0.158301204378 0.0266602136773
-0.143576607976 0.0339354276396
-0.124423687995 0.0527388917752
-0.103174839309 0.0179851012602
-0.0887169877825 0.0817099569888
-0.0796377761785 -0.00695358314277
-0.0516967055774 -0.0537915069504
-0.0460292395123 0.0756022142818
-0.0207890279648 -0.0222350934396
-0.00804823313981 0.0478422610088
0.0179906288824 -0.0020178880197
0.0283817691588 -0.0469280978352
0.0422914690088 0.0283654230599
0.055035023926 -0.0214325146396
0.0649385163106 -0.0620067390249
0.080550968296 0.0233540009453
0.100743145151 0.0143229785889
0.114884196605 0.0196684680088
0.130474558661 -0.131791210791
0.144099223566 -0.144053766546
0.154504694103 -0.0144939910717
0.168681573946 -0.0663180404252
0.185263909499 -0.127464727662
0.193474112338 -0.0499661792229
0.213626734479 -0.100607965679
0.221836412525 -0.0146784409677
0.243087273518 -0.155314560764
0.25594653358 -0.0986003958015
0.274417159036 -0.118942338848
0.282087551452 -0.0905148677803
0.304452038155 -0.0607104012091
0.318999080563 -0.0992898729899
0.333549969678 -0.0114451269092
0.352647085657 -0.145307664141
0.371753021019 -0.186781889456
0.381445532765 -0.125731830357
0.389971046458 -0.0166924904099
#51
-0.48065427784 0.155801203278
-0.465665704246 0.172741056652
-0.433776365442 0.144800311299
-0.420799465004 0.176753674225
-0.381969603991 0.142368803933
-0.356287118863 0.13085477835
-0.325912622619 0.127458555319
-0.28135334778 0.0977026120002
-0.265527009507 0.0784647058483
-0.235476794043 0.0832404064586
-0.205837978712 0.0621934135645
-0.184992102742 0.0238081228928
-0.163576766498 0.0196744493128
-0.151206403601 0.0493388800612
-0.136770713627 0.0493115725406
-0.118394829975 0.0688075191296
-0.0972389639536 -0.00114017089253
-0.0822044606011 0.0678411206753
-0.0702208850369 -0.0116816521461
-0.0507038010219 -0.0399780001406
-0.044843748392 0.0601914356723
-0.0161560929942 -0.0468974627786
-0.00361968651871 0.0454490053144
0.0185697197105 0.00298574793663
0.029292978562 -0.0538650804311
0.043392389296 0.00532903232967
0.0561428788549 -0.037236370767
0.0679385498274 -0.0446549417631
0.0798883978194 0.0269633404918
0.102874609981 -0.0233399543116
0.117562469014 -0.00888131377352
0.132873164019 -0.119365872443
0.146833413517 -0.155858117699
0.152065032284 -0.0376943020184
0.16679705293 -0.0737704177982
0.182882595633 -0.127730157651
0.187660266152 -0.0593449693415
0.20676069477 -0.100346225856
0.217884424877 -0.0567936125537
0.238912776004 -0.163080564293
0.249387724853 -0.131934279605
0.271404630702 -0.162207009128
0.283547435479 -0.112582808733
0.301354205739 -0.0659371659234
0.316330114259 -0.109191061103
0.331419321853 -0.00519626341931
0.353980284872 -0.201560983686
0.370304929797 -0.209062052887
0.383297553427 -0.136581428958
0.39422643269 -0.0616987431717
#52
-0.47957737098 0.154481183934
-0.457574581264 0.169398534622
-0.427812700633 0.164993989094
-0.416158093057 0.192780818808
-0.378249040992 0.155598991284
-0.352907206352 0.154638471361
-0.323212130478 0.123252287942
-0.282874111635 0.0969796670063
-0.26205898484 0.0711061200533
-0.228892751569 0.0679762957844
-0.203718012576 0.0604578689745
-0.184627309082 0.0108574717584
-0.16538738688 0.0235697129183
-0.153424055664 0.0439006747897
-0.137675162137 0.0477243870825
-0.121371928385 0.0571155958396
-0.102689319064 0.0236235845303
-0.0876876634104 0.0447439562847
-0.0775728166106 -0.0114675249489
-0.0592577203463 -0.0427566011419
-0.053524416563 0.0559440702952
-0.0287064615837 -0.0185106435444
-0.0124101880518 0.0130647824915
0.00609945163099 0.018902087145
0.0201687219799 -0.0825674922693
0.0335386503043 -0.00954771275566
0.050278898484 -0.0591170908847
0.06120015185 -0.0262910362725
0.0744643325861 -0.0169919768162
0.095159526326 -0.0472162913314
0.108262159845 -0.0376557087391
0.120815997915 -0.0957299703519
0.136379378822 -0.173374518154
0.14405664363 -0.0807177016619
0.160749108059 -0.086793317303
0.175177216895 -0.118524592564
0.17781108826 -0.0257147685919
0.198182915655 -0.0758851726938
0.208799620439 -0.0178347110193
0.230774574268 -0.181152316334
0.242297609207 -0.162082001461
0.262024026835 -0.12827896171
0.276894264545 -0.110148562445
0.294531235753 -0.0766924526364
0.307927355075 -0.0858713903919
0.328895374128 0.0119233059875
0.351252468662 -0.174322938584
0.369113166878 -0.17550785511
0.383186372556 -0.129728043826
0.395633850985 -0.0411889423773
#53
-0.480259462634 0.154438870692
-0.455488180246 0.145260837868
-0.435318504995 0.165691722553
-0.421135882369 0.17010568875
-0.379598210328 0.136457418506
-0.352148011939 0.131695422528
-0.325846832734 0.123996959001
-0.282574520449 0.095754344709
-0.254891331527 0.0520691291356
-0.226806735624 0.0690819413347
-0.20041120138 0.054525154507
-0.18367899639 0.0222792419737
-0.160944302585 0.0273907532177
-0.15641838136 0.0314871956751
-0.138260052629 0.045520360482
-0.12757683857 0.045444797258
-0.107756733047 0.0207187697706
-0.0902750550599 0.0229456756957
-0.0831106812693 0.00788714454854
-0.0641418624789 -0.0538113325955
-0.055709951713 0.0190578144727
-0.0386530697885 -0.0107575596562
-0.0208965257242 -0.010682592929
-0.011113663924 0.064159112641
0.00446331858357 -0.0797147001332
0.0180815815708 0.00978188542578
0.0403143548886 -0.0994580491837
0.047006870079 -0.0515804482131
0.0586986607929 -0.0344844882059
0.0773009169962 -0.0558268188651
0.0845348056039 0.00225422894596
0.0969009142102 -0.075013809882
0.115149200412 -0.170786161529
0.124514680002 -0.0880244513866
0.141304940797 -0.101710391275
0.153095975479 -0.0715569814649
0.159292298219 0.0273791331956
0.180502412146 -0.0617950531603
0.190971305345 0.0581204615927
0.211284886091 -0.175634300075
0.227574347801 -0.21339148927
0.244117377952 -0.0712732417301
0.25604476635 -0.0363460235561
0.279805954044 -0.0236194392101
0.296938919011 -0.0674831728876
0.316155424175 0.0287509471066
0.33803341885 -0.134584582177
0.355716395135 -0.135698982543
0.366317167049 -0.0789705569348
0.378348554149 -0.0253298551248
#54
-0.472041591746 0.178017796836
-0.452166052404 0.163724735461
-0.432693783494 0.166324850545
-0.415669509898 0.168325660069
-0.377250225226 0.135236148059
-0.347748047323 0.130651336119
-0.323783330021 0.141847320889
-0.278098183956 0.109466423326
-0.257667503301 0.0671722235246
-0.231723787074 0.0961230710219
-0.201312415768 0.0536423837364
-0.186363613288 0.0432683562826
-0.161571079445 0.0432032444713
-0.157622261837 0.0364005456298
-0.139573030589 0.0616495473426
-0.127215812497 0.0513354173267
-0.105127373507 0.00786876502801
-0.088129744662 0.044140896539
-0.0797142156145 0.0350689168985
-0.0572262274568 -0.0636033732812
-0.0459603542033 0.00224992811242
-0.0294232040578 -0.0230750372645
-0.0143148257735 0.0156137061312
-0.00269480263203 0.0542625434543
0.00910511805615 -0.0686253026177
0.0229738182025 0.045457540395
0.0423504066498 -0.101143488317
0.0505790461948 -0.0619078706376
0.0611962125347 -0.00637880418092
0.080938300576 -0.0212844198329
0.0898524673032 0.0130462492833
0.10464669531 -0.0934285132987
0.12266716439 -0.160056761311
0.129339827983 -0.0477261512972
0.142184386526 -0.0807967576862
0.155949187745 -0.103766697848
0.162950739061 -0.0140008937955
0.181636345574 -0.100566200614
0.194231668814 0.0216939026969
0.214860742167 -0.170447842237
0.227701105151 -0.201255330938
0.248425625084 -0.115659129803
0.25954685621 -0.0568690963787
0.284546796608 -0.0299826132793
0.303197515909 -0.0905333014772
0.31640308921 -0.0112933698801
0.337927893779 -0.185149728348
0.355682316234 -0.173035524167
0.364409979608 -0.0939856430779
0.375836900746 -0.0594624777971
#55
-0.455600389184 0.157739201564
-0.439122827666 0.157711966332
-0.420997073847 0.160862589189
-0.407375199625 0.139214979448
-0.367755656847 0.13823831614
-0.341945987898 0.109523817615
-0.317779206055 0.130050402234
-0.273942083469 0.104848442213
-0.253093544641 0.0687962367463
-0.22948511123 0.0878262138131
-0.201536774227 0.0529600377074
-0.18564103187 0.0475487310853
-0.163078678547 0.0375752076254
-0.160056391715 0.0341333522349
-0.143447224135 0.0514409138209
-0.127984275249 0.0623816341035
-0.10826203897 -0.00805744475954
-0.0934861299484 0.0530517317672
-0.0835060514306 0.0217862515856
-0.0608689002383 -0.0320669939959
-0.0524168967755 -0.0020620151616
-0.0359377282455 -0.0200442727566
-0.0209396957235 0.0107330106522
-0.00702514537323 0.0480231697582
0.00301748650148 -0.0497552919472
0.0179502777609 0.0365523673108
0.0370878257125 -0.0899346038922
0.045963651952 -0.0584370291837
0.0566356727628 -0.000261840929458
0.0758013925282 -0.0230368189509
0.0848358729039 0.0101751345414
0.0992478523334 -0.0773823994651
0.115953301375 -0.149624870091
0.124116638371 -0.0398145317282
0.138865560111 -0.0725237343115
0.150035277495 -0.0881513728737
0.157654340757 -0.0250425862257
0.174893602823 -0.0966467996944
0.189364430785 -0.00320111138815
0.210073558697 -0.129906156365
0.223372850557 -0.18850329135
0.241368056932 -0.104772878941
0.253505652996 -0.0653610787271
0.27411894205 -0.0240989058686
0.294047659884 -0.0824839975444
0.306117623531 -0.0158533777097
0.328590591215 -0.151027175483
0.346018030924 -0.159020259615
0.358188154437 -0.0914787690664
0.369083652665 -0.0619448303303
#56
-0.441475798419 0.16373061372
-0.411662258574 0.142665172027
-0.396194932792 0.136043232494
-0.38184735475 0.116606803436
-0.348534946974 0.134994088442
-0.323268022172 0.0871433729242
-0.30339145251 0.129971128279
-0.264815548994 0.118716789248
-0.243653957597 0.0557784127714
-0.220572799303 0.0687350958637
-0.19805606991 0.0696633111882
-0.180823243672 0.0394671290441
-0.158455958479 0.0256336855841
-0.154012674453 -0.00105094975899
-0.140864232709 0.0236793559716
-0.126466664599 0.0256222491023
-0.10851232682 -0.0160798987629
-0.0937652873717 0.039226498893
-0.0827332566884 0.00674931527802
-0.0644725448321 0.00449356991732
-0.05379611088 0.0150291187296
-0.0394493716591 0.0184151016103
-0.0231552338443 -0.00737170255491
-0.0107037644188 0.0616252983006
-0.000353452986232 -0.026452990918
0.0157604116373 0.0702627127788
0.0383984277241 -0.0504749438886
0.0643267944806 -0.0403127405644
0.0773060711762 -0.00740936052996
0.0929423795038 -0.0124440688711
0.103047896731 0.00733667946765
0.114563264422 -0.0516242641453
0.129669536799 -0.136634536871
0.139216313478 -0.0135826981249
0.157894424387 -0.0804103921946
0.166627100296 -0.0486080292609
0.174774473856 -0.0539556184559
0.193623005238 -0.107192798533
0.206477916404 -0.0423202889498
0.22389207504 -0.123693168897
0.23782601372 -0.198319531013
0.25231022054 -0.0552884056714
0.262154011922 -0.0384096162019
0.280713039937 -0.0362916662376
0.298377077654 -0.101483613388
0.311859492398 -0.0701715939963
0.330346485138 -0.147384980326
0.348173504291 -0.163690318459
0.360592688918 -0.13625737907
0.370338257483 -0.0999470897071
#57
-0.440268086552 0.0965377064974
-0.417804121966 0.0864501044
-0.402807163739 0.0761992251247
-0.38299790331 0.0734786876888
-0.354570235769 0.0801498822936
-0.325330503229 0.0573772944611
-0.307659581175 0.076324055163
-0.28190592996 0.0792720657648
-0.260856177725 0.0311881655366
-0.230483789111 0.0452933946604
-0.214845427873 0.0492155006851
-0.195801006205 0.0329303529224
-0.181217628935 0.0114169908907
-0.173554282792 0.000762587521979
-0.156468661929 0.0217867964792
-0.145226135559 0.00177369123837
-0.127954655719 0.00173301043848
-0.117076504073 -0.0073275610778
-0.101894242919 0.0414622617509
-0.0853107310367 0.0179004411363
-0.0704340188738 -0.00974050156909
-0.0595537877654 0.00531689425479
-0.0385866341564 -0.00870028786649
-0.0246141934853 0.0169306201847
-0.0132405182917 -0.00262929537771
0.00412757531212 0.0216670929584
0.0235131145591 0.00161671091889
0.0472488784636 -0.00527899820698
0.0628002583413 -0.00383697180993
0.0824286555669 -0.0304776762738
0.0939617638665 -0.00818142119034
0.10340022072 -0.018707176162
0.120995535884 -0.075994793007
0.135664094058 0.0173857406451
0.150878798344 -0.0497041211208
0.161238769307 -0.0228185092433
0.170749806084 -0.0764573603802
0.19057130816 -0.0313952570993
0.204470811248 -0.0617849593308
0.221144931804 -0.0799189817218
0.234256088898 -0.10824081703
0.248636569136 -0.000478518869206
0.261647077436 -0.0246918701752
0.279633699965 -0.0471532843839
0.297745660475 -0.0562355808723
0.312284384785 -0.0632083467379
0.33050865816 -0.0810025746737
0.348888207986 -0.0912885620939
0.357443583498 -0.0902400025886
0.36681175016 -0.0874639168392
#58
-0.437864574963 0.0237104132164
-0.425951634246 0.0340198702345
-0.414373845393 0.0329706687927
-0.389794502412 0.0107247324149
-0.367672478794 0.0430061609834
-0.337342831872 -0.00160130830175
-0.314920799138 0.0330114019904
-0.290946536497 0.00992239412695
-0.268983474898 0.0164627530521
-0.245488450654 0.0193605027574
-0.224132000071 0.00944007748846
-0.209092755572 0.0104052787721
-0.191134556741 0.0111386532826
-0.182063234179 -0.0149836829969
-0.1649111112 0.0349105757429
-0.149287084869 -0.0132938648947
-0.134400374124 0.00740362554865
-0.125076731381 -0.0028040504198
-0.10773640395 0.0372979453522
-0.0940527286082 0.0119637110495
-0.0793540739114 -0.0262789596199
-0.0698867080466 -0.0160332290906
-0.0463303613571 0.0185917351391
-0.034443356207 0.0165004181143
-0.0194549781119 -0.0265198918929
-0.00125332281011 -0.00453849080422
0.0146753686986 0.0076365906096
0.025567888391 0.0167789687308
0.0441548961022 -0.007361629554
0.0606610629408 -0.0129657508743
0.0759343424274 0.00917284554995
0.0867304975708 -0.002247499083
0.104340252268 -0.0465408284036
0.122562482449 0.0294516621072
0.134132414638 -0.00528907845644
0.144362142519 -0.000657480455996
0.157520635264 -0.0438071745357
0.174233573305 0.00726837847007
0.188552822661 -0.011897462506
0.207212828661 -0.0292814457116
0.22137663061 -0.0384255901974
0.235662703989 0.00112072461088
0.253515887347 -0.0261159669854
0.269878357124 -0.036111108548
0.289291114414 -0.0221886631145
0.303364982917 -0.00125125617691
0.321416453013 -0.0138341886193
0.340815817897 -0.0384169906204
0.353381847555 -0.0698833594289
0.363087059922 -0.011025252922
#59
-0.454763216901 -0.00261497898957
-0.442506515796 0.0241756500041
-0.418847538181 0.049521166217
-0.388475939632 -0.0488780427298
-0.369234344247 0.0699340874099
-0.335615593375 -0.0643278071255
-0.312772796345 0.0258452048581
-0.290499568805 -0.0582062642801
-0.271627876123 0.0444042348668
-0.249039830107 -0.0396656113875
-0.228983397209 0.0237657882126
-0.20959167204 -0.0316727652151
-0.194390581936 0.0311930848129
-0.180587788908 -0.0460240937872
-0.168276070219 0.0507349972521
-0.14743492208 -0.0266022706248
-0.133851945677 0.0171100428498
-0.126379899069 0.00297362193791
-0.113822644044 0.0648853139487
-0.0919883516513 0.0142375371902
-0.0806726152634 -0.015306843528
-0.0722146576192 0.00202252947234
-0.0451070515467 0.027925677923
-0.0355894428962 0.0533970069574
-0.0178222284206 -0.0321746933355
-0.00245185029196 -0.00690250723746
0.0160188481164 0.0178673627517
0.0227570765797 0.0436203516246
0.0500248347139 0.000489402460315
0.0589668930206 0.000591482162474
0.0777868368186 -0.00862537537244
0.0871207892315 0.0115895248892
0.106190525509 -0.0421563255857
0.120813163299 0.0495183109636
0.133107449034 0.00114004040373
0.149731495438 0.00209587954087
0.164246921253 -0.0242354550703
0.178128863212 -0.00338065754526
0.190237466177 0.026437607313
0.21228835225 -0.061430109196
0.225326893556 -0.0271267191731
0.240046366401 -0.0448124602971
0.255096377127 0.00583213632251
0.275548664818 -0.0459469442471
0.28839291299 0.0213209653518
0.304070738948 -0.04837947287
0.317160631774 -0.0211084919617
0.334750815751 -0.02383068149
0.349767672677 -0.0775272024503
0.362750530263 0.00324059784566
#60
-0.438265602858 -0.0234068889009
-0.426602429739 -0.00174454924255
-0.403780167235 0.0756629720654
-0.376776772402 -0.0455334760764
-0.358643241909 0.0849138515207
-0.327181382786 -0.0731933634245
-0.307775999651 0.0611992180573
-0.282263589462 -0.0408816447056
-0.267040114032 0.0626640936977
-0.246532491809 0.0416863277762
-0.230418463128 -0.0212198267042
-0.206795785405 -0.0103368916354
-0.194618847784 0.0464628315002
-0.183852850492 0.0447780208553
-0.17323702144 0.0378350871245
-0.156435870586 -0.0423937448003
-0.141730447234 0.0322055328916
-0.13269512577 0.00409407048038
-0.115754120322 0.115363093792
-0.0962974310528 0.0337039343782
-0.082438858355 -0.00864494004793
-0.070306442536 0.0135971845785
-0.0483336474283 0.0947066939369
-0.0378061663084 0.0515589479069
-0.0206343661202 -0.0223699614622
-0.00379982305411 0.0472347518024
0.022498105644 0.0690710740558
0.0374860198088 0.0918655201448
0.0587633975217 -0.0408870725248
0.0692775735435 -0.0362007389081
0.0874869627775 0.0399313978377
0.0998992481237 -0.0255818091712
0.117528246168 -0.00474961858841
0.130817606727 0.0763974453633
0.141892861389 0.025934880529
0.16422118653 -0.0411152280757
0.176387126785 0.00038837149958
0.193909742538 -0.039897311468
0.20636082979 0.0495430964367
0.223929585105 -0.0842069283877
0.237399087133 0.00261132886696
0.253431742352 -0.0688930651394
0.2709939025 0.0194229162358
0.291584649745 -0.0634203128494
0.307155088527 0.0397866991702
0.323264542929 -0.0772245856229
0.336289308075 0.0159552754698
0.355083686522 -0.0425957067149
0.367764175432 -0.0591931680512
0.377054070184 0.00866597624989
#61
-0.426535459105 -0.0290743492966
-0.416051746875 0.00594392649524
-0.391031154446 0.0775509847863
-0.367069402216 -0.0435626619787
-0.348740369244 0.088086950942
-0.320017742756 -0.0768875844778
-0.299551426508 0.0610085349947
-0.277344282795 -0.0381070847133
-0.261648877891 0.0625189824893
-0.245507900966 0.0574761807077
-0.228577311934 -0.0357464015966
-0.207809200418 -0.0159773226097
-0.194933673004 0.0633163515314
-0.184158922383 0.0396331264334
-0.172192282155 0.0395396266686
-0.155962893108 -0.0483015577374
-0.142552560793 0.0444131362121
-0.132616692951 0.0156877256705
-0.114804215665 0.120921555736
-0.0962685299264 0.0331564908222
-0.0821492339941 -0.000788001011206
-0.0698216227108 0.0272163731911
-0.0462303921814 0.0970774345673
-0.0381992630932 0.0533901145884
-0.021797344767 -0.0141785091418
-0.0025613543864 0.0634034069171
0.0263400427817 0.0681919530729
0.0410361338284 0.100617946752
0.0607716898219 -0.0342339724352
0.0710718739994 -0.0525970713769
0.0906778909482 0.0416617418441
0.104294450651 -0.0231621418033
0.119434393107 0.00937404288796
0.132871134108 0.0780056315377
0.144190534304 0.026474594418
0.165154359092 -0.0435589633946
0.178167443501 0.0164368666863
0.196412627237 -0.0567622175765
0.209364582749 0.0541038689272
0.223708204798 -0.0816120100401
0.237409452293 0.00576522745495
0.255973207767 -0.0891652944031
0.274909599932 0.0199333619344
0.292644284968 -0.0563426296361
0.30834001509 0.0364439810423
0.326961858064 -0.0859345789526
0.340436246103 0.0172560118289
0.357884452654 -0.041376848678
0.372115848066 -0.0514407381731
0.381950089203 0.00458653368392
#62
-0.426535107371 -0.0290744449438
-0.416051401979 0.00594381862611
-0.391030829691 0.0775509400906
-0.367069086148 -0.0435627507828
-0.348740065805 0.0880868731952
