#0
-0.472448291629 0.148281718369
-0.466399184755 0.157932685575
-0.457910826524 0.15231994031
-0.448687814229 0.149355272934
-0.434604348971 0.166624889505
-0.422639723327 0.122430678019
-0.415773451479 0.0252062032334
-0.404823850126 0.0655113942656
-0.38585292719 0.0605573006445
-0.377818941373 0.142136745215
-0.364874190282 0.147559193165
-0.348357786651 -0.00396956519395
-0.342110104479 0.0945460179836
-0.328506831932 0.14223652971
-0.31655643979 0.117517032872
-0.307764330176 0.0682900438652
-0.301852960589 0.124334051475
-0.283493496025 0.128644397015
-0.27502566739 0.187775896809
-0.266264796318 0.109085024348
-0.25703945041 0.205172870687
-0.243490040734 -0.0199061923597
-0.237997876792 0.0965464582636
-0.22462362612 0.185153215442
-0.215548335786 0.0770628603284
-0.208856997212 0.161777262088
-0.193466626784 0.0234346263938
-0.183207000522 0.119556372162
-0.174968337547 -0.00341302874904
-0.165693699502 0.0609540804306
-0.156147241166 0.157847979708
-0.14135695551 0.113806942686
-0.129568257234 0.0955925572554
-0.121742573759 0.1307004603
-0.115715521669 0.024651901418
-0.113967161109 0.093655273539
-0.095001939334 0.167735785303
-0.0902712062149 0.17758670459
-0.0761401566955 0.0773654723764
-0.0735739169644 -0.00585627656592
-0.0677143765818 0.174889911914
-0.0546911590171 0.0420053619963
-0.0505862735559 -0.0272079720751
-0.0427481287035 0.165600047965
-0.0349267295659 0.06964610711
-0.0261324954391 0.094915144745
-0.023577602111 0.0546854627248
-0.0114390142419 0.0801358070584
-0.00538606266992 -0.0832074610153
0.00432639544735 0.0733300388229
0.0137270449239 0.0270595221257
0.0200141006798 -0.0167170707495
0.0280384116802 0.0288144261382
0.0351637687039 0.0439528226893
0.0435193503348 0.00488849724283
0.050214639887 -0.0182049452493
0.0573308353058 0.00589294059816
0.0636070778674 0.0217035101199
0.0707297416475 0.0175269346395
0.077229147378 -0.0258546512407
0.0856958118257 -0.0557515070937
0.0911713712738 0.0237312974604
0.0983791433682 -0.0763438875456
0.102552754689 0.0150576523693
0.110586795421 -0.0134452681224
0.115051377941 -0.0841232729609
0.119884679299 0.0056735913081
0.129239505914 -0.0250922974907
0.13632733237 -0.0150956124961
0.141568845231 -0.12156842524
0.1459759729 -0.0750537362759
0.153023087457 -0.095709565742
0.157156960215 -0.142230930033
0.163381666252 -0.0389844416114
0.169787965578 -0.00895398560002
0.184590406683 -0.116876731903
0.192063751457 -0.140747334525
0.198332019955 -0.113226408244
0.206206844382 -0.0436865703679
0.213125833185 -0.107103237438
0.216481671916 -0.0463237739166
0.229456164924 -0.130649702403
0.239048728066 -0.0406661170199
0.255838121322 -0.196755544469
0.261892406207 -0.101656350078
0.269456700546 -0.126430513342
0.279933196352 -0.0579109974629
0.295523689638 -0.161241754153
0.306214010939 -0.097388538204
0.314962350844 -0.136163340939
0.329245321925 -0.178075219259
0.342652121553 -0.160742144125
0.361804232643 -0.169190620588
0.369718242561 -0.162206330782
0.37731713186 -0.197887433058
0.391574488085 -0.190461945601
0.401691878475 -0.196586167942
0.412900415428 -0.198655632764
0.428787631916 -0.200529373326
0.43576589952 -0.190103161191
#1
-0.467700434784 0.137928636399
-0.462937137462 0.156015842264
-0.452024311858 0.155447457874
-0.443075925989 0.138665971163
-0.425177269407 0.14301571008
-0.415168418461 0.118676243457
-0.408031035614 0.0302352499711
-0.395028984426 0.0779391690087
-0.377166724595 0.0522962729414
-0.369982414198 0.133912586379
-0.356545739654 0.115605816705
-0.342067507004 0.0114963642761
-0.334901601754 0.100046863006
-0.319696817654 0.111445292241
-0.309223605635 0.112991301339
-0.300136296494 0.0496364877455
-0.294002417991 0.119486819099
-0.2744380927 0.12755917527
-0.267461981893 0.214745655558
-0.259279437119 0.137327688574
-0.250659674138 0.229819568916
-0.239149426355 0.0315317575729
-0.232955668492 0.0779286068221
-0.221089325782 0.196918862542
-0.212673868775 0.107604853031
-0.205800269167 0.128728437806
-0.192433016923 0.0344224084586
-0.183532429161 0.148133207281
-0.17524435549 -1.20572630033e-06
-0.166957436357 0.0655862008873
-0.158606241241 0.169738643837
-0.145547755797 0.155608994106
-0.134936187973 0.130191934558
-0.127022885267 0.124146230339
-0.121708768589 0.0390166586991
-0.12039228756 0.127838146232
-0.102130500875 0.142038746364
-0.0980497895184 0.207335604179
-0.0850242032262 0.0556651263381
-0.0826596033053 0.0212895249414
-0.0773235694037 0.200816136982
-0.0643036966468 0.0201788257577
-0.0589405344221 0.00133248406951
-0.051480651406 0.170939013431
-0.0438111252964 0.0827096198004
-0.036006815659 0.103085611164
-0.0320391533032 0.0650132161216
-0.0208247636987 0.0831578650655
-0.0137697615707 -0.0611722003073
-0.00527794101997 0.0797444139883
0.00598061283504 0.0291856487369
0.0135838098669 -0.0241073866715
0.0228032374504 0.0145430625014
0.0290996440824 0.0468467016833
0.0396860120761 0.00815679937069
0.045959569436 -0.0173997015602
0.0539197404406 0.00143719392994
0.0596982641592 0.0257814071505
0.0675267318033 0.00828326556465
0.0737130854831 -0.0160170919292
0.0822901711113 -0.0648134715217
0.0884015361348 0.0125451008424
0.0953583555141 -0.086618491918
0.102092020028 -0.00300874827138
0.11178158849 -0.03759482566
0.115721495106 -0.105670375743
0.123268778043 -0.0101826124649
0.132533829518 -0.0414450609541
0.14094841003 -0.0183119729471
0.14678008347 -0.145442741777
0.150662403576 -0.0970098960195
0.156797566672 -0.0925945614959
0.161737577414 -0.134244651435
0.167279855945 -0.0256729457321
0.174674249464 -0.0368470935669
0.187566786576 -0.118934586512
0.196866606316 -0.134027700858
0.203362227844 -0.134491337031
0.210396658665 -0.0735011318853
0.217636248411 -0.0927343440266
0.221388244101 -0.0579395553588
0.237061879037 -0.110826429277
0.246395687031 -0.0438522655533
0.261534229054 -0.170685418584
0.268048322572 -0.0919878458099
0.277154193121 -0.122293968707
0.286244568139 -0.053013470725
0.302417269988 -0.136066495588
0.312920653793 -0.0950367602262
0.322124790063 -0.11389867908
0.335893818262 -0.209950160982
0.348970754208 -0.164057334624
0.366030346394 -0.171393142784
0.373960079763 -0.195041249516
0.388575052349 -0.227437909213
0.4009001326 -0.196857381631
0.409651275391 -0.20238352136
0.420865369138 -0.215759488967
0.434697086241 -0.208833921896
0.442001430339 -0.209155405016
#2
-0.467700434784 0.137928636399
-0.462937137462 0.156015842264
-0.452024311858 0.155447457874
-0.443075925989 0.138665971163
-0.425177269407 0.14301571008
-0.415168418461 0.118676243457
-0.408031035614 0.0302352499711
-0.395028984426 0.0779391690087
-0.377166724595 0.0522962729414
-0.369982414198 0.133912586379
-0.356545739654 0.115605816705
-0.342067507004 0.0114963642761
-0.334901601754 0.100046863006
-0.319696817654 0.111445292241
-0.309223605635 0.112991301339
-0.300136296494 0.0496364877455
-0.294002417991 0.119486819099
-0.2744380927 0.12755917527
-0.267461981893 0.214745655558
-0.259279437119 0.137327688574
-0.250659674138 0.229819568916
-0.239149426355 0.0315317575729
-0.232955668492 0.0779286068221
-0.221089325782 0.196918862542
-0.212673868775 0.107604853031
-0.205800269167 0.128728437806
-0.192433016923 0.0344224084586
-0.183532429161 0.148133207281
-0.17524435549 -1.20572630033e-06
-0.166957436357 0.0655862008873
-0.158606241241 0.169738643837
-0.145547755797 0.155608994106
-0.134936187973 0.130191934558
-0.127022885267 0.124146230339
-0.121708768589 0.0390166586991
-0.12039228756 0.127838146232
-0.102130500875 0.142038746364
-0.0980497895184 0.207335604179
-0.0850242032262 0.0556651263381
-0.0826596033053 0.0212895249414
-0.0773235694037 0.200816136982
-0.0643036966468 0.0201788257577
-0.0589405344221 0.00133248406951
-0.051480651406 0.170939013431
-0.0438111252964 0.0827096198004
-0.036006815659 0.103085611164
-0.0320391533032 0.0650132161216
-0.0208247636987 0.0831578650655
-0.0137697615707 -0.0611722003073
-0.00527794101997 0.0797444139883
0.00598061283504 0.0291856487369
0.0135838098669 -0.0241073866715
0.0228032374504 0.0145430625014
0.0290996440824 0.0468467016833
0.0396860120761 0.00815679937069
0.045959569436 -0.0173997015602
0.0539197404406 0.00143719392994
0.0596982641592 0.0257814071505
0.0675267318033 0.00828326556465
0.0737130854831 -0.0160170919292
0.0822901711113 -0.0648134715217
0.0884015361348 0.0125451008424
0.0953583555141 -0.086618491918
0.102092020028 -0.00300874827138
0.11178158849 -0.03759482566
0.115721495106 -0.105670375743
0.123268778043 -0.0101826124649
0.132533829518 -0.0414450609541
0.14094841003 -0.0183119729471
0.14678008347 -0.145442741777
0.150662403576 -0.0970098960195
0.156797566672 -0.0925945614959
0.161737577414 -0.134244651435
0.167279855945 -0.0256729457321
0.174674249464 -0.0368470935669
0.187566786576 -0.118934586512
0.196866606316 -0.134027700858
0.203362227844 -0.134491337031
0.210396658665 -0.0735011318853
0.217636248411 -0.0927343440266
0.221388244101 -0.0579395553588
0.237061879037 -0.110826429277
0.246395687031 -0.0438522655533
0.261534229054 -0.170685418584
0.268048322572 -0.0919878458099
0.277154193121 -0.122293968707
0.286244568139 -0.053013470725
0.302417269988 -0.136066495588
0.312920653793 -0.0950367602262
0.322124790063 -0.11389867908
0.335893818262 -0.209950160982
0.348970754208 -0.164057334624
0.366030346394 -0.171393142784
0.373960079763 -0.195041249516
0.388575052349 -0.227437909213
0.4009001326 -0.196857381631
0.409651275391 -0.20238352136
0.420865369138 -0.215759488967
0.434697086241 -0.208833921896
0.442001430339 -0.209155405016
#3
-0.468325045052 0.139203742092
-0.463938846249 0.157406991432
-0.452988882054 0.157532619855
-0.444334620306 0.139812281136
-0.426479367152 0.145916924014
-0.416460209564 0.119942092121
-0.409303681293 0.0314432109863
-0.396271189414 0.0791676293077
-0.37846357013 0.0554009001553
-0.371297949454 0.137272095382
-0.35800124848 0.11508735427
-0.343631081063 0.0128949069254
-0.336358320227 0.0980682948252
-0.321332039599 0.114925526282
-0.310836780273 0.113838492159
-0.301846977042 0.0501094165872
-0.295762107636 0.121616370549
-0.276104691353 0.126090416816
-0.269069302074 0.215521106076
-0.260780689908 0.135828995658
-0.252168584739 0.229586623481
-0.24053973764 0.0354923296531
-0.234405020347 0.0768190465091
-0.222411597892 0.198535243089
-0.214007475724 0.10422040103
-0.207046092651 0.126404160257
-0.193787052027 0.0376535262158
-0.184970048452 0.147463251182
-0.176557403265 -0.00229039026583
-0.16825028796 0.0664075882031
-0.159874703082 0.167432801539
-0.146749779672 0.156876884447
-0.135950704974 0.127678050859
-0.128153918292 0.128222174987
-0.122642468434 0.0431150955731
-0.121256823321 0.12545459634
-0.10290522117 0.143437415761
-0.0987397436809 0.205519493699
-0.0859994339528 0.0563672045376
-0.0834833301404 0.021643582203
-0.0782617297155 0.199976898322
-0.0651156521591 0.0209397274823
-0.0597590255393 -0.00104093632843
-0.0523165123697 0.169037257229
-0.0446575522002 0.0801858208478
-0.0369674325621 0.104194567974
-0.0328983400241 0.0618550805582
-0.0217361542978 0.0853831287146
-0.0145230634101 -0.0625912497597
-0.00604970596268 0.0803212722559
0.00528958784752 0.0282286091991
0.0128224666844 -0.0227931322211
0.022189441401 0.0117832481949
0.0283582621942 0.0496562742559
0.0390631297533 0.00557965055251
0.0453480091983 -0.0157446877668
0.053379718093 -0.00163264456998
0.0591431828031 0.0288651965575
0.0670379447775 0.00511895022187
0.0733773477002 -0.0150694553486
0.08184869533 -0.0659990556692
0.0881417961976 0.011769710098
0.0950668810592 -0.0857126579611
0.101928652292 -0.00523822756575
0.111668570663 -0.0368824395619
0.115572168695 -0.108019012987
0.123114744317 -0.00680112063577
0.132370526844 -0.0433434410051
0.140984358073 -0.0153516937422
0.147070351564 -0.145478749939
0.151006164515 -0.0935131746984
0.157292278197 -0.0903282303088
0.162257497867 -0.132269727537
0.167761754268 -0.0227537702103
0.175114348289 -0.0350431930187
0.187902947726 -0.117204736404
0.197429101632 -0.130949870177
0.203946761941 -0.134539388316
0.210891297146 -0.0703254040619
0.218222866897 -0.0912583395584
0.221858318572 -0.0550772554137
0.237598338491 -0.110444528954
0.246991805247 -0.0436202400343
0.262107564303 -0.169248068762
0.268748098217 -0.0948489880856
0.277805380083 -0.119575896746
0.286911510234 -0.0505212266434
0.303110420944 -0.13549141064
0.313663307337 -0.0966727429686
0.322866128784 -0.114992667518
0.336682423448 -0.211271690313
0.349621799218 -0.165800142541
0.366465578247 -0.174619205546
0.374461941746 -0.196238571536
0.388917287769 -0.230626030237
0.401272365905 -0.197877176493
0.409998336477 -0.203814562931
0.421179402647 -0.217276834412
0.434877793737 -0.209512872315
0.442107097082 -0.209699954225
#4
-0.465586367825 0.134514023977
-0.461593008366 0.152940993557
-0.450820740425 0.153875803707
-0.442529481138 0.135120213372
-0.424805587555 0.143102359606
-0.415082514947 0.114540639898
-0.407799169663 0.0285585586623
-0.394601328505 0.0726718563294
-0.37692753721 0.0545601820908
-0.369780976979 0.13669020007
-0.356798877202 0.113833938396
-0.342992567743 0.0151840390773
-0.335777695908 0.0959415814303
-0.321053443626 0.110263130087
-0.31039046128 0.115637343376
-0.301354260134 0.0456637631168
-0.29509994676 0.114950701404
-0.275727177635 0.126705253659
-0.269203412821 0.217839340202
-0.261125086084 0.132132985512
-0.252438140353 0.223159507833
-0.241277106484 0.0391574161501
-0.234919496275 0.074297435424
-0.223065064177 0.201609331781
-0.214510356661 0.101827428785
-0.207290881453 0.128460752531
-0.194129392346 0.0362684024824
-0.184834771691 0.152048672257
-0.176621543458 -0.00374252442213
-0.168043818876 0.0648099618499
-0.159897329843 0.170477395893
-0.146750140169 0.154946235618
-0.136069320012 0.130164315079
-0.128632013858 0.132855852536
-0.123371208839 0.0465936881533
-0.121923533255 0.125252830473
-0.103206555007 0.145078461173
-0.0990647670733 0.204229453865
-0.0868257958793 0.0532894471703
-0.0844311049402 0.0233574550977
-0.0793113926609 0.19762475481
-0.0665569192764 0.0215207508213
-0.060813844565 -0.00459243644497
-0.0538809135529 0.169252106587
-0.0462610291051 0.078784752471
-0.0386839415423 0.105654259689
-0.0346888464121 0.064070896859
-0.0235748535729 0.0843522851843
-0.0158995258783 -0.0653692620168
-0.00753675181956 0.0796778562534
0.00404167103955 0.0286439390452
0.0113273652156 -0.0237509697896
0.0204985426448 0.0123061661163
0.0272471734295 0.0488092931978
0.0376022594437 0.00991508381186
0.044217322062 -0.0175008744108
0.0520825197775 -0.00340846067159
0.0577519357879 0.0284586443337
0.0654296320171 0.00648944191151
0.071932425283 -0.0130880483258
0.080597658007 -0.0628614472348
0.087018810166 0.0159503898797
0.0942047472605 -0.0844661365569
0.101355511914 -0.00461239033744
0.111418695762 -0.03626452564
0.115497825559 -0.112803413323
0.123100871208 -0.00760368197567
0.132168069444 -0.0386727129098
0.140645400365 -0.0132439072644
0.14662069926 -0.150981515479
0.150610103994 -0.0950290488714
0.156811253602 -0.0865776924123
0.161924621531 -0.133862064507
0.167810814052 -0.0212768605491
0.175281846175 -0.0361262913597
0.187630927656 -0.115571270438
0.197066321601 -0.129105964703
0.203710048028 -0.137366595654
0.210577637569 -0.0711293483359
0.218030551899 -0.0910560786336
0.221832991382 -0.0558682512452
0.237893227553 -0.108470103887
0.247393637159 -0.0399180258543
0.262511672783 -0.164093199582
0.269379824172 -0.0962790852354
0.278651562635 -0.116251532793
0.287694161144 -0.0526071503534
0.304211762713 -0.131572579606
0.314576893161 -0.0988237385041
0.324002266908 -0.111983991667
0.337715877893 -0.215167260651
0.350553922259 -0.164716564331
0.367148629888 -0.178059676369
0.374782197074 -0.195575060517
0.389063816124 -0.234187000668
0.401103143257 -0.196634220308
0.41025402884 -0.204880870277
0.421810337151 -0.218561284596
0.435428193857 -0.208904369083
0.442901029459 -0.209699584454
#5
-0.469715036411 0.132896922907
-0.462618978073 0.147472255329
-0.445881905354 0.145072166071
-0.438123105072 0.128581876692
-0.418779211559 0.134259554469
-0.410419532415 0.117061694783
-0.404162005583 0.0507321659285
-0.393058613798 0.100703550216
-0.375287039609 0.0689085863571
-0.365131226684 0.151486719394
-0.350557080603 0.125195076422
-0.339694476926 0.0331474554974
-0.333425055174 0.114174307804
-0.320450122125 0.149630756237
-0.308145897631 0.105215032742
-0.300270889438 0.047787488381
-0.29485993255 0.118107174677
-0.278012835587 0.135899185328
-0.272905785362 0.239052220927
-0.266361326397 0.158603026532
-0.254940326554 0.204962169337
-0.246359260113 0.0503345563861
-0.240676220959 0.0780454256143
-0.230361729851 0.215834232657
-0.219982380378 0.10487252351
-0.213603017307 0.123192269371
-0.203362483367 0.0457800347392
-0.195459922525 0.172390900919
-0.184999705012 0.0147088020829
-0.177773905799 0.0753353021018
-0.167554772867 0.174599826246
-0.153538985231 0.158782916867
-0.145324125527 0.137971104608
-0.135282172185 0.124522554683
-0.131148872687 0.0470483474903
-0.129978637084 0.126854853608
-0.104376703844 0.127494537315
-0.101086646204 0.191242453587
-0.0905763256856 0.0562882460151
-0.0847511046669 0.0123401298202
-0.0801236009889 0.178982868172
-0.069464187215 0.0377505272556
-0.0609605953148 -0.0137946601257
-0.054869046884 0.149387071812
-0.0484958975786 0.0864029685158
-0.0386884846637 0.0891247603659
-0.035102182628 0.0500630104005
-0.0191533064904 0.0761527158259
-0.0127875374286 -0.0674471614507
-0.00601484787552 0.0730946386871
0.00417756027289 0.0301706026419
0.0142968848307 -0.0419106457147
0.0220009509021 0.00480013240152
0.0281826772336 0.0431075959188
0.03740166883 0.00578132624578
0.0428601441106 -0.0142399423149
0.0528233705865 -0.00962230904927
0.0577996418962 0.0107740041548
0.0639495606767 0.00416485288886
0.0696073816267 -0.0156872527838
0.0804915046959 -0.0681078707096
0.0900023118704 0.0147530905656
0.0964544353755 -0.0617822084996
0.106734384416 -0.0298772264561
0.115393056904 -0.0485030461673
0.118671903898 -0.114334735404
0.125252831368 -0.0179697467587
0.132744839022 -0.0176583211793
0.143528382525 -0.0225533535528
0.148620272998 -0.152984848685
0.152215178471 -0.0996582664863
0.157271065974 -0.0830239756419
0.165435755693 -0.146895709958
0.170169649259 -0.0294552168901
0.176995954993 -0.0167573444245
0.191128136041 -0.117823229993
0.202980888368 -0.143006455854
0.208643629166 -0.157390319933
0.21781591447 -0.074958246418
0.224028201858 -0.0952839916118
0.227276801658 -0.0434525850522
0.244670260394 -0.116067135171
0.253177502473 -0.0591715039668
0.26607345051 -0.158137870746
0.272294551469 -0.102970618879
0.280182948962 -0.0924467139979
0.291103133617 -0.0616251442792
0.30673036182 -0.137676281855
0.315782728972 -0.0784757178584
0.323691783376 -0.0821828074565
0.338428746254 -0.21620089718
0.350528483002 -0.174493961392
0.364798958633 -0.139668865387
0.371526069734 -0.159136203902
0.388395333462 -0.244846333464
0.399375633906 -0.204824144236
0.407667188927 -0.211803537661
0.417567713692 -0.18342079433
0.429917544302 -0.172073356058
0.440034667324 -0.226554480195
#6
-0.469715036411 0.132896922907
-0.462618978073 0.147472255329
-0.445881905354 0.145072166071
-0.438123105072 0.128581876692
-0.418779211559 0.134259554469
-0.410419532415 0.117061694783
-0.404162005583 0.0507321659285
-0.393058613798 0.100703550216
-0.375287039609 0.0689085863571
-0.365131226684 0.151486719394
-0.350557080603 0.125195076422
-0.339694476926 0.0331474554974
-0.333425055174 0.114174307804
-0.320450122125 0.149630756237
-0.308145897631 0.105215032742
-0.300270889438 0.047787488381
-0.29485993255 0.118107174677
-0.278012835587 0.135899185328
-0.272905785362 0.239052220927
-0.266361326397 0.158603026532
-0.254940326554 0.204962169337
-0.246359260113 0.0503345563861
-0.240676220959 0.0780454256143
-0.230361729851 0.215834232657
-0.219982380378 0.10487252351
-0.213603017307 0.123192269371
-0.203362483367 0.0457800347392
-0.195459922525 0.172390900919
-0.184999705012 0.0147088020829
-0.177773905799 0.0753353021018
-0.167554772867 0.174599826246
-0.153538985231 0.158782916867
-0.145324125527 0.137971104608
-0.135282172185 0.124522554683
-0.131148872687 0.0470483474903
-0.129978637084 0.126854853608
-0.104376703844 0.127494537315
-0.101086646204 0.191242453587
-0.0905763256856 0.0562882460151
-0.0847511046669 0.0123401298202
-0.0801236009889 0.178982868172
-0.069464187215 0.0377505272556
-0.0609605953148 -0.0137946601257
-0.054869046884 0.149387071812
-0.0484958975786 0.0864029685158
-0.0386884846637 0.0891247603659
-0.035102182628 0.0500630104005
-0.0191533064904 0.0761527158259
-0.0127875374286 -0.0674471614507
-0.00601484787552 0.0730946386871
0.00417756027289 0.0301706026419
0.0142968848307 -0.0419106457147
0.0220009509021 0.00480013240152
0.0281826772336 0.0431075959188
0.03740166883 0.00578132624578
0.0428601441106 -0.0142399423149
0.0528233705865 -0.00962230904927
0.0577996418962 0.0107740041548
0.0639495606767 0.00416485288886
0.0696073816267 -0.0156872527838
0.0804915046959 -0.0681078707096
0.0900023118704 0.0147530905656
0.0964544353755 -0.0617822084996
0.106734384416 -0.0298772264561
0.115393056904 -0.0485030461673
0.118671903898 -0.114334735404
0.125252831368 -0.0179697467587
0.132744839022 -0.0176583211793
0.143528382525 -0.0225533535528
0.148620272998 -0.152984848685
0.152215178471 -0.0996582664863
0.157271065974 -0.0830239756419
0.165435755693 -0.146895709958
0.170169649259 -0.0294552168901
0.176995954993 -0.0167573444245
0.191128136041 -0.117823229993
0.202980888368 -0.143006455854
0.208643629166 -0.157390319933
0.21781591447 -0.074958246418
0.224028201858 -0.0952839916118
0.227276801658 -0.0434525850522
0.244670260394 -0.116067135171
0.253177502473 -0.0591715039668
0.26607345051 -0.158137870746
0.272294551469 -0.102970618879
0.280182948962 -0.0924467139979
0.291103133617 -0.0616251442792
0.30673036182 -0.137676281855
0.315782728972 -0.0784757178584
0.323691783376 -0.0821828074565
0.338428746254 -0.21620089718
0.350528483002 -0.174493961392
0.364798958633 -0.139668865387
0.371526069734 -0.159136203902
0.388395333462 -0.244846333464
0.399375633906 -0.204824144236
0.407667188927 -0.211803537661
0.417567713692 -0.18342079433
0.429917544302 -0.172073356058
0.440034667324 -0.226554480195
#7
-0.47236501616 0.146305199039
-0.465627759655 0.16175190251
-0.448596337738 0.143293179364
-0.442300936734 0.14597306374
-0.424936677842 0.149645701769
-0.416999693673 0.11578523615
-0.412129656418 0.0691235833039
-0.400447056581 0.0946375048421
-0.384645162968 0.0890245831696
-0.375002863903 0.163735820006
-0.363307811978 0.162300142017
-0.348640564552 0.0285356951158
-0.343759233827 0.108072855182
-0.330299724478 0.182624896478
-0.318617645138 0.119535735081
-0.307858016656 0.0638664229012
-0.303791743772 0.109711242752
-0.291009756275 0.146438739356
-0.286160936592 0.215927284318
-0.275593493192 0.129384695438
-0.264749979538 0.17132856071
-0.252248906749 0.00546410556782
-0.247924309041 0.107214900122
-0.238131355122 0.192165323482
-0.223922926857 0.079260352918
-0.218937213835 0.14838542785
-0.204860582099 0.0525182780644
-0.197357602712 0.147129489015
-0.184143482247 0.0093114090434
-0.177283045025 0.0599886867177
-0.167580627635 0.150384137868
-0.154273527845 0.119126240717
-0.142120145084 0.0839665077109
-0.133657035322 0.111879057748
-0.125378834631 0.0293428692882
-0.124267770284 0.0763973093822
-0.101031448298 0.145159913682
-0.0935538521718 0.135567653999
-0.0846460575362 0.0621538249182
-0.0747614848672 -0.0245540566405
-0.0703679641589 0.126912932291
-0.0569647195014 0.039070755694
-0.0499621861802 -0.0432633984602
-0.0452497348708 0.123412404915
-0.0359160259745 0.0561443028864
-0.0266045105801 0.0557434956405
-0.0242706315381 0.033252909983
-0.00912818704557 0.0590712373455
-0.00415538067115 -0.0714073751843
0.0066287531687 0.0440205819935
0.0141636233438 0.00963897637708
0.0216291052935 -0.0325052563566
0.0278725396425 0.0135371912013
0.0380955914535 0.0215197416046
0.0436351775985 -0.0044281355746
0.048817653043 -0.0159927844109
0.0572060166478 -0.0105608252172
0.0662845655109 -0.0110065103345
0.0710524357585 -0.00545118165435
0.0764241772495 -0.0262122359329
0.0856868736554 -0.0555747203435
0.0936456938804 0.0420178298357
0.104125470627 -0.0615820821432
0.111743455316 -0.0255640117097
0.117822140936 -0.0335985461056
0.120935197817 -0.0950537422406
0.125041196564 -0.00181892785441
0.13108329492 0.0189087369137
0.144604392868 -0.0300630942363
0.148367732465 -0.136610954654
0.15178086679 -0.0620884302796
0.160935006169 -0.0893036686271
0.167615773404 -0.148252290152
0.17211030455 -0.0430731944222
0.181874256681 -0.0102809954829
0.19529186462 -0.122477378759
0.204403126094 -0.135689943818
0.208708451803 -0.128938947327
0.221770849336 -0.0642476099102
0.226597934614 -0.118500389883
0.228611186841 -0.0422176790126
0.241911910125 -0.122722819665
0.248917909059 -0.0283029047529
0.265515687754 -0.18105152522
0.270351140958 -0.126066412638
0.275698499414 -0.0858835449583
0.286066520869 -0.0767599258284
0.298761407354 -0.120906510884
0.310638863357 -0.0916010601368
0.317076921103 -0.0949866768713
0.334351539545 -0.182863112211
0.344768383898 -0.162624778423
0.358317293756 -0.104754459069
0.363633171437 -0.0968355227285
0.376505752856 -0.218552217131
0.386930850434 -0.157124212191
0.394803155077 -0.161789112432
0.40748588284 -0.165398346331
0.41921126229 -0.154490645426
0.432099636335 -0.196348303518
#8
-0.47236501616 0.146305199039
-0.465627759655 0.16175190251
-0.448596337738 0.143293179364
-0.442300936734 0.14597306374
-0.424936677842 0.149645701769
-0.416999693673 0.11578523615
-0.412129656418 0.0691235833039
-0.400447056581 0.0946375048421
-0.384645162968 0.0890245831696
-0.375002863903 0.163735820006
-0.363307811978 0.162300142017
-0.348640564552 0.0285356951158
-0.343759233827 0.108072855182
-0.330299724478 0.182624896478
-0.318617645138 0.119535735081
-0.307858016656 0.0638664229012
-0.303791743772 0.109711242752
-0.291009756275 0.146438739356
-0.286160936592 0.215927284318
-0.275593493192 0.129384695438
-0.264749979538 0.17132856071
-0.252248906749 0.00546410556782
-0.247924309041 0.107214900122
-0.238131355122 0.192165323482
-0.223922926857 0.079260352918
-0.218937213835 0.14838542785
-0.204860582099 0.0525182780644
-0.197357602712 0.147129489015
-0.184143482247 0.0093114090434
-0.177283045025 0.0599886867177
-0.167580627635 0.150384137868
-0.154273527845 0.119126240717
-0.142120145084 0.0839665077109
-0.133657035322 0.111879057748
-0.125378834631 0.0293428692882
-0.124267770284 0.0763973093822
-0.101031448298 0.145159913682
-0.0935538521718 0.135567653999
-0.0846460575362 0.0621538249182
-0.0747614848672 -0.0245540566405
-0.0703679641589 0.126912932291
-0.0569647195014 0.039070755694
-0.0499621861802 -0.0432633984602
-0.0452497348708 0.123412404915
-0.0359160259745 0.0561443028864
-0.0266045105801 0.0557434956405
-0.0242706315381 0.033252909983
-0.00912818704557 0.0590712373455
-0.00415538067115 -0.0714073751843
0.0066287531687 0.0440205819935
0.0141636233438 0.00963897637708
0.0216291052935 -0.0325052563566
0.0278725396425 0.0135371912013
0.0380955914535 0.0215197416046
0.0436351775985 -0.0044281355746
0.048817653043 -0.0159927844109
0.0572060166478 -0.0105608252172
0.0662845655109 -0.0110065103345
0.0710524357585 -0.00545118165435
0.0764241772495 -0.0262122359329
0.0856868736554 -0.0555747203435
0.0936456938804 0.0420178298357
0.104125470627 -0.0615820821432
0.111743455316 -0.0255640117097
0.117822140936 -0.0335985461056
0.120935197817 -0.0950537422406
0.125041196564 -0.00181892785441
0.13108329492 0.0189087369137
0.144604392868 -0.0300630942363
0.148367732465 -0.136610954654
0.15178086679 -0.0620884302796
0.160935006169 -0.0893036686271
0.167615773404 -0.148252290152
0.17211030455 -0.0430731944222
0.181874256681 -0.0102809954829
0.19529186462 -0.122477378759
0.204403126094 -0.135689943818
0.208708451803 -0.128938947327
0.221770849336 -0.0642476099102
0.226597934614 -0.118500389883
0.228611186841 -0.0422176790126
0.241911910125 -0.122722819665
0.248917909059 -0.0283029047529
0.265515687754 -0.18105152522
0.270351140958 -0.126066412638
0.275698499414 -0.0858835449583
0.286066520869 -0.0767599258284
0.298761407354 -0.120906510884
0.310638863357 -0.0916010601368
0.317076921103 -0.0949866768713
0.334351539545 -0.182863112211
0.344768383898 -0.162624778423
0.358317293756 -0.104754459069
0.363633171437 -0.0968355227285
0.376505752856 -0.218552217131
0.386930850434 -0.157124212191
0.394803155077 -0.161789112432
0.40748588284 -0.165398346331
0.41921126229 -0.154490645426
0.432099636335 -0.196348303518
#9
-0.47236501616 0.146305199039
-0.465627759655 0.16175190251
-0.448596337738 0.143293179364
-0.442300936734 0.14597306374
-0.424936677842 0.149645701769
-0.416999693673 0.11578523615
-0.412129656418 0.0691235833039
-0.400447056581 0.0946375048421
-0.384645162968 0.0890245831696
-0.375002863903 0.163735820006
-0.363307811978 0.162300142017
-0.348640564552 0.0285356951158
-0.343759233827 0.108072855182
-0.330299724478 0.182624896478
-0.318617645138 0.119535735081
-0.307858016656 0.0638664229012
-0.303791743772 0.109711242752
-0.291009756275 0.146438739356
-0.286160936592 0.215927284318
-0.275593493192 0.129384695438
-0.264749979538 0.17132856071
-0.252248906749 0.00546410556782
-0.247924309041 0.107214900122
-0.238131355122 0.192165323482
-0.223922926857 0.079260352918
-0.218937213835 0.14838542785
-0.204860582099 0.0525182780644
-0.197357602712 0.147129489015
-0.184143482247 0.0093114090434
-0.177283045025 0.0599886867177
-0.167580627635 0.150384137868
-0.154273527845 0.119126240717
-0.142120145084 0.0839665077109
-0.133657035322 0.111879057748
-0.125378834631 0.0293428692882
-0.124267770284 0.0763973093822
-0.101031448298 0.145159913682
-0.0935538521718 0.135567653999
-0.0846460575362 0.0621538249182
-0.0747614848672 -0.0245540566405
-0.0703679641589 0.126912932291
-0.0569647195014 0.039070755694
-0.0499621861802 -0.0432633984602
-0.0452497348708 0.123412404915
-0.0359160259745 0.0561443028864
-0.0266045105801 0.0557434956405
-0.0242706315381 0.033252909983
-0.00912818704557 0.0590712373455
-0.00415538067115 -0.0714073751843
0.0066287531687 0.0440205819935
0.0141636233438 0.00963897637708
0.0216291052935 -0.0325052563566
0.0278725396425 0.0135371912013
0.0380955914535 0.0215197416046
0.0436351775985 -0.0044281355746
0.048817653043 -0.0159927844109
0.0572060166478 -0.0105608252172
0.0662845655109 -0.0110065103345
0.0710524357585 -0.00545118165435
0.0764241772495 -0.0262122359329
0.0856868736554 -0.0555747203435
0.0936456938804 0.0420178298357
0.104125470627 -0.0615820821432
0.111743455316 -0.0255640117097
0.117822140936 -0.0335985461056
0.120935197817 -0.0950537422406
0.125041196564 -0.00181892785441
0.13108329492 0.0189087369137
0.144604392868 -0.0300630942363
0.148367732465 -0.136610954654
0.15178086679 -0.0620884302796
0.160935006169 -0.0893036686271
0.167615773404 -0.148252290152
0.17211030455 -0.0430731944222
0.181874256681 -0.0102809954829
0.19529186462 -0.122477378759
0.204403126094 -0.135689943818
0.208708451803 -0.128938947327
0.221770849336 -0.0642476099102
0.226597934614 -0.118500389883
0.228611186841 -0.0422176790126
0.241911910125 -0.122722819665
0.248917909059 -0.0283029047529
0.265515687754 -0.18105152522
0.270351140958 -0.126066412638
0.275698499414 -0.0858835449583
0.286066520869 -0.0767599258284
0.298761407354 -0.120906510884
0.310638863357 -0.0916010601368
0.317076921103 -0.0949866768713
0.334351539545 -0.182863112211
0.344768383898 -0.162624778423
0.358317293756 -0.104754459069
0.363633171437 -0.0968355227285
0.376505752856 -0.218552217131
0.386930850434 -0.157124212191
0.394803155077 -0.161789112432
0.40748588284 -0.165398346331
0.41921126229 -0.154490645426
0.432099636335 -0.196348303518
#10
-0.47236501616 0.146305199039
-0.465627759655 0.16175190251
-0.448596337738 0.143293179364
-0.442300936734 0.14597306374
-0.424936677842 0.149645701769
-0.416999693673 0.11578523615
-0.412129656418 0.0691235833039
-0.400447056581 0.0946375048421
-0.384645162968 0.0890245831696
-0.375002863903 0.163735820006
-0.363307811978 0.162300142017
-0.348640564552 0.0285356951158
-0.343759233827 0.108072855182
-0.330299724478 0.182624896478
-0.318617645138 0.119535735081
-0.307858016656 0.0638664229012
-0.303791743772 0.109711242752
-0.291009756275 0.146438739356
-0.286160936592 0.215927284318
-0.275593493192 0.129384695438
-0.264749979538 0.17132856071
-0.252248906749 0.00546410556782
-0.247924309041 0.107214900122
-0.238131355122 0.192165323482
-0.223922926857 0.079260352918
-0.218937213835 0.14838542785
-0.204860582099 0.0525182780644
-0.197357602712 0.147129489015
-0.184143482247 0.0093114090434
-0.177283045025 0.0599886867177
-0.167580627635 0.150384137868
-0.154273527845 0.119126240717
-0.142120145084 0.0839665077109
-0.133657035322 0.111879057748
-0.125378834631 0.0293428692882
-0.124267770284 0.0763973093822
-0.101031448298 0.145159913682
-0.0935538521718 0.135567653999
-0.0846460575362 0.0621538249182
-0.0747614848672 -0.0245540566405
-0.0703679641589 0.126912932291
-0.0569647195014 0.039070755694
-0.0499621861802 -0.0432633984602
-0.0452497348708 0.123412404915
-0.0359160259745 0.0561443028864
-0.0266045105801 0.0557434956405
-0.0242706315381 0.033252909983
-0.00912818704557 0.0590712373455
-0.00415538067115 -0.0714073751843
0.0066287531687 0.0440205819935
0.0141636233438 0.00963897637708
0.0216291052935 -0.0325052563566
0.0278725396425 0.0135371912013
0.0380955914535 0.0215197416046
0.0436351775985 -0.0044281355746
0.048817653043 -0.0159927844109
0.0572060166478 -0.0105608252172
0.0662845655109 -0.0110065103345
0.0710524357585 -0.00545118165435
0.0764241772495 -0.0262122359329
0.0856868736554 -0.0555747203435
0.0936456938804 0.0420178298357
0.104125470627 -0.0615820821432
0.111743455316 -0.0255640117097
0.117822140936 -0.0335985461056
0.120935197817 -0.0950537422406
0.125041196564 -0.00181892785441
0.13108329492 0.0189087369137
0.144604392868 -0.0300630942363
0.148367732465 -0.136610954654
0.15178086679 -0.0620884302796
0.160935006169 -0.0893036686271
0.167615773404 -0.148252290152
0.17211030455 -0.0430731944222
0.181874256681 -0.0102809954829
0.19529186462 -0.122477378759
0.204403126094 -0.135689943818
0.208708451803 -0.128938947327
0.221770849336 -0.0642476099102
0.226597934614 -0.118500389883
0.228611186841 -0.0422176790126
0.241911910125 -0.122722819665
0.248917909059 -0.0283029047529
0.265515687754 -0.18105152522
0.270351140958 -0.126066412638
0.275698499414 -0.0858835449583
0.286066520869 -0.0767599258284
0.298761407354 -0.120906510884
0.310638863357 -0.0916010601368
0.317076921103 -0.0949866768713
0.334351539545 -0.182863112211
0.344768383898 -0.162624778423
0.358317293756 -0.104754459069
0.363633171437 -0.0968355227285
0.376505752856 -0.218552217131
0.386930850434 -0.157124212191
0.394803155077 -0.161789112432
0.40748588284 -0.165398346331
0.41921126229 -0.154490645426
0.432099636335 -0.196348303518
#11
-0.47236501616 0.146305199039
-0.465627759655 0.16175190251
-0.448596337738 0.143293179364
-0.442300936734 0.14597306374
-0.424936677842 0.149645701769
-0.416999693673 0.11578523615
-0.412129656418 0.0691235833039
-0.400447056581 0.0946375048421
-0.384645162968 0.0890245831696
-0.375002863903 0.163735820006
-0.363307811978 0.162300142017
-0.348640564552 0.0285356951158
-0.343759233827 0.108072855182
-0.330299724478 0.182624896478
-0.318617645138 0.119535735081
-0.307858016656 0.0638664229012
-0.303791743772 0.109711242752
-0.291009756275 0.146438739356
-0.286160936592 0.215927284318
-0.275593493192 0.129384695438
-0.264749979538 0.17132856071
-0.252248906749 0.00546410556782
-0.247924309041 0.107214900122
-0.238131355122 0.192165323482
-0.223922926857 0.079260352918
-0.218937213835 0.14838542785
-0.204860582099 0.0525182780644
-0.197357602712 0.147129489015
-0.184143482247 0.0093114090434
-0.177283045025 0.0599886867177
-0.167580627635 0.150384137868
-0.154273527845 0.119126240717
-0.142120145084 0.0839665077109
-0.133657035322 0.111879057748
-0.125378834631 0.0293428692882
-0.124267770284 0.0763973093822
-0.101031448298 0.145159913682
-0.0935538521718 0.135567653999
-0.0846460575362 0.0621538249182
-0.0747614848672 -0.0245540566405
-0.0703679641589 0.126912932291
-0.0569647195014 0.039070755694
-0.0499621861802 -0.0432633984602
-0.0452497348708 0.123412404915
-0.0359160259745 0.0561443028864
-0.0266045105801 0.0557434956405
-0.0242706315381 0.033252909983
-0.00912818704557 0.0590712373455
-0.00415538067115 -0.0714073751843
0.0066287531687 0.0440205819935
0.0141636233438 0.00963897637708
0.0216291052935 -0.0325052563566
0.0278725396425 0.0135371912013
0.0380955914535 0.0215197416046
0.0436351775985 -0.0044281355746
0.048817653043 -0.0159927844109
0.0572060166478 -0.0105608252172
0.0662845655109 -0.0110065103345
0.0710524357585 -0.00545118165435
0.0764241772495 -0.0262122359329
0.0856868736554 -0.0555747203435
0.0936456938804 0.0420178298357
0.104125470627 -0.0615820821432
0.111743455316 -0.0255640117097
0.117822140936 -0.0335985461056
0.120935197817 -0.0950537422406
0.125041196564 -0.00181892785441
0.13108329492 0.0189087369137
0.144604392868 -0.0300630942363
0.148367732465 -0.136610954654
0.15178086679 -0.0620884302796
0.160935006169 -0.0893036686271
0.167615773404 -0.148252290152
0.17211030455 -0.0430731944222
0.181874256681 -0.0102809954829
0.19529186462 -0.122477378759
0.204403126094 -0.135689943818
0.208708451803 -0.128938947327
0.221770849336 -0.0642476099102
0.226597934614 -0.118500389883
0.228611186841 -0.0422176790126
0.241911910125 -0.122722819665
0.248917909059 -0.0283029047529
0.265515687754 -0.18105152522
0.270351140958 -0.126066412638
0.275698499414 -0.0858835449583
0.286066520869 -0.0767599258284
0.298761407354 -0.120906510884
0.310638863357 -0.0916010601368
0.317076921103 -0.0949866768713
0.334351539545 -0.182863112211
0.344768383898 -0.162624778423
0.358317293756 -0.104754459069
0.363633171437 -0.0968355227285
0.376505752856 -0.218552217131
0.386930850434 -0.157124212191
0.394803155077 -0.161789112432
0.40748588284 -0.165398346331
0.41921126229 -0.154490645426
0.432099636335 -0.196348303518
#12
-0.47236501616 0.146305199039
-0.465627759655 0.16175190251
-0.448596337738 0.143293179364
-0.442300936734 0.14597306374
-0.424936677842 0.149645701769
-0.416999693673 0.11578523615
-0.412129656418 0.0691235833039
-0.400447056581 0.0946375048421
-0.384645162968 0.0890245831696
-0.375002863903 0.163735820006
-0.363307811978 0.162300142017
-0.348640564552 0.0285356951158
-0.343759233827 0.108072855182
-0.330299724478 0.182624896478
-0.318617645138 0.119535735081
-0.307858016656 0.0638664229012
-0.303791743772 0.109711242752
-0.291009756275 0.146438739356
-0.286160936592 0.215927284318
-0.275593493192 0.129384695438
-0.264749979538 0.17132856071
-0.252248906749 0.00546410556782
-0.247924309041 0.107214900122
-0.238131355122 0.192165323482
-0.223922926857 0.079260352918
-0.218937213835 0.14838542785
-0.204860582099 0.0525182780644
-0.197357602712 0.147129489015
-0.184143482247 0.0093114090434
-0.177283045025 0.0599886867177
-0.167580627635 0.150384137868
-0.154273527845 0.119126240717
-0.142120145084 0.0839665077109
-0.133657035322 0.111879057748
-0.125378834631 0.0293428692882
-0.124267770284 0.0763973093822
-0.101031448298 0.145159913682
-0.0935538521718 0.135567653999
-0.0846460575362 0.0621538249182
-0.0747614848672 -0.0245540566405
-0.0703679641589 0.126912932291
-0.0569647195014 0.039070755694
-0.0499621861802 -0.0432633984602
-0.0452497348708 0.123412404915
-0.0359160259745 0.0561443028864
-0.0266045105801 0.0557434956405
-0.0242706315381 0.033252909983
-0.00912818704557 0.0590712373455
-0.00415538067115 -0.0714073751843
0.0066287531687 0.0440205819935
0.0141636233438 0.00963897637708
0.0216291052935 -0.0325052563566
0.0278725396425 0.0135371912013
0.0380955914535 0.0215197416046
0.0436351775985 -0.0044281355746
0.048817653043 -0.0159927844109
0.0572060166478 -0.0105608252172
0.0662845655109 -0.0110065103345
0.0710524357585 -0.00545118165435
0.0764241772495 -0.0262122359329
0.0856868736554 -0.0555747203435
0.0936456938804 0.0420178298357
0.104125470627 -0.0615820821432
0.111743455316 -0.0255640117097
0.117822140936 -0.0335985461056
0.120935197817 -0.0950537422406
0.125041196564 -0.00181892785441
0.13108329492 0.0189087369137
0.144604392868 -0.0300630942363
0.148367732465 -0.136610954654
0.15178086679 -0.0620884302796
0.160935006169 -0.0893036686271
0.167615773404 -0.148252290152
0.17211030455 -0.0430731944222
0.181874256681 -0.0102809954829
0.19529186462 -0.122477378759
0.204403126094 -0.135689943818
0.208708451803 -0.128938947327
0.221770849336 -0.0642476099102
0.226597934614 -0.118500389883
0.228611186841 -0.0422176790126
0.241911910125 -0.122722819665
0.248917909059 -0.0283029047529
0.265515687754 -0.18105152522
0.270351140958 -0.126066412638
0.275698499414 -0.0858835449583
0.286066520869 -0.0767599258284
0.298761407354 -0.120906510884
0.310638863357 -0.0916010601368
0.317076921103 -0.0949866768713
0.334351539545 -0.182863112211
0.344768383898 -0.162624778423
0.358317293756 -0.104754459069
0.363633171437 -0.0968355227285
0.376505752856 -0.218552217131
0.386930850434 -0.157124212191
0.394803155077 -0.161789112432
0.40748588284 -0.165398346331
0.41921126229 -0.154490645426
0.432099636335 -0.196348303518
#13
-0.47236501616 0.146305199039
-0.465627759655 0.16175190251
-0.448596337738 0.143293179364
-0.442300936734 0.14597306374
-0.424936677842 0.149645701769
-0.416999693673 0.11578523615
-0.412129656418 0.0691235833039
-0.400447056581 0.0946375048421
-0.384645162968 0.0890245831696
-0.375002863903 0.163735820006
-0.363307811978 0.162300142017
-0.348640564552 0.0285356951158
-0.343759233827 0.108072855182
-0.330299724478 0.182624896478
-0.318617645138 0.119535735081
-0.307858016656 0.0638664229012
-0.303791743772 0.109711242752
-0.291009756275 0.146438739356
-0.286160936592 0.215927284318
-0.275593493192 0.129384695438
-0.264749979538 0.17132856071
-0.252248906749 0.00546410556782
-0.247924309041 0.107214900122
-0.238131355122 0.192165323482
-0.223922926857 0.079260352918
-0.218937213835 0.14838542785
-0.204860582099 0.0525182780644
-0.197357602712 0.147129489015
-0.184143482247 0.0093114090434
-0.177283045025 0.0599886867177
-0.167580627635 0.150384137868
-0.154273527845 0.119126240717
-0.142120145084 0.0839665077109
-0.133657035322 0.111879057748
-0.125378834631 0.0293428692882
-0.124267770284 0.0763973093822
-0.101031448298 0.145159913682
-0.0935538521718 0.135567653999
-0.0846460575362 0.0621538249182
-0.0747614848672 -0.0245540566405
-0.0703679641589 0.126912932291
-0.0569647195014 0.039070755694
-0.0499621861802 -0.0432633984602
-0.0452497348708 0.123412404915
-0.0359160259745 0.0561443028864
-0.0266045105801 0.0557434956405
-0.0242706315381 0.033252909983
-0.00912818704557 0.0590712373455
-0.00415538067115 -0.0714073751843
0.0066287531687 0.0440205819935
0.0141636233438 0.00963897637708
0.0216291052935 -0.0325052563566
0.0278725396425 0.0135371912013
0.0380955914535 0.0215197416046
0.0436351775985 -0.0044281355746
0.048817653043 -0.0159927844109
0.0572060166478 -0.0105608252172
0.0662845655109 -0.0110065103345
0.0710524357585 -0.00545118165435
0.0764241772495 -0.0262122359329
0.0856868736554 -0.0555747203435
0.0936456938804 0.0420178298357
0.104125470627 -0.0615820821432
0.111743455316 -0.0255640117097
0.117822140936 -0.0335985461056
0.120935197817 -0.0950537422406
0.125041196564 -0.00181892785441
0.13108329492 0.0189087369137
0.144604392868 -0.0300630942363
0.148367732465 -0.136610954654
0.15178086679 -0.0620884302796
0.160935006169 -0.0893036686271
0.167615773404 -0.148252290152
0.17211030455 -0.0430731944222
0.181874256681 -0.0102809954829
0.19529186462 -0.122477378759
0.204403126094 -0.135689943818
0.208708451803 -0.128938947327
0.221770849336 -0.0642476099102
0.226597934614 -0.118500389883
0.228611186841 -0.0422176790126
0.241911910125 -0.122722819665
0.248917909059 -0.0283029047529
0.265515687754 -0.18105152522
0.270351140958 -0.126066412638
0.275698499414 -0.0858835449583
0.286066520869 -0.0767599258284
0.298761407354 -0.120906510884
0.310638863357 -0.0916010601368
0.317076921103 -0.0949866768713
0.334351539545 -0.182863112211
0.344768383898 -0.162624778423
0.358317293756 -0.104754459069
0.363633171437 -0.0968355227285
0.376505752856 -0.218552217131
0.386930850434 -0.157124212191
0.394803155077 -0.161789112432
0.40748588284 -0.165398346331
0.41921126229 -0.154490645426
0.432099636335 -0.196348303518
#14
-0.47236501616 0.146305199039
-0.465627759655 0.16175190251
-0.448596337738 0.143293179364
-0.442300936734 0.14597306374
-0.424936677842 0.149645701769
-0.416999693673 0.11578523615
-0.412129656418 0.0691235833039
-0.400447056581 0.0946375048421
-0.384645162968 0.0890245831696
-0.375002863903 0.163735820006
-0.363307811978 0.162300142017
-0.348640564552 0.0285356951158
-0.343759233827 0.108072855182
-0.330299724478 0.182624896478
-0.318617645138 0.119535735081
-0.307858016656 0.0638664229012
-0.303791743772 0.109711242752
-0.291009756275 0.146438739356
-0.286160936592 0.215927284318
-0.275593493192 0.129384695438
-0.264749979538 0.17132856071
-0.252248906749 0.00546410556782
-0.247924309041 0.107214900122
-0.238131355122 0.192165323482
-0.223922926857 0.079260352918
-0.218937213835 0.14838542785
-0.204860582099 0.0525182780644
-0.197357602712 0.147129489015
-0.184143482247 0.0093114090434
-0.177283045025 0.0599886867177
-0.167580627635 0.150384137868
-0.154273527845 0.119126240717
-0.142120145084 0.0839665077109
-0.133657035322 0.111879057748
-0.125378834631 0.0293428692882
-0.124267770284 0.0763973093822
-0.101031448298 0.145159913682
-0.0935538521718 0.135567653999
-0.0846460575362 0.0621538249182
-0.0747614848672 -0.0245540566405
-0.0703679641589 0.126912932291
-0.0569647195014 0.039070755694
-0.0499621861802 -0.0432633984602
-0.0452497348708 0.123412404915
-0.0359160259745 0.0561443028864
-0.0266045105801 0.0557434956405
-0.0242706315381 0.033252909983
-0.00912818704557 0.0590712373455
-0.00415538067115 -0.0714073751843
0.0066287531687 0.0440205819935
0.0141636233438 0.00963897637708
0.0216291052935 -0.0325052563566
0.0278725396425 0.0135371912013
0.0380955914535 0.0215197416046
0.0436351775985 -0.0044281355746
0.048817653043 -0.0159927844109
0.0572060166478 -0.0105608252172
0.0662845655109 -0.0110065103345
0.0710524357585 -0.00545118165435
0.0764241772495 -0.0262122359329
0.0856868736554 -0.0555747203435
0.0936456938804 0.0420178298357
0.104125470627 -0.0615820821432
0.111743455316 -0.0255640117097
0.117822140936 -0.0335985461056
0.120935197817 -0.0950537422406
0.125041196564 -0.00181892785441
0.13108329492 0.0189087369137
0.144604392868 -0.0300630942363
0.148367732465 -0.136610954654
0.15178086679 -0.0620884302796
0.160935006169 -0.0893036686271
0.167615773404 -0.148252290152
0.17211030455 -0.0430731944222
0.181874256681 -0.0102809954829
0.19529186462 -0.122477378759
0.204403126094 -0.135689943818
0.208708451803 -0.128938947327
0.221770849336 -0.0642476099102
0.226597934614 -0.118500389883
0.228611186841 -0.0422176790126
0.241911910125 -0.122722819665
0.248917909059 -0.0283029047529
0.265515687754 -0.18105152522
0.270351140958 -0.126066412638
0.275698499414 -0.0858835449583
0.286066520869 -0.0767599258284
0.298761407354 -0.120906510884
0.310638863357 -0.0916010601368
0.317076921103 -0.0949866768713
0.334351539545 -0.182863112211
0.344768383898 -0.162624778423
0.358317293756 -0.104754459069
0.363633171437 -0.0968355227285
0.376505752856 -0.218552217131
0.386930850434 -0.157124212191
0.394803155077 -0.161789112432
0.40748588284 -0.165398346331
0.41921126229 -0.154490645426
0.432099636335 -0.196348303518
#15
-0.47236501616 0.146305199039
-0.465627759655 0.16175190251
-0.448596337738 0.143293179364
-0.442300936734 0.14597306374
-0.424936677842 0.149645701769
-0.416999693673 0.11578523615
-0.412129656418 0.0691235833039
-0.400447056581 0.0946375048421
-0.384645162968 0.0890245831696
-0.375002863903 0.163735820006
-0.363307811978 0.162300142017
-0.348640564552 0.0285356951158
-0.343759233827 0.108072855182
-0.330299724478 0.182624896478
-0.318617645138 0.119535735081
-0.307858016656 0.0638664229012
-0.303791743772 0.109711242752
-0.291009756275 0.146438739356
-0.286160936592 0.215927284318
-0.275593493192 0.129384695438
-0.264749979538 0.17132856071
-0.252248906749 0.00546410556782
-0.247924309041 0.107214900122
-0.238131355122 0.192165323482
-0.223922926857 0.079260352918
-0.218937213835 0.14838542785
-0.204860582099 0.0525182780644
-0.197357602712 0.147129489015
-0.184143482247 0.0093114090434
-0.177283045025 0.0599886867177
-0.167580627635 0.150384137868
-0.154273527845 0.119126240717
-0.142120145084 0.0839665077109
-0.133657035322 0.111879057748
-0.125378834631 0.0293428692882
-0.124267770284 0.0763973093822
-0.101031448298 0.145159913682
-0.0935538521718 0.135567653999
-0.0846460575362 0.0621538249182
-0.0747614848672 -0.0245540566405
-0.0703679641589 0.126912932291
-0.0569647195014 0.039070755694
-0.0499621861802 -0.0432633984602
-0.0452497348708 0.123412404915
-0.0359160259745 0.0561443028864
-0.0266045105801 0.0557434956405
-0.0242706315381 0.033252909983
-0.00912818704557 0.0590712373455
-0.00415538067115 -0.0714073751843
0.0066287531687 0.0440205819935
0.0141636233438 0.00963897637708
0.0216291052935 -0.0325052563566
0.0278725396425 0.0135371912013
0.0380955914535 0.0215197416046
0.0436351775985 -0.0044281355746
0.048817653043 -0.0159927844109
0.0572060166478 -0.0105608252172
0.0662845655109 -0.0110065103345
0.0710524357585 -0.00545118165435
0.0764241772495 -0.0262122359329
0.0856868736554 -0.0555747203435
0.0936456938804 0.0420178298357
0.104125470627 -0.0615820821432
0.111743455316 -0.0255640117097
0.117822140936 -0.0335985461056
0.120935197817 -0.0950537422406
0.125041196564 -0.00181892785441
0.13108329492 0.0189087369137
0.144604392868 -0.0300630942363
0.148367732465 -0.136610954654
0.15178086679 -0.0620884302796
0.160935006169 -0.0893036686271
0.167615773404 -0.148252290152
0.17211030455 -0.0430731944222
0.181874256681 -0.0102809954829
0.19529186462 -0.122477378759
0.204403126094 -0.135689943818
0.208708451803 -0.128938947327
0.221770849336 -0.0642476099102
0.226597934614 -0.118500389883
0.228611186841 -0.0422176790126
0.241911910125 -0.122722819665
0.248917909059 -0.0283029047529
0.265515687754 -0.18105152522
0.270351140958 -0.126066412638
0.275698499414 -0.0858835449583
0.286066520869 -0.0767599258284
0.298761407354 -0.120906510884
0.310638863357 -0.0916010601368
0.317076921103 -0.0949866768713
0.334351539545 -0.182863112211
0.344768383898 -0.162624778423
0.358317293756 -0.104754459069
0.363633171437 -0.0968355227285
0.376505752856 -0.218552217131
0.386930850434 -0.157124212191
0.394803155077 -0.161789112432
0.40748588284 -0.165398346331
0.41921126229 -0.154490645426
0.432099636335 -0.196348303518
#16
-0.47236501616 0.146305199039
-0.465627759655 0.16175190251
-0.448596337738 0.143293179364
-0.442300936734 0.14597306374
-0.424936677842 0.149645701769
-0.416999693673 0.11578523615
-0.412129656418 0.0691235833039
-0.400447056581 0.0946375048421
-0.384645162968 0.0890245831696
-0.375002863903 0.163735820006
-0.363307811978 0.162300142017
-0.348640564552 0.0285356951158
-0.343759233827 0.108072855182
-0.330299724478 0.182624896478
-0.318617645138 0.119535735081
-0.307858016656 0.0638664229012
-0.303791743772 0.109711242752
-0.291009756275 0.146438739356
-0.286160936592 0.215927284318
-0.275593493192 0.129384695438
-0.264749979538 0.17132856071
-0.252248906749 0.00546410556782
-0.247924309041 0.107214900122
-0.238131355122 0.192165323482
-0.223922926857 0.079260352918
-0.218937213835 0.14838542785
-0.204860582099 0.0525182780644
-0.197357602712 0.147129489015
-0.184143482247 0.0093114090434
-0.177283045025 0.0599886867177
-0.167580627635 0.150384137868
-0.154273527845 0.119126240717
-0.142120145084 0.0839665077109
-0.133657035322 0.111879057748
-0.125378834631 0.0293428692882
-0.124267770284 0.0763973093822
-0.101031448298 0.145159913682
-0.0935538521718 0.135567653999
-0.0846460575362 0.0621538249182
-0.0747614848672 -0.0245540566405
-0.0703679641589 0.126912932291
-0.0569647195014 0.039070755694
-0.0499621861802 -0.0432633984602
-0.0452497348708 0.123412404915
-0.0359160259745 0.0561443028864
-0.0266045105801 0.0557434956405
-0.0242706315381 0.033252909983
-0.00912818704557 0.0590712373455
-0.00415538067115 -0.0714073751843
0.0066287531687 0.0440205819935
0.0141636233438 0.00963897637708
0.0216291052935 -0.0325052563566
0.0278725396425 0.0135371912013
0.0380955914535 0.0215197416046
0.0436351775985 -0.0044281355746
0.048817653043 -0.0159927844109
0.0572060166478 -0.0105608252172
0.0662845655109 -0.0110065103345
0.0710524357585 -0.00545118165435
0.0764241772495 -0.0262122359329
0.0856868736554 -0.0555747203435
0.0936456938804 0.0420178298357
0.104125470627 -0.0615820821432
0.111743455316 -0.0255640117097
0.117822140936 -0.0335985461056
0.120935197817 -0.0950537422406
0.125041196564 -0.00181892785441
0.13108329492 0.0189087369137
0.144604392868 -0.0300630942363
0.148367732465 -0.136610954654
0.15178086679 -0.0620884302796
0.160935006169 -0.0893036686271
0.167615773404 -0.148252290152
0.17211030455 -0.0430731944222
0.181874256681 -0.0102809954829
0.19529186462 -0.122477378759
0.204403126094 -0.135689943818
0.208708451803 -0.128938947327
0.221770849336 -0.0642476099102
0.226597934614 -0.118500389883
0.228611186841 -0.0422176790126
0.241911910125 -0.122722819665
0.248917909059 -0.0283029047529
0.265515687754 -0.18105152522
0.270351140958 -0.126066412638
0.275698499414 -0.0858835449583
0.286066520869 -0.0767599258284
0.298761407354 -0.120906510884
0.310638863357 -0.0916010601368
0.317076921103 -0.0949866768713
0.334351539545 -0.182863112211
0.344768383898 -0.162624778423
0.358317293756 -0.104754459069
0.363633171437 -0.0968355227285
0.376505752856 -0.218552217131
0.386930850434 -0.157124212191
0.394803155077 -0.161789112432
0.40748588284 -0.165398346331
0.41921126229 -0.154490645426
0.432099636335 -0.196348303518
#17
-0.489870869756 0.10712810436
-0.482012131668 0.130134485708
-0.464085154057 0.0978741241692
-0.457061250437 0.11967708981
-0.440376010975 0.10107296008
-0.43156498922 0.088872667379
-0.427952511455 0.120031129977
-0.416190494336 0.149764650095
-0.398050192008 0.151741483369
-0.38729551709 0.11185755359
-0.373924240491 0.143569569839
-0.35896948199 0.0691375608758
-0.355279213644 0.176569570533
-0.341983883104 0.134933269973
-0.328276154641 0.0935915001561
-0.317363514457 0.111641285837
-0.31430658485 0.0992043199385
-0.299806122414 0.100957984454
-0.294072458 0.177914727075
-0.28245045047 0.108549695641
-0.269584177781 0.16324836734
-0.256129706089 0.0549621319399
-0.251002770554 0.0976127648162
-0.241522632315 0.158837833923
-0.226008469226 0.128953332036
-0.222876750828 0.14769155326
-0.207722878402 0.109036999763
-0.200810348383 0.106312900378
-0.186610423787 0.0504153966665
-0.180214300684 0.121808921602
-0.168768692967 0.151997666664
-0.152907816661 0.0869397541452
-0.13949182889 0.0856831734949
-0.129778477066 0.0856599091264
-0.120951842425 0.0905505544405
-0.119956172878 0.0708628836297
-0.0925411838241 0.112138148628
-0.0845549594155 0.0983633424564
-0.0751347292593 0.0634391452475
-0.0652912902132 0.0134290698494
-0.0618013768403 0.105911198684
-0.0499781601362 0.0372891972743
-0.0416421424848 -0.00738434146118
-0.0386697265175 0.100632822349
-0.0299000326843 0.0323060271613
-0.0189048115255 0.0644044383622
-0.0163593714709 0.0303949801552
0.00148822112718 0.027827247078
0.00732520595968 -0.042549131823
0.0185816455989 0.0551439079153
0.0251556898214 -0.0207968036926
0.0322711726594 0.00514677784297
0.0379057463086 0.0171307624618
0.0464341376827 -0.00596832230974
0.052322069067 0.0406379620772
0.0568422753232 -0.0162851476095
0.0666500244829 -0.00507854461336
0.0763514095201 -0.0414504942083
0.081825949322 -0.0299341258648
0.0859988078391 -0.0199874872579
0.0957146490878 -0.0215692369499
0.103613186997 0.0227116646555
0.11195685456 -0.0596144453331
0.119744752016 0.016656675881
0.125592581208 -0.0629706240296
0.128859338585 -0.0883352063945
0.133596273239 -0.0177199003986
0.14061055237 0.0489445303562
0.155091649908 -0.0526808732017
0.159419294877 -0.147211935051
0.163363941625 -0.0578916637343
0.172552268463 -0.113450123406
0.178799838764 -0.129012125644
0.183293548153 -0.0193455629555
0.190659580717 -0.018401633738
0.205960864384 -0.0993390740427
0.214970729344 -0.128842706705
0.218443715122 -0.112267268952
0.232955995964 -0.0702443247944
0.238303650126 -0.145923173611
0.240540657821 -0.0515972140777
0.255918729521 -0.10985831191
0.261528042508 -0.0322051131426
0.274193538977 -0.206579437925
0.277325891198 -0.132974052145
0.283066524934 -0.0925502666729
0.293430867705 -0.07296446228
0.302274208152 -0.130492384363
0.311802950135 -0.0824526677921
0.319057424428 -0.0922388977982
0.337545212908 -0.18706437075
0.34395304899 -0.162646755267
0.355075125931 -0.0973223564572
0.361165895401 -0.0837209046643
0.37529485729 -0.216039018278
0.383230333402 -0.148332111041
0.386256616825 -0.154244065781
0.399303020236 -0.137490488545
0.409205076793 -0.138370855261
0.422356435934 -0.183804569126
#18
-0.489870869756 0.10712810436
-0.482012131668 0.130134485708
-0.464085154057 0.0978741241692
-0.457061250437 0.11967708981
-0.440376010975 0.10107296008
-0.43156498922 0.088872667379
-0.427952511455 0.120031129977
-0.416190494336 0.149764650095
-0.398050192008 0.151741483369
-0.38729551709 0.11185755359
-0.373924240491 0.143569569839
-0.35896948199 0.0691375608758
-0.355279213644 0.176569570533
-0.341983883104 0.134933269973
-0.328276154641 0.0935915001561
-0.317363514457 0.111641285837
-0.31430658485 0.0992043199385
-0.299806122414 0.100957984454
-0.294072458 0.177914727075
-0.28245045047 0.108549695641
-0.269584177781 0.16324836734
-0.256129706089 0.0549621319399
-0.251002770554 0.0976127648162
-0.241522632315 0.158837833923
-0.226008469226 0.128953332036
-0.222876750828 0.14769155326
-0.207722878402 0.109036999763
-0.200810348383 0.106312900378
-0.186610423787 0.0504153966665
-0.180214300684 0.121808921602
-0.168768692967 0.151997666664
-0.152907816661 0.0869397541452
-0.13949182889 0.0856831734949
-0.129778477066 0.0856599091264
-0.120951842425 0.0905505544405
-0.119956172878 0.0708628836297
-0.0925411838241 0.112138148628
-0.0845549594155 0.0983633424564
-0.0751347292593 0.0634391452475
-0.0652912902132 0.0134290698494
-0.0618013768403 0.105911198684
-0.0499781601362 0.0372891972743
-0.0416421424848 -0.00738434146118
-0.0386697265175 0.100632822349
-0.0299000326843 0.0323060271613
-0.0189048115255 0.0644044383622
-0.0163593714709 0.0303949801552
0.00148822112718 0.027827247078
0.00732520595968 -0.042549131823
0.0185816455989 0.0551439079153
0.0251556898214 -0.0207968036926
0.0322711726594 0.00514677784297
0.0379057463086 0.0171307624618
0.0464341376827 -0.00596832230974
0.052322069067 0.0406379620772
0.0568422753232 -0.0162851476095
0.0666500244829 -0.00507854461336
0.0763514095201 -0.0414504942083
0.081825949322 -0.0299341258648
0.0859988078391 -0.0199874872579
0.0957146490878 -0.0215692369499
0.103613186997 0.0227116646555
0.11195685456 -0.0596144453331
0.119744752016 0.016656675881
0.125592581208 -0.0629706240296
0.128859338585 -0.0883352063945
0.133596273239 -0.0177199003986
0.14061055237 0.0489445303562
0.155091649908 -0.0526808732017
0.159419294877 -0.147211935051
0.163363941625 -0.0578916637343
0.172552268463 -0.113450123406
0.178799838764 -0.129012125644
0.183293548153 -0.0193455629555
0.190659580717 -0.018401633738
0.205960864384 -0.0993390740427
0.214970729344 -0.128842706705
0.218443715122 -0.112267268952
0.232955995964 -0.0702443247944
0.238303650126 -0.145923173611
0.240540657821 -0.0515972140777
0.255918729521 -0.10985831191
0.261528042508 -0.0322051131426
0.274193538977 -0.206579437925
0.277325891198 -0.132974052145
0.283066524934 -0.0925502666729
0.293430867705 -0.07296446228
0.302274208152 -0.130492384363
0.311802950135 -0.0824526677921
0.319057424428 -0.0922388977982
0.337545212908 -0.18706437075
0.34395304899 -0.162646755267
0.355075125931 -0.0973223564572
0.361165895401 -0.0837209046643
0.37529485729 -0.216039018278
0.383230333402 -0.148332111041
0.386256616825 -0.154244065781
0.399303020236 -0.137490488545
0.409205076793 -0.138370855261
0.422356435934 -0.183804569126
#19
-0.489870869756 0.10712810436
-0.482012131668 0.130134485708
-0.464085154057 0.0978741241692
-0.457061250437 0.11967708981
-0.440376010975 0.10107296008
-0.43156498922 0.088872667379
-0.427952511455 0.120031129977
-0.416190494336 0.149764650095
-0.398050192008 0.151741483369
-0.38729551709 0.11185755359
-0.373924240491 0.143569569839
-0.35896948199 0.0691375608758
-0.355279213644 0.176569570533
-0.341983883104 0.134933269973
-0.328276154641 0.0935915001561
-0.317363514457 0.111641285837
-0.31430658485 0.0992043199385
-0.299806122414 0.100957984454
-0.294072458 0.177914727075
-0.28245045047 0.108549695641
-0.269584177781 0.16324836734
-0.256129706089 0.0549621319399
-0.251002770554 0.0976127648162
-0.241522632315 0.158837833923
-0.226008469226 0.128953332036
-0.222876750828 0.14769155326
-0.207722878402 0.109036999763
-0.200810348383 0.106312900378
-0.186610423787 0.0504153966665
-0.180214300684 0.121808921602
-0.168768692967 0.151997666664
-0.152907816661 0.0869397541452
-0.13949182889 0.0856831734949
-0.129778477066 0.0856599091264
-0.120951842425 0.0905505544405
-0.119956172878 0.0708628836297
-0.0925411838241 0.112138148628
-0.0845549594155 0.0983633424564
-0.0751347292593 0.0634391452475
-0.0652912902132 0.0134290698494
-0.0618013768403 0.105911198684
-0.0499781601362 0.0372891972743
-0.0416421424848 -0.00738434146118
-0.0386697265175 0.100632822349
-0.0299000326843 0.0323060271613
-0.0189048115255 0.0644044383622
-0.0163593714709 0.0303949801552
0.00148822112718 0.027827247078
0.00732520595968 -0.042549131823
0.0185816455989 0.0551439079153
0.0251556898214 -0.0207968036926
0.0322711726594 0.00514677784297
0.0379057463086 0.0171307624618
0.0464341376827 -0.00596832230974
0.052322069067 0.0406379620772
0.0568422753232 -0.0162851476095
0.0666500244829 -0.00507854461336
0.0763514095201 -0.0414504942083
0.081825949322 -0.0299341258648
0.0859988078391 -0.0199874872579
0.0957146490878 -0.0215692369499
0.103613186997 0.0227116646555
0.11195685456 -0.0596144453331
0.119744752016 0.016656675881
0.125592581208 -0.0629706240296
0.128859338585 -0.0883352063945
0.133596273239 -0.0177199003986
0.14061055237 0.0489445303562
0.155091649908 -0.0526808732017
0.159419294877 -0.147211935051
0.163363941625 -0.0578916637343
0.172552268463 -0.113450123406
0.178799838764 -0.129012125644
0.183293548153 -0.0193455629555
0.190659580717 -0.018401633738
0.205960864384 -0.0993390740427
0.214970729344 -0.128842706705
0.218443715122 -0.112267268952
0.232955995964 -0.0702443247944
0.238303650126 -0.145923173611
0.240540657821 -0.0515972140777
0.255918729521 -0.10985831191
0.261528042508 -0.0322051131426
0.274193538977 -0.206579437925
0.277325891198 -0.132974052145
0.283066524934 -0.0925502666729
0.293430867705 -0.07296446228
0.302274208152 -0.130492384363
0.311802950135 -0.0824526677921
0.319057424428 -0.0922388977982
0.337545212908 -0.18706437075
0.34395304899 -0.162646755267
0.355075125931 -0.0973223564572
0.361165895401 -0.0837209046643
0.37529485729 -0.216039018278
0.383230333402 -0.148332111041
0.386256616825 -0.154244065781
0.399303020236 -0.137490488545
0.409205076793 -0.138370855261
0.422356435934 -0.183804569126
#20
-0.489870869756 0.10712810436
-0.482012131668 0.130134485708
-0.464085154057 0.0978741241692
-0.457061250437 0.11967708981
-0.440376010975 0.10107296008
-0.43156498922 0.088872667379
-0.427952511455 0.120031129977
-0.416190494336 0.149764650095
-0.398050192008 0.151741483369
-0.38729551709 0.11185755359
-0.373924240491 0.143569569839
-0.35896948199 0.0691375608758
-0.355279213644 0.176569570533
-0.341983883104 0.134933269973
-0.328276154641 0.0935915001561
-0.317363514457 0.111641285837
-0.31430658485 0.0992043199385
-0.299806122414 0.100957984454
-0.294072458 0.177914727075
-0.28245045047 0.108549695641
-0.269584177781 0.16324836734
-0.256129706089 0.0549621319399
-0.251002770554 0.0976127648162
-0.241522632315 0.158837833923
-0.226008469226 0.128953332036
-0.222876750828 0.14769155326
-0.207722878402 0.109036999763
-0.200810348383 0.106312900378
-0.186610423787 0.0504153966665
-0.180214300684 0.121808921602
-0.168768692967 0.151997666664
-0.152907816661 0.0869397541452
-0.13949182889 0.0856831734949
-0.129778477066 0.0856599091264
-0.120951842425 0.0905505544405
-0.119956172878 0.0708628836297
-0.0925411838241 0.112138148628
-0.0845549594155 0.0983633424564
-0.0751347292593 0.0634391452475
-0.0652912902132 0.0134290698494
-0.0618013768403 0.105911198684
-0.0499781601362 0.0372891972743
-0.0416421424848 -0.00738434146118
-0.0386697265175 0.100632822349
-0.0299000326843 0.0323060271613
-0.0189048115255 0.0644044383622
-0.0163593714709 0.0303949801552
0.00148822112718 0.027827247078
0.00732520595968 -0.042549131823
0.0185816455989 0.0551439079153
0.0251556898214 -0.0207968036926
0.0322711726594 0.00514677784297
0.0379057463086 0.0171307624618
0.0464341376827 -0.00596832230974
0.052322069067 0.0406379620772
0.0568422753232 -0.0162851476095
0.0666500244829 -0.00507854461336
0.0763514095201 -0.0414504942083
0.081825949322 -0.0299341258648
0.0859988078391 -0.0199874872579
0.0957146490878 -0.0215692369499
0.103613186997 0.0227116646555
0.11195685456 -0.0596144453331
0.119744752016 0.016656675881
0.125592581208 -0.0629706240296
0.128859338585 -0.0883352063945
0.133596273239 -0.0177199003986
0.14061055237 0.0489445303562
0.155091649908 -0.0526808732017
0.159419294877 -0.147211935051
0.163363941625 -0.0578916637343
0.172552268463 -0.113450123406
0.178799838764 -0.129012125644
0.183293548153 -0.0193455629555
0.190659580717 -0.018401633738
0.205960864384 -0.0993390740427
0.214970729344 -0.128842706705
0.218443715122 -0.112267268952
0.232955995964 -0.0702443247944
0.238303650126 -0.145923173611
0.240540657821 -0.0515972140777
0.255918729521 -0.10985831191
0.261528042508 -0.0322051131426
0.274193538977 -0.206579437925
0.277325891198 -0.132974052145
0.283066524934 -0.0925502666729
0.293430867705 -0.07296446228
0.302274208152 -0.130492384363
0.311802950135 -0.0824526677921
0.319057424428 -0.0922388977982
0.337545212908 -0.18706437075
0.34395304899 -0.162646755267
0.355075125931 -0.0973223564572
0.361165895401 -0.0837209046643
0.37529485729 -0.216039018278
0.383230333402 -0.148332111041
0.386256616825 -0.154244065781
0.399303020236 -0.137490488545
0.409205076793 -0.138370855261
0.422356435934 -0.183804569126
#21
-0.489870869756 0.10712810436
-0.482012131668 0.130134485708
-0.464085154057 0.0978741241692
-0.457061250437 0.11967708981
-0.440376010975 0.10107296008
-0.43156498922 0.088872667379
-0.427952511455 0.120031129977
-0.416190494336 0.149764650095
-0.398050192008 0.151741483369
-0.38729551709 0.11185755359
-0.373924240491 0.143569569839
-0.35896948199 0.0691375608758
-0.355279213644 0.176569570533
-0.341983883104 0.134933269973
-0.328276154641 0.0935915001561
-0.317363514457 0.111641285837
-0.31430658485 0.0992043199385
-0.299806122414 0.100957984454
-0.294072458 0.177914727075
-0.28245045047 0.108549695641
-0.269584177781 0.16324836734
-0.256129706089 0.0549621319399
-0.251002770554 0.0976127648162
-0.241522632315 0.158837833923
-0.226008469226 0.128953332036
-0.222876750828 0.14769155326
-0.207722878402 0.109036999763
-0.200810348383 0.106312900378
-0.186610423787 0.0504153966665
-0.180214300684 0.121808921602
-0.168768692967 0.151997666664
-0.152907816661 0.0869397541452
-0.13949182889 0.0856831734949
-0.129778477066 0.0856599091264
-0.120951842425 0.0905505544405
-0.119956172878 0.0708628836297
-0.0925411838241 0.112138148628
-0.0845549594155 0.0983633424564
-0.0751347292593 0.0634391452475
-0.0652912902132 0.0134290698494
-0.0618013768403 0.105911198684
-0.0499781601362 0.0372891972743
-0.0416421424848 -0.00738434146118
-0.0386697265175 0.100632822349
-0.0299000326843 0.0323060271613
-0.0189048115255 0.0644044383622
-0.0163593714709 0.0303949801552
0.00148822112718 0.027827247078
0.00732520595968 -0.042549131823
0.0185816455989 0.0551439079153
0.0251556898214 -0.0207968036926
0.0322711726594 0.00514677784297
0.0379057463086 0.0171307624618
0.0464341376827 -0.00596832230974
0.052322069067 0.0406379620772
0.0568422753232 -0.0162851476095
0.0666500244829 -0.00507854461336
0.0763514095201 -0.0414504942083
0.081825949322 -0.0299341258648
0.0859988078391 -0.0199874872579
0.0957146490878 -0.0215692369499
0.103613186997 0.0227116646555
0.11195685456 -0.0596144453331
0.119744752016 0.016656675881
0.125592581208 -0.0629706240296
0.128859338585 -0.0883352063945
0.133596273239 -0.0177199003986
0.14061055237 0.0489445303562
0.155091649908 -0.0526808732017
0.159419294877 -0.147211935051
0.163363941625 -0.0578916637343
0.172552268463 -0.113450123406
0.178799838764 -0.129012125644
0.183293548153 -0.0193455629555
0.190659580717 -0.018401633738
0.205960864384 -0.0993390740427
0.214970729344 -0.128842706705
0.218443715122 -0.112267268952
0.232955995964 -0.0702443247944
0.238303650126 -0.145923173611
0.240540657821 -0.0515972140777
0.255918729521 -0.10985831191
0.261528042508 -0.0322051131426
0.274193538977 -0.206579437925
0.277325891198 -0.132974052145
0.283066524934 -0.0925502666729
0.293430867705 -0.07296446228
0.302274208152 -0.130492384363
0.311802950135 -0.0824526677921
0.319057424428 -0.0922388977982
0.337545212908 -0.18706437075
0.34395304899 -0.162646755267
0.355075125931 -0.0973223564572
0.361165895401 -0.0837209046643
0.37529485729 -0.216039018278
0.383230333402 -0.148332111041
0.386256616825 -0.154244065781
0.399303020236 -0.137490488545
0.409205076793 -0.138370855261
0.422356435934 -0.183804569126
#22
-0.486748661575 0.108740561725
-0.479278175497 0.134571927934
-0.45824768102 0.0787544707475
-0.451857293857 0.105055560671
-0.436025420921 0.10172984392
-0.427724452607 0.0997811413081
-0.424915534066 0.129669380119
-0.411718931292 0.125646104968
-0.394513660094 0.133515489642
-0.38402981836 0.0994805025759
-0.371500370841 0.135551405454
-0.357158910486 0.0728573795191
-0.353796317099 0.181726380769
-0.341171197893 0.14563589506
-0.326762455879 0.0719074511379
-0.316304543431 0.095998380991
-0.313868924241 0.0857825309558
-0.299768568468 0.0937927020695
-0.294534254216 0.174278546235
-0.283235852551 0.12203429406
-0.271028871921 0.170593029387
-0.256387250773 0.0469906588634
-0.251855209757 0.0924486804151
-0.243713614389 0.162775343022
-0.22895728042 0.139710550343
-0.226225846529 0.15573610673
-0.209917552826 0.104960015413
-0.203951979347 0.101526705552
-0.190273856829 0.0652232505615
-0.184386580141 0.139079825158
-0.171423231269 0.14731474744
-0.154539356716 0.0682099461137
-0.139576240365 0.0589547558677
-0.130408117576 0.0682245659215
-0.122472466772 0.0766194875919
-0.121773370532 0.0913597264643
-0.0945579587565 0.120572496687
-0.085290053038 0.078496764102
-0.0766633406583 0.0430227785698
-0.0670362176359 -0.00436623240033
-0.0639755263355 0.0890435757605
-0.0534905922421 0.0320708406979
-0.0455030943299 0.0159300239242
-0.0416208504173 0.078706616703
-0.0335152511493 0.0311686374099
-0.02277493101 0.0546400550983
-0.0203857448386 0.0474738183395
-0.00164906125503 0.0131158244207
0.00370203130742 -0.0394120818934
0.0147265292413 0.0471065440754
0.0206031683666 0.00214743638961
0.029333596165 -0.0115112956331
0.0337263913026 0.021557186899
0.0419858659823 -0.00166407956582
0.0492793043392 0.0241442318915
0.0533822856766 -0.0300148442034
0.0622646282942 0.00678074464287
0.0734918382318 -0.0388438451634
0.078427753229 -0.0223749171555
0.0838878148899 -0.0268873130024
0.0938124230568 -0.0066391390437
0.102912300519 0.0100049354602
0.110535113853 -0.0421593800189
0.119839542361 0.00678926505579
0.125461068215 -0.0554291138324
0.128102694603 -0.0657233407172
0.132329786305 0.00161446837338
0.139589915506 0.0732291229534
0.155415092522 -0.0569178109647
0.159744459537 -0.146707932323
0.163367933036 -0.0584381039184
0.172460127771 -0.091083437353
0.178732019061 -0.10289936652
0.184684248788 -0.025838155423
0.191878232485 -0.0199833323645
0.206808440868 -0.0807186937921
0.215438812125 -0.106922061484
0.220296526673 -0.121617466931
0.234394597467 -0.06812291148
0.239278664727 -0.134572911083
0.243149311692 -0.0498543937909
0.257635937872 -0.109898461925
0.264339949621 -0.0323998713841
0.275738393114 -0.204258091218
0.280422144627 -0.129450363349
0.285163901517 -0.0771332062643
0.296681946526 -0.0770710171866
0.305234767897 -0.132479531935
0.313845014281 -0.063800463248
0.320568883456 -0.0770194903961
0.340217094315 -0.191836260416
0.346007300068 -0.166195881119
0.356977582942 -0.0865259033291
0.364180618014 -0.0828809302925
0.378164982729 -0.221125168488
0.385236701529 -0.146918045442
0.389472714627 -0.158611794962
0.401854753071 -0.136308606925
0.411007725078 -0.122870212466
0.423971863025 -0.169494225532
#23
-0.486748661575 0.108740561725
-0.479278175497 0.134571927934
-0.45824768102 0.0787544707475
-0.451857293857 0.105055560671
-0.436025420921 0.10172984392
-0.427724452607 0.0997811413081
-0.424915534066 0.129669380119
-0.411718931292 0.125646104968
-0.394513660094 0.133515489642
-0.38402981836 0.0994805025759
-0.371500370841 0.135551405454
-0.357158910486 0.0728573795191
-0.353796317099 0.181726380769
-0.341171197893 0.14563589506
-0.326762455879 0.0719074511379
-0.316304543431 0.095998380991
-0.313868924241 0.0857825309558
-0.299768568468 0.0937927020695
-0.294534254216 0.174278546235
-0.283235852551 0.12203429406
-0.271028871921 0.170593029387
-0.256387250773 0.0469906588634
-0.251855209757 0.0924486804151
-0.243713614389 0.162775343022
-0.22895728042 0.139710550343
-0.226225846529 0.15573610673
-0.209917552826 0.104960015413
-0.203951979347 0.101526705552
-0.190273856829 0.0652232505615
-0.184386580141 0.139079825158
-0.171423231269 0.14731474744
-0.154539356716 0.0682099461137
-0.139576240365 0.0589547558677
-0.130408117576 0.0682245659215
-0.122472466772 0.0766194875919
-0.121773370532 0.0913597264643
-0.0945579587565 0.120572496687
-0.085290053038 0.078496764102
-0.0766633406583 0.0430227785698
-0.0670362176359 -0.00436623240033
-0.0639755263355 0.0890435757605
-0.0534905922421 0.0320708406979
-0.0455030943299 0.0159300239242
-0.0416208504173 0.078706616703
-0.0335152511493 0.0311686374099
-0.02277493101 0.0546400550983
-0.0203857448386 0.0474738183395
-0.00164906125503 0.0131158244207
0.00370203130742 -0.0394120818934
0.0147265292413 0.0471065440754
0.0206031683666 0.00214743638961
0.029333596165 -0.0115112956331
0.0337263913026 0.021557186899
0.0419858659823 -0.00166407956582
0.0492793043392 0.0241442318915
0.0533822856766 -0.0300148442034
0.0622646282942 0.00678074464287
0.0734918382318 -0.0388438451634
0.078427753229 -0.0223749171555
0.0838878148899 -0.0268873130024
0.0938124230568 -0.0066391390437
0.102912300519 0.0100049354602
0.110535113853 -0.0421593800189
0.119839542361 0.00678926505579
0.125461068215 -0.0554291138324
0.128102694603 -0.0657233407172
0.132329786305 0.00161446837338
0.139589915506 0.0732291229534
0.155415092522 -0.0569178109647
0.159744459537 -0.146707932323
0.163367933036 -0.0584381039184
0.172460127771 -0.091083437353
0.178732019061 -0.10289936652
0.184684248788 -0.025838155423
0.191878232485 -0.0199833323645
0.206808440868 -0.0807186937921
0.215438812125 -0.106922061484
0.220296526673 -0.121617466931
0.234394597467 -0.06812291148
0.239278664727 -0.134572911083
0.243149311692 -0.0498543937909
0.257635937872 -0.109898461925
0.264339949621 -0.0323998713841
0.275738393114 -0.204258091218
0.280422144627 -0.129450363349
0.285163901517 -0.0771332062643
0.296681946526 -0.0770710171866
0.305234767897 -0.132479531935
0.313845014281 -0.063800463248
0.320568883456 -0.0770194903961
0.340217094315 -0.191836260416
0.346007300068 -0.166195881119
0.356977582942 -0.0865259033291
0.364180618014 -0.0828809302925
0.378164982729 -0.221125168488
0.385236701529 -0.146918045442
0.389472714627 -0.158611794962
0.401854753071 -0.136308606925
0.411007725078 -0.122870212466
0.423971863025 -0.169494225532
#24
-0.486748661575 0.108740561725
-0.479278175497 0.134571927934
-0.45824768102 0.0787544707475
-0.451857293857 0.105055560671
-0.436025420921 0.10172984392
-0.427724452607 0.0997811413081
-0.424915534066 0.129669380119
-0.411718931292 0.125646104968
-0.394513660094 0.133515489642
-0.38402981836 0.0994805025759
-0.371500370841 0.135551405454
-0.357158910486 0.0728573795191
-0.353796317099 0.181726380769
-0.341171197893 0.14563589506
-0.326762455879 0.0719074511379
-0.316304543431 0.095998380991
-0.313868924241 0.0857825309558
-0.299768568468 0.0937927020695
-0.294534254216 0.174278546235
-0.283235852551 0.12203429406
-0.271028871921 0.170593029387
-0.256387250773 0.0469906588634
-0.251855209757 0.0924486804151
-0.243713614389 0.162775343022
-0.22895728042 0.139710550343
-0.226225846529 0.15573610673
-0.209917552826 0.104960015413
-0.203951979347 0.101526705552
-0.190273856829 0.0652232505615
-0.184386580141 0.139079825158
-0.171423231269 0.14731474744
-0.154539356716 0.0682099461137
-0.139576240365 0.0589547558677
-0.130408117576 0.0682245659215
-0.122472466772 0.0766194875919
-0.121773370532 0.0913597264643
-0.0945579587565 0.120572496687
-0.085290053038 0.078496764102
-0.0766633406583 0.0430227785698
-0.0670362176359 -0.00436623240033
-0.0639755263355 0.0890435757605
-0.0534905922421 0.0320708406979
-0.0455030943299 0.0159300239242
-0.0416208504173 0.078706616703
-0.0335152511493 0.0311686374099
-0.02277493101 0.0546400550983
-0.0203857448386 0.0474738183395
-0.00164906125503 0.0131158244207
0.00370203130742 -0.0394120818934
0.0147265292413 0.0471065440754
0.0206031683666 0.00214743638961
0.029333596165 -0.0115112956331
0.0337263913026 0.021557186899
0.0419858659823 -0.00166407956582
0.0492793043392 0.0241442318915
0.0533822856766 -0.0300148442034
0.0622646282942 0.00678074464287
0.0734918382318 -0.0388438451634
0.078427753229 -0.0223749171555
0.0838878148899 -0.0268873130024
0.0938124230568 -0.0066391390437
0.102912300519 0.0100049354602
0.110535113853 -0.0421593800189
0.119839542361 0.00678926505579
0.125461068215 -0.0554291138324
0.128102694603 -0.0657233407172
0.132329786305 0.00161446837338
0.139589915506 0.0732291229534
0.155415092522 -0.0569178109647
0.159744459537 -0.146707932323
0.163367933036 -0.0584381039184
0.172460127771 -0.091083437353
0.178732019061 -0.10289936652
0.184684248788 -0.025838155423
0.191878232485 -0.0199833323645
0.206808440868 -0.0807186937921
0.215438812125 -0.106922061484
0.220296526673 -0.121617466931
0.234394597467 -0.06812291148
0.239278664727 -0.134572911083
0.243149311692 -0.0498543937909
0.257635937872 -0.109898461925
0.264339949621 -0.0323998713841
0.275738393114 -0.204258091218
0.280422144627 -0.129450363349
0.285163901517 -0.0771332062643
0.296681946526 -0.0770710171866
0.305234767897 -0.132479531935
0.313845014281 -0.063800463248
0.320568883456 -0.0770194903961
0.340217094315 -0.191836260416
0.346007300068 -0.166195881119
0.356977582942 -0.0865259033291
0.364180618014 -0.0828809302925
0.378164982729 -0.221125168488
0.385236701529 -0.146918045442
0.389472714627 -0.158611794962
0.401854753071 -0.136308606925
0.411007725078 -0.122870212466
0.423971863025 -0.169494225532
#25
-0.486748661575 0.108740561725
-0.479278175497 0.134571927934
-0.45824768102 0.0787544707475
-0.451857293857 0.105055560671
-0.436025420921 0.10172984392
-0.427724452607 0.0997811413081
-0.424915534066 0.129669380119
-0.411718931292 0.125646104968
-0.394513660094 0.133515489642
-0.38402981836 0.0994805025759
-0.371500370841 0.135551405454
-0.357158910486 0.0728573795191
-0.353796317099 0.181726380769
-0.341171197893 0.14563589506
-0.326762455879 0.0719074511379
-0.316304543431 0.095998380991
-0.313868924241 0.0857825309558
-0.299768568468 0.0937927020695
-0.294534254216 0.174278546235
-0.283235852551 0.12203429406
-0.271028871921 0.170593029387
-0.256387250773 0.0469906588634
-0.251855209757 0.0924486804151
-0.243713614389 0.162775343022
-0.22895728042 0.139710550343
-0.226225846529 0.15573610673
-0.209917552826 0.104960015413
-0.203951979347 0.101526705552
-0.190273856829 0.0652232505615
-0.184386580141 0.139079825158
-0.171423231269 0.14731474744
-0.154539356716 0.0682099461137
-0.139576240365 0.0589547558677
-0.130408117576 0.0682245659215
-0.122472466772 0.0766194875919
-0.121773370532 0.0913597264643
-0.0945579587565 0.120572496687
-0.085290053038 0.078496764102
-0.0766633406583 0.0430227785698
-0.0670362176359 -0.00436623240033
-0.0639755263355 0.0890435757605
-0.0534905922421 0.0320708406979
-0.0455030943299 0.0159300239242
-0.0416208504173 0.078706616703
-0.0335152511493 0.0311686374099
-0.02277493101 0.0546400550983
-0.0203857448386 0.0474738183395
-0.00164906125503 0.0131158244207
0.00370203130742 -0.0394120818934
0.0147265292413 0.0471065440754
0.0206031683666 0.00214743638961
0.029333596165 -0.0115112956331
0.0337263913026 0.021557186899
0.0419858659823 -0.00166407956582
0.0492793043392 0.0241442318915
0.0533822856766 -0.0300148442034
0.0622646282942 0.00678074464287
0.0734918382318 -0.0388438451634
0.078427753229 -0.0223749171555
0.0838878148899 -0.0268873130024
0.0938124230568 -0.0066391390437
0.102912300519 0.0100049354602
0.110535113853 -0.0421593800189
0.119839542361 0.00678926505579
0.125461068215 -0.0554291138324
0.128102694603 -0.0657233407172
0.132329786305 0.00161446837338
0.139589915506 0.0732291229534
0.155415092522 -0.0569178109647
0.159744459537 -0.146707932323
0.163367933036 -0.0584381039184
0.172460127771 -0.091083437353
0.178732019061 -0.10289936652
0.184684248788 -0.025838155423
0.191878232485 -0.0199833323645
0.206808440868 -0.0807186937921
0.215438812125 -0.106922061484
0.220296526673 -0.121617466931
0.234394597467 -0.06812291148
0.239278664727 -0.134572911083
0.243149311692 -0.0498543937909
0.257635937872 -0.109898461925
0.264339949621 -0.0323998713841
0.275738393114 -0.204258091218
0.280422144627 -0.129450363349
0.285163901517 -0.0771332062643
0.296681946526 -0.0770710171866
0.305234767897 -0.132479531935
0.313845014281 -0.063800463248
0.320568883456 -0.0770194903961
0.340217094315 -0.191836260416
0.346007300068 -0.166195881119
0.356977582942 -0.0865259033291
0.364180618014 -0.0828809302925
0.378164982729 -0.221125168488
0.385236701529 -0.146918045442
0.389472714627 -0.158611794962
0.401854753071 -0.136308606925
0.411007725078 -0.122870212466
0.423971863025 -0.169494225532
#26
-0.486748661575 0.108740561725
-0.479278175497 0.134571927934
-0.45824768102 0.0787544707475
-0.451857293857 0.105055560671
-0.436025420921 0.10172984392
-0.427724452607 0.0997811413081
-0.424915534066 0.129669380119
-0.411718931292 0.125646104968
-0.394513660094 0.133515489642
-0.38402981836 0.0994805025759
-0.371500370841 0.135551405454
-0.357158910486 0.0728573795191
-0.353796317099 0.181726380769
-0.341171197893 0.14563589506
-0.326762455879 0.0719074511379
-0.316304543431 0.095998380991
-0.313868924241 0.0857825309558
-0.299768568468 0.0937927020695
-0.294534254216 0.174278546235
-0.283235852551 0.12203429406
-0.271028871921 0.170593029387
-0.256387250773 0.0469906588634
-0.251855209757 0.0924486804151
-0.243713614389 0.162775343022
-0.22895728042 0.139710550343
-0.226225846529 0.15573610673
-0.209917552826 0.104960015413
-0.203951979347 0.101526705552
-0.190273856829 0.0652232505615
-0.184386580141 0.139079825158
-0.171423231269 0.14731474744
-0.154539356716 0.0682099461137
-0.139576240365 0.0589547558677
-0.130408117576 0.0682245659215
-0.122472466772 0.0766194875919
-0.121773370532 0.0913597264643
-0.0945579587565 0.120572496687
-0.085290053038 0.078496764102
-0.0766633406583 0.0430227785698
-0.0670362176359 -0.00436623240033
-0.0639755263355 0.0890435757605
-0.0534905922421 0.0320708406979
-0.0455030943299 0.0159300239242
-0.0416208504173 0.078706616703
-0.0335152511493 0.0311686374099
-0.02277493101 0.0546400550983
-0.0203857448386 0.0474738183395
-0.00164906125503 0.0131158244207
0.00370203130742 -0.0394120818934
0.0147265292413 0.0471065440754
0.0206031683666 0.00214743638961
0.029333596165 -0.0115112956331
0.0337263913026 0.021557186899
0.0419858659823 -0.00166407956582
0.0492793043392 0.0241442318915
0.0533822856766 -0.0300148442034
0.0622646282942 0.00678074464287
0.0734918382318 -0.0388438451634
0.078427753229 -0.0223749171555
0.0838878148899 -0.0268873130024
0.0938124230568 -0.0066391390437
0.102912300519 0.0100049354602
0.110535113853 -0.0421593800189
0.119839542361 0.00678926505579
0.125461068215 -0.0554291138324
0.128102694603 -0.0657233407172
0.132329786305 0.00161446837338
0.139589915506 0.0732291229534
0.155415092522 -0.0569178109647
0.159744459537 -0.146707932323
0.163367933036 -0.0584381039184
0.172460127771 -0.091083437353
0.178732019061 -0.10289936652
0.184684248788 -0.025838155423
0.191878232485 -0.0199833323645
0.206808440868 -0.0807186937921
0.215438812125 -0.106922061484
0.220296526673 -0.121617466931
0.234394597467 -0.06812291148
0.239278664727 -0.134572911083
0.243149311692 -0.0498543937909
0.257635937872 -0.109898461925
0.264339949621 -0.0323998713841
0.275738393114 -0.204258091218
0.280422144627 -0.129450363349
0.285163901517 -0.0771332062643
0.296681946526 -0.0770710171866
0.305234767897 -0.132479531935
0.313845014281 -0.063800463248
0.320568883456 -0.0770194903961
0.340217094315 -0.191836260416
0.346007300068 -0.166195881119
0.356977582942 -0.0865259033291
0.364180618014 -0.0828809302925
0.378164982729 -0.221125168488
0.385236701529 -0.146918045442
0.389472714627 -0.158611794962
0.401854753071 -0.136308606925
0.411007725078 -0.122870212466
0.423971863025 -0.169494225532
#27
-0.486480430684 0.101029060554
-0.477711920619 0.118478081717
-0.45813770217 0.0701229905687
-0.450636962115 0.0977763304328
-0.43716464451 0.101380630757
-0.427421352917 0.0958756744187
-0.424124374615 0.112723698481
-0.413745214898 0.133742641496
-0.393550465576 0.139761700632
-0.381245018407 0.0794345006308
-0.366538534048 0.120700300199
-0.354815593601 0.0749993435934
-0.350868737447 0.20063962133
-0.341160358635 0.13682721916
-0.324248045561 0.049215638137
-0.317083433523 0.105378837399
-0.314224616687 0.0923153932573
-0.297674273079 0.0802662966008
-0.291530477787 0.171519187812
-0.283379338489 0.116632626983
-0.269051350806 0.171483511873
-0.256976095544 0.0478558462285
-0.251656596003 0.084051512317
-0.242100368981 0.165525133813
-0.229890469131 0.142742962749
-0.226684438717 0.159407911145
-0.212652920514 0.104099503036
-0.205650807058 0.098997089965
-0.194706461799 0.0735466295015
-0.187796249484 0.159163497968
-0.17258047184 0.155958629403
-0.152762962994 0.0620365294236
-0.140310351573 0.0683340675719
-0.129549234276 0.0781419874641
-0.12534513597 0.0912132167475
-0.124524569229 0.107442072259
-0.0925803811843 0.126714922218
-0.0868125438509 0.0955617832421
-0.0766869089814 0.05285151117
-0.0704974390377 0.00151870087428
-0.0669049415495 0.109013694787
-0.0597086127574 0.046431953661
-0.0503332581821 0.0264140583717
-0.0457764603426 0.0872276728982
-0.0413728844109 0.0475180956857
-0.028766394786 0.0739952039243
-0.0259620788726 0.0548582756071
-0.00396982872196 0.0123853495299
0.00231103553492 -0.0524871301641
0.010140679337 0.0683703777005
0.0170384057737 0.0145269091808
0.0272857769911 -0.012230608944
0.0324418361782 0.0255110888795
0.037026023931 0.0132707881346
0.0455867235921 0.0424908338899
0.0504026127826 -0.0307315564316
0.0608282945688 0.0103122927147
0.0688958723187 -0.0282239898636
0.0746894204062 -0.00996607922453
0.0810981875366 -0.0249154989698
0.0927472322825 -0.00222168472157
0.10342824638 -0.00306415283484
0.107265150574 -0.0288979512992
0.118186257201 0.0264105915683
0.124784543512 -0.0551988813684
0.127885162044 -0.0694268738201
0.132846726224 -0.00433206834329
0.141368329143 0.0722180191969
0.154832787388 -0.0440756066234
0.159914397587 -0.150539639653
0.164167462717 -0.0758915455565
0.169729058647 -0.0820325278188
0.177090713742 -0.0969740706313
0.184077164921 -0.0183212804688
0.187410728778 0.00356658406943
0.204935114889 -0.0687943193625
0.215065044379 -0.110276148994
0.220766804406 -0.128597487509
0.232204065474 -0.0507923147011
0.237936757092 -0.129860795369
0.242479942973 -0.0411476611543
0.259483672868 -0.112697156581
0.267352530915 -0.0517643951012
0.27562109467 -0.207363814896
0.281118664955 -0.121703080032
0.286684319263 -0.0710211595987
0.300203666267 -0.072020718143
0.310242571297 -0.168160705589
0.315238478607 -0.0532266978434
0.323130644381 -0.0698151319878
0.341082402431 -0.201364071639
0.347878677385 -0.172341136865
0.360755086602 -0.108859701744
0.369209675079 -0.10994416745
0.380513473226 -0.223943948272
0.388813928755 -0.180817750263
0.393785964456 -0.197760990672
0.403209026344 -0.132970627843
0.413952360355 -0.118269816922
0.424058663641 -0.170849814558
#28
-0.492115283265 0.0851239817804
-0.483721263278 0.117017277903
-0.459949716521 0.0368966467841
-0.458135780742 0.0943467219522
-0.442768811786 0.0741702868801
-0.436478797225 0.0931203886029
-0.432367257487 0.122509348535
-0.419422861779 0.112611137429
-0.396311452776 0.11390522251
-0.387260881057 0.0811806484525
-0.371732407076 0.0897550194006
-0.357429702561 0.0808196748033
-0.353029368584 0.183116640192
-0.344982233034 0.0977429593625
-0.327425365873 0.0492788504378
-0.322098264044 0.0558914549122
-0.318659869711 0.108528840612
-0.306201725187 0.0944022365665
-0.299620366434 0.139084298815
-0.292173671761 0.145062825448
-0.282275867979 0.140211801332
-0.267188885744 0.0595248100464
-0.264583520348 0.109876999596
-0.25860701275 0.178583564399
-0.244156079846 0.105813908938
-0.240407448132 0.160381671796
-0.223607010441 0.136392224413
-0.21781526186 0.102819028518
-0.205197393247 0.10251555277
-0.198964848314 0.154925444824
-0.182428701327 0.124279144615
-0.160403233318 0.0893486751073
-0.145372744736 0.0648140269747
-0.134637545724 0.0525832957805
-0.13012993321 0.0982980902671
-0.129135178076 0.151117193508
-0.09000484973 0.107404458124
-0.083707771945 0.0495944330366
-0.0759498583442 0.0521202838589
-0.0689953607303 0.0190440554273
-0.0670871507657 0.0676249600873
-0.0582419730373 0.00624110449711
-0.0480211255206 0.0548609228369
-0.042327659442 0.0508359248099
-0.0368683147107 0.0489619996383
-0.0237694722837 0.0281568224619
-0.021888420497 0.0626539057372
0.00444523125509 -0.0534527218037
0.0104928281794 -0.0430519971507
0.0183656076503 0.0183821851507
0.0244953248125 0.0457524214659
0.0372432821859 -0.0204940897332
0.0429866405691 -0.0365348638615
0.0455179690205 0.0164614075065
0.0534675458217 -0.0145975451139
0.0588263347771 -0.0096539353044
0.0716167588833 -0.0556523667999
0.0774556313065 -0.00225953968176
0.0845527436907 -0.0117974134398
0.0908230725372 -0.0239576668288
0.104666981456 -0.0717328644693
0.11548014932 -0.0710424086456
0.118205266107 -0.00137523593377
0.129280502497 -0.0362353201707
0.136202771594 -0.0621610428083
0.139412952789 -0.048313774631
0.143939917247 0.008111183582
0.152442618006 0.025167789697
0.167514994038 -0.125971343632
0.172082092655 -0.148895289335
0.173645295537 -0.0821940023926
0.179420613964 -0.0827632883993
0.188690486909 -0.0774520742128
0.196802223784 -0.0882778291797
0.199878969269 -0.0670985963233
0.215116740839 -0.15205803413
0.227064856976 -0.11823770268
0.234182249555 -0.117238323871
0.246661129112 -0.137069729901
0.252385557669 -0.113541738098
0.257664152241 -0.0262526346089
0.274456556551 -0.20673533741
0.281207802468 -0.138922983966
0.290814712815 -0.210766309179
0.296453253705 -0.128016435792
0.302123137781 -0.0570570163948
0.319128559586 -0.158534373936
0.323299284394 -0.162644355453
0.32872341677 -0.0344095266133
0.335773190262 -0.0336450193352
0.357202362949 -0.216398705897
0.360103416782 -0.161598356792
0.371888095282 -0.100196043609
0.378217294769 -0.0970281364873
0.389633067557 -0.22962789424
0.393827132317 -0.185895408729
0.400057030335 -0.193184776857
0.407629518664 -0.121063666585
0.413073133265 -0.0929894035072
0.42413317342 -0.168919063426
#29
-0.492115283265 0.0851239817804
-0.483721263278 0.117017277903
-0.459949716521 0.0368966467841
-0.458135780742 0.0943467219522
-0.442768811786 0.0741702868801
-0.436478797225 0.0931203886029
-0.432367257487 0.122509348535
-0.419422861779 0.112611137429
-0.396311452776 0.11390522251
-0.387260881057 0.0811806484525
-0.371732407076 0.0897550194006
-0.357429702561 0.0808196748033
-0.353029368584 0.183116640192
-0.344982233034 0.0977429593625
-0.327425365873 0.0492788504378
-0.322098264044 0.0558914549122
-0.318659869711 0.108528840612
-0.306201725187 0.0944022365665
-0.299620366434 0.139084298815
-0.292173671761 0.145062825448
-0.282275867979 0.140211801332
-0.267188885744 0.0595248100464
-0.264583520348 0.109876999596
-0.25860701275 0.178583564399
-0.244156079846 0.105813908938
-0.240407448132 0.160381671796
-0.223607010441 0.136392224413
-0.21781526186 0.102819028518
-0.205197393247 0.10251555277
-0.198964848314 0.154925444824
-0.182428701327 0.124279144615
-0.160403233318 0.0893486751073
-0.145372744736 0.0648140269747
-0.134637545724 0.0525832957805
-0.13012993321 0.0982980902671
-0.129135178076 0.151117193508
-0.09000484973 0.107404458124
-0.083707771945 0.0495944330366
-0.0759498583442 0.0521202838589
-0.0689953607303 0.0190440554273
-0.0670871507657 0.0676249600873
-0.0582419730373 0.00624110449711
-0.0480211255206 0.0548609228369
-0.042327659442 0.0508359248099
-0.0368683147107 0.0489619996383
-0.0237694722837 0.0281568224619
-0.021888420497 0.0626539057372
0.00444523125509 -0.0534527218037
0.0104928281794 -0.0430519971507
0.0183656076503 0.0183821851507
0.0244953248125 0.0457524214659
0.0372432821859 -0.0204940897332
0.0429866405691 -0.0365348638615
0.0455179690205 0.0164614075065
0.0534675458217 -0.0145975451139
0.0588263347771 -0.0096539353044
0.0716167588833 -0.0556523667999
0.0774556313065 -0.00225953968176
0.0845527436907 -0.0117974134398
0.0908230725372 -0.0239576668288
0.104666981456 -0.0717328644693
0.11548014932 -0.0710424086456
0.118205266107 -0.00137523593377
0.129280502497 -0.0362353201707
0.136202771594 -0.0621610428083
0.139412952789 -0.048313774631
0.143939917247 0.008111183582
0.152442618006 0.025167789697
0.167514994038 -0.125971343632
0.172082092655 -0.148895289335
0.173645295537 -0.0821940023926
0.179420613964 -0.0827632883993
0.188690486909 -0.0774520742128
0.196802223784 -0.0882778291797
0.199878969269 -0.0670985963233
0.215116740839 -0.15205803413
0.227064856976 -0.11823770268
0.234182249555 -0.117238323871
0.246661129112 -0.137069729901
0.252385557669 -0.113541738098
0.257664152241 -0.0262526346089
0.274456556551 -0.20673533741
0.281207802468 -0.138922983966
0.290814712815 -0.210766309179
0.296453253705 -0.128016435792
0.302123137781 -0.0570570163948
0.319128559586 -0.158534373936
0.323299284394 -0.162644355453
0.32872341677 -0.0344095266133
0.335773190262 -0.0336450193352
0.357202362949 -0.216398705897
0.360103416782 -0.161598356792
0.371888095282 -0.100196043609
0.378217294769 -0.0970281364873
0.389633067557 -0.22962789424
0.393827132317 -0.185895408729
0.400057030335 -0.193184776857
0.407629518664 -0.121063666585
0.413073133265 -0.0929894035072
0.42413317342 -0.168919063426
#30
-0.492115283265 0.0851239817804
-0.483721263278 0.117017277903
-0.459949716521 0.0368966467841
-0.458135780742 0.0943467219522
-0.442768811786 0.0741702868801
-0.436478797225 0.0931203886029
-0.432367257487 0.122509348535
-0.419422861779 0.112611137429
-0.396311452776 0.11390522251
-0.387260881057 0.0811806484525
-0.371732407076 0.0897550194006
-0.357429702561 0.0808196748033
-0.353029368584 0.183116640192
-0.344982233034 0.0977429593625
-0.327425365873 0.0492788504378
-0.322098264044 0.0558914549122
-0.318659869711 0.108528840612
-0.306201725187 0.0944022365665
-0.299620366434 0.139084298815
-0.292173671761 0.145062825448
-0.282275867979 0.140211801332
-0.267188885744 0.0595248100464
-0.264583520348 0.109876999596
-0.25860701275 0.178583564399
-0.244156079846 0.105813908938
-0.240407448132 0.160381671796
-0.223607010441 0.136392224413
-0.21781526186 0.102819028518
-0.205197393247 0.10251555277
-0.198964848314 0.154925444824
-0.182428701327 0.124279144615
-0.160403233318 0.0893486751073
-0.145372744736 0.0648140269747
-0.134637545724 0.0525832957805
-0.13012993321 0.0982980902671
-0.129135178076 0.151117193508
-0.09000484973 0.107404458124
-0.083707771945 0.0495944330366
-0.0759498583442 0.0521202838589
-0.0689953607303 0.0190440554273
-0.0670871507657 0.0676249600873
-0.0582419730373 0.00624110449711
-0.0480211255206 0.0548609228369
-0.042327659442 0.0508359248099
-0.0368683147107 0.0489619996383
-0.0237694722837 0.0281568224619
-0.021888420497 0.0626539057372
0.00444523125509 -0.0534527218037
0.0104928281794 -0.0430519971507
0.0183656076503 0.0183821851507
0.0244953248125 0.0457524214659
0.0372432821859 -0.0204940897332
0.0429866405691 -0.0365348638615
0.0455179690205 0.0164614075065
0.0534675458217 -0.0145975451139
0.0588263347771 -0.0096539353044
0.0716167588833 -0.0556523667999
0.0774556313065 -0.00225953968176
0.0845527436907 -0.0117974134398
0.0908230725372 -0.0239576668288
0.104666981456 -0.0717328644693
0.11548014932 -0.0710424086456
0.118205266107 -0.00137523593377
0.129280502497 -0.0362353201707
0.136202771594 -0.0621610428083
0.139412952789 -0.048313774631
0.143939917247 0.008111183582
0.152442618006 0.025167789697
0.167514994038 -0.125971343632
0.172082092655 -0.148895289335
0.173645295537 -0.0821940023926
0.179420613964 -0.0827632883993
0.188690486909 -0.0774520742128
0.196802223784 -0.0882778291797
0.199878969269 -0.0670985963233
0.215116740839 -0.15205803413
0.227064856976 -0.11823770268
0.234182249555 -0.117238323871
0.246661129112 -0.137069729901
0.252385557669 -0.113541738098
0.257664152241 -0.0262526346089
0.274456556551 -0.20673533741
0.281207802468 -0.138922983966
0.290814712815 -0.210766309179
0.296453253705 -0.128016435792
0.302123137781 -0.0570570163948
0.319128559586 -0.158534373936
0.323299284394 -0.162644355453
0.32872341677 -0.0344095266133
0.335773190262 -0.0336450193352
0.357202362949 -0.216398705897
0.360103416782 -0.161598356792
0.371888095282 -0.100196043609
0.378217294769 -0.0970281364873
0.389633067557 -0.22962789424
0.393827132317 -0.185895408729
0.400057030335 -0.193184776857
0.407629518664 -0.121063666585
0.413073133265 -0.0929894035072
0.42413317342 -0.168919063426
#31
-0.492115283265 0.0851239817804
-0.483721263278 0.117017277903
-0.459949716521 0.0368966467841
-0.458135780742 0.0943467219522
-0.442768811786 0.0741702868801
-0.436478797225 0.0931203886029
-0.432367257487 0.122509348535
-0.419422861779 0.112611137429
-0.396311452776 0.11390522251
-0.387260881057 0.0811806484525
-0.371732407076 0.0897550194006
-0.357429702561 0.0808196748033
-0.353029368584 0.183116640192
-0.344982233034 0.0977429593625
-0.327425365873 0.0492788504378
-0.322098264044 0.0558914549122
-0.318659869711 0.108528840612
-0.306201725187 0.0944022365665
-0.299620366434 0.139084298815
-0.292173671761 0.145062825448
-0.282275867979 0.140211801332
-0.267188885744 0.0595248100464
-0.264583520348 0.109876999596
-0.25860701275 0.178583564399
-0.244156079846 0.105813908938
-0.240407448132 0.160381671796
-0.223607010441 0.136392224413
-0.21781526186 0.102819028518
-0.205197393247 0.10251555277
-0.198964848314 0.154925444824
-0.182428701327 0.124279144615
-0.160403233318 0.0893486751073
-0.145372744736 0.0648140269747
-0.134637545724 0.0525832957805
-0.13012993321 0.0982980902671
-0.129135178076 0.151117193508
-0.09000484973 0.107404458124
-0.083707771945 0.0495944330366
-0.0759498583442 0.0521202838589
-0.0689953607303 0.0190440554273
-0.0670871507657 0.0676249600873
-0.0582419730373 0.00624110449711
-0.0480211255206 0.0548609228369
-0.042327659442 0.0508359248099
-0.0368683147107 0.0489619996383
-0.0237694722837 0.0281568224619
-0.021888420497 0.0626539057372
0.00444523125509 -0.0534527218037
0.0104928281794 -0.0430519971507
0.0183656076503 0.0183821851507
0.0244953248125 0.0457524214659
0.0372432821859 -0.0204940897332
0.0429866405691 -0.0365348638615
0.0455179690205 0.0164614075065
0.0534675458217 -0.0145975451139
0.0588263347771 -0.0096539353044
0.0716167588833 -0.0556523667999
0.0774556313065 -0.00225953968176
0.0845527436907 -0.0117974134398
