#0
-0.448260419116 0.0310151572456
-0.433460907489 -0.00838471738134
-0.4168279887 0.0411284997821
-0.405295822927 0.0976254632123
-0.386949510115 0.110036857027
-0.371679748185 -0.0549200749041
-0.356820401079 0.107507955822
-0.342289977738 0.0215541554904
-0.325682349539 0.0770169552816
-0.314435568666 -0.00898599620407
-0.296564518516 0.0980526412722
-0.276833927221 0.102797929065
-0.254606253086 0.0436841149266
-0.235274891797 -0.00645849664113
-0.21473019131 0.0824444076138
-0.193549372793 -0.0410921212638
-0.171467320086 0.169865912815
-0.136420574805 0.0212794349122
-0.10878597225 0.0696035912554
-0.092846430778 -0.0280511580514
-0.0656460714247 0.13090737213
-0.0473540178344 -0.135040722589
-0.0128343109568 0.0363917287328
0.00257213027753 0.0510405179215
0.023761698013 0.101620800502
0.055236909743 -0.00714862786239
0.073959357661 -0.0111651305629
0.0916764641881 0.0418644198595
0.110329045441 0.072113363991
0.128527872255 0.0362704415035
0.15920619103 -0.0421786454819
0.174173450827 -0.0433485754765
0.193038969372 0.0979341928668
0.208794838811 0.0488992232881
0.230107908716 -0.0734672327188
0.241431026546 0.086226192989
0.265330629355 0.0203129887099
0.28298022738 -0.0537552682614
0.297271326213 0.102649399156
0.313898625832 -0.0465759397882
0.333780672699 -0.0586445644775
0.34287542674 -0.043145656777
0.355510428455 0.083447299038
0.372820953249 -0.0564234457232
0.388460302156 0.0199135034042
0.399968038045 0.00293156913228
0.410692905307 0.0265688237235
0.428605747968 0.0599315759879
0.446063125974 0.0307855232311
0.454141069165 0.0523936826471
#1
-0.48506727363 0.0246691852109
-0.475574519666 0.026286407161
-0.46429404148 0.0166511031478
-0.451548050874 0.0505681605729
-0.433876091608 0.0553115290804
-0.418828333468 -0.00291864130352
-0.406362364607 0.0975552947915
-0.386461086486 -0.0127989110342
-0.369810839907 0.0540608811595
-0.356870030005 -0.0323426981537
-0.343589535639 0.0959037534395
-0.320330934846 0.00652542708907
-0.306759052733 0.0719579136928
-0.28166852851 -0.0214837117381
-0.260284345862 0.0636055948742
-0.240011389183 -0.0216596076994
-0.222589447576 0.102567708708
-0.188501743371 -0.0117750810956
-0.171758877984 0.0518166503714
-0.152909052061 -0.0219219309877
-0.129623754794 0.0896525302508
-0.109232442809 -0.0622487435238
-0.084143672269 0.0200316798366
-0.058459980336 0.0435472086722
-0.0397339852108 0.0451812323965
-0.0152993269677 0.0143194366305
0.00527336233305 0.0148402220067
0.0337288901432 0.0151580731382
0.0626306536355 0.0485738415572
0.0881828993715 0.0104468118893
0.111782244566 -0.00113539380776
0.13426254763 -0.00838230346635
0.15629594674 0.0516985939215
0.173979960382 0.0119461361822
0.193162068392 -0.0712742985458
0.206832867705 0.0446974859984
0.230562703401 -0.0200891759469
0.248990486994 -0.0328742112181
0.276097729482 0.0463743572846
0.292898376379 -0.0556439024655
0.312707216327 -0.0109650213496
0.326089322867 -0.043883793802
0.339995356907 0.00701807546147
0.352385558919 -0.0584450722714
0.368865313037 0.0210206516793
0.381425946698 -0.00903481853327
0.391515457642 -0.00798990530572
0.409378642472 0.0101403666835
0.427282537657 -0.00331318270222
0.436779665906 0.0192091267287
#2
-0.506521827712 -0.0479998014402
-0.492771772357 -0.0160429966909
-0.475501325923 -0.0228683138179
-0.464625302029 0.0239596012136
-0.451439656193 0.0565923117611
-0.434228285351 0.00181976845201
-0.422934450879 0.0369447270161
-0.404782175822 0.0277477969948
-0.388340370431 0.057607101641
-0.372776933423 -0.0135616476686
-0.361757029764 0.0558208580615
-0.340789043377 -0.0494149424783
-0.32518941213 0.056010543108
-0.300346685639 0.00804521263185
-0.274255094491 0.0267819356773
-0.250362864586 0.0134594464264
-0.23478380527 0.0648983517817
-0.201427385878 -0.0143560778105
-0.1857072437 0.0682399291668
-0.164745776198 0.0212055218677
-0.134747408288 0.0442420666773
-0.117229214412 0.0248213727501
-0.0891742765195 0.0540720551064
-0.0622556532839 0.014269876312
-0.0373705962241 0.0301807550724
-0.0189055030302 0.0601547556915
0.00826631132956 0.0244175094897
0.0364675706663 0.0523882634992
0.0708295518295 0.0683402445371
0.0937544715855 0.0123732513503
0.110976327408 0.0498642957552
0.13107594475 0.0448726925958
0.156756026637 -0.0288105794204
0.177055989308 -0.00344861204792
0.195519761587 -0.0325714927457
0.212813713146 0.0490455357956
0.238122845692 -0.0396198322698
0.254593142375 0.00148205129891
0.279080533364 0.0144270398626
0.292262622422 0.00549130707255
0.318040046142 -0.0206850476537
0.330266655623 -0.0259597338985
0.347525072371 -0.0141758752525
0.359171367126 -0.0533810518705
0.376807741114 -0.0290080912295
0.388162115486 -0.0540935395572
0.397927149717 -0.0293172247476
0.413949039686 -0.0288226317316
0.429701428844 -0.038945486344
0.439541648732 -0.0185312503705
#3
-0.504129736554 -0.0696219628645
-0.492645460806 0.00352454402404
-0.47117449579 -0.0108225328564
-0.455203573596 0.0281066443708
-0.442042390647 0.00339089887575
-0.429218895294 0.0225541377038
-0.415302400438 0.00861461650939
-0.399299707685 0.0336491981387
-0.383895466306 0.0179933807418
-0.370906147166 0.0416541242273
-0.350055810597 -0.0138961568106
-0.333449450874 0.000630408459049
-0.316645560559 0.0475542084558
-0.291714544028 0.0259409551169
-0.256543779116 0.0511943339403
-0.233673844292 0.0628571556274
-0.214810765147 0.0326279787093
-0.187625336683 0.0855704572214
-0.16412908152 0.0236303784568
-0.148737481755 0.091278904496
-0.113260499151 0.0362888558989
-0.0959593087567 0.0770433578616
-0.0610318900018 0.0432630465487
-0.0404298722927 0.0216408331879
-0.00998077822969 -0.0423518424495
0.0140182947084 0.0906860618835
0.0418105621176 -0.0555309076019
0.0644424796332 0.0357955085138
0.087025069571 0.0707732983177
0.120407008318 0.00814130242189
0.136423736652 0.0234791962019
0.156302423683 0.0703982231204
0.179213717665 -0.0426876244379
0.201053500587 -0.0181094024225
0.221619576744 -0.027264898507
0.238825307384 0.0564023149613
0.255119327048 -0.0429267054285
0.265644800606 0.0639129795648
0.277759069974 0.00369785987296
0.285725730577 0.0760003791303
0.307202771391 -0.0695284794875
0.316545309622 -0.0370170861518
0.330104586015 -0.010371546069
0.344694354997 -0.0303619487966
0.362557004036 -0.043912829189
0.380335025905 -0.065822099643
0.389268319614 -0.0191032733079
0.404425878155 -0.00681741989796
0.425315711881 -0.0885655442649
0.43740556815 -0.0778352510308
#4
-0.497383578198 -0.0481529601072
-0.49313322476 0.0280651181143
-0.481652762377 0.0428442137732
-0.463947877554 0.0238933405634
-0.442279036088 -0.025107794025
-0.433941731924 0.0356100234468
-0.424586308163 0.0389829296997
-0.402117829395 -0.0444545235193
-0.385741609346 -0.0294462558641
-0.369537156388 0.0597037959964
-0.348525795225 -0.0365595396291
-0.336157671848 0.0418772664365
-0.313828011612 0.0108559647153
-0.289716503459 0.0440828580922
-0.256079812004 0.0466265792111
-0.235096226926 0.0117162782757
-0.192384062996 0.00378423112249
-0.167033166848 0.0785771791467
-0.138487277667 -0.0191659937083
-0.121892848124 0.0890265407423
-0.0811188865446 0.0059229803023
-0.0608225782417 0.0283709757616
-0.0278894014399 -0.0144735660473
-0.0090591508908 -0.053024410212
0.014318760176 -0.0392678731391
0.0409272612535 0.0417652591862
0.0630190199237 -0.0384445328785
0.0873510389827 -0.0752531724771
0.104241830755 -0.00452611403576
0.13516362164 -0.00775748392806
0.155986337037 -0.0304851879439
0.175970888561 0.00745071016621
0.193496757189 -0.0297563499756
0.213412522054 -0.0177133998107
0.227847883204 -0.00902192941791
0.242323615956 0.0213879618477
0.260798860543 -0.0622593439675
0.263600999466 0.0593938169329
0.275549756336 -0.0115359137376
0.285945322032 0.0245146114923
0.299211865568 -0.0546314434848
0.308617774326 -0.0401042223983
0.321194919019 -0.0230791517471
0.331895289147 0.0161258490985
0.342311692756 0.0400686995018
0.363946300509 -0.00688875901878
0.376454193487 0.00310457676259
0.394141432514 -0.00721922503933
0.415222440305 -0.104634117894
0.421679092611 -0.0379146482701
#5
-0.517958734275 0.0136414962106
-0.511425951346 0.0328697352727
-0.49724662762 0.0681006250503
-0.483214882721 0.0444484683443
-0.463858266515 0.0423835241388
-0.454452191596 0.0749465010407
-0.440825267294 0.0221516162525
-0.414549790779 -0.00218968475496
-0.387473201941 0.0291698341376
-0.355457248253 0.0440453106673
-0.327837438622 -0.015963555344
-0.305870302742 0.017239342234
-0.277519065781 0.0373813213646
-0.253744179015 0.0739236055574
-0.22027193099 0.0547719720904
-0.190994164147 0.00691366322882
-0.14229732038 -0.0121931185493
-0.112767206505 -0.0193813615054
-0.0801035090573 -0.0228210005329
-0.059429829336 0.0191372786901
-0.0263753084495 -0.0648819522554
-0.0108392354724 -0.0191616305055
0.0142356879476 -0.0819958080979
0.0304898445574 -0.120955357369
0.0446553424476 0.0146747436198
0.062616269024 -0.00434835565825
0.0867853791216 -0.0409839837445
0.105101051618 -0.0828430455909
0.12181696991 -0.0650676354674
0.135206510396 0.0297703833734
0.159130679892 -0.0496910490382
0.173648502497 0.0109809119323
0.189008501925 -0.00888301630332
0.208778309738 -0.0150127184262
0.218468816366 -0.0348305482813
0.23884293936 0.0383405654179
0.260866821162 -0.0686099075568
0.265791069936 -0.000262012531948
0.276402073432 -0.038396715362
0.286698839471 -0.0208899698162
0.295295623649 -0.00268518080661
0.305610240586 0.00102290621712
0.320130962947 -0.0329188675982
0.325544520257 0.0228113722231
0.336551806522 -0.00192120608048
0.350050312784 -0.0218552975915
0.364325876849 -0.0267603810981
0.378204387107 -0.0182902899381
0.392837661886 -0.0269926857851
0.405480270513 0.0626302642783
#6
-0.527598102302 0.0401296523559
-0.520551979297 0.0180061185344
-0.500866420666 0.0823646594809
-0.474192847017 -0.000593891382833
-0.460627723726 0.0455662637643
-0.44807030302 0.0423819376474
-0.427177999413 -0.0041261114493
-0.403202137759 0.0321250852354
-0.37256571505 0.045662906004
-0.339858482835 0.0493642111066
-0.302769278783 -0.0142119572535
-0.270251748165 0.055727644861
-0.23874444052 0.00646953697853
-0.212966173925 0.067708141465
-0.171722269735 0.0212708572197
-0.141425170951 0.068880327285
-0.105969248568 -0.038896972966
-0.086380113505 -0.000129360859351
-0.0546834008179 -0.0291579400322
-0.0318462253987 0.000994357853937
-0.0133493761444 -0.0793732078878
0.0024224785463 -0.0200730699268
0.0171139226183 -0.0350149478317
0.0313499440751 -0.0825099386221
0.0433755732962 0.00301090445259
0.0596570920256 -0.0278422311294
0.0819545636261 -0.0776159066927
0.0999196747171 0.00199776327052
0.117417671015 -0.0503456288278
0.131492374707 0.0511557895663
0.155745669549 -0.0819062019882
0.176226675627 0.0112623605405
0.188333658778 0.0668826840554
0.208092751718 0.00578140097494
0.218089712141 -0.000627854940532
0.237901395952 0.0862801858083
0.251972189462 -0.0321835607716
0.261679370933 0.013917672915
0.270614441903 -0.0177401396352
0.278665576636 0.0290010076141
0.287376288346 0.0272521004985
0.302378628447 -0.0059547850129
0.313293734398 -0.0101485881606
0.323324066594 0.0448352639144
0.335291248355 -0.00741822753037
0.347745172542 -0.0292777110669
0.362548651426 -0.0268155358872
0.376558825705 -0.00786011005375
0.387180271101 0.0403112075975
0.405177838181 0.0750365202412
#7
-0.50029041839 -0.0192312566337
-0.488359052737 -0.0102850166297
-0.465246980353 0.0202564316505
-0.438911627307 -0.0535295369976
-0.423850341366 0.00869238500572
-0.402135841476 -0.0392869955553
-0.381157296436 -0.0401545187035
-0.361617032518 -0.0338785449953
-0.336160866343 0.00358509068638
-0.312601708472 0.0297476219194
-0.278780201581 -0.0162863848046
-0.255587906331 0.0373597499819
-0.217120164956 -0.0610849615583
-0.197390271733 0.0110425347763
-0.158711649105 -0.0395144388078
-0.139439079291 0.0441240319684
-0.109675140352 -0.0236374892484
-0.0930658410869 0.0138752311076
-0.0613882666824 -0.054324755006
-0.0411093460738 -0.0255371036887
-0.0233458908849 -0.0225599565934
-0.00240359686463 -0.0092399009584
0.0141799130062 0.0491522198829
0.0286148929941 -0.0239703410372
0.0408588273032 0.0509858779896
0.0562520755916 0.00410631187639
0.0694503270368 0.0218626181456
0.0849890237709 0.0408189060728
0.102013498887 -0.0339921098603
0.116899293761 0.0175183084101
0.136465903935 -0.0708087856966
0.16029469949 -0.0726765485927
0.167984661721 0.0468420189748
0.182835138116 0.0700874703838
0.19953003234 0.0752264565497
0.215553234901 0.123512689668
0.225651916626 0.0258778676853
0.243477931181 0.0311179090803
0.249316185402 0.013096746806
0.259265048672 0.0959999310216
0.271833517761 0.0419932392054
0.286158703038 -0.000717961213202
0.297754778512 -0.00250670666257
0.313207191337 0.0225916060483
0.327223689384 -0.0214652173511
0.343400673639 -0.00551696817755
0.360463910435 -0.0348633531552
0.376997216361 -0.0429569887174
0.392244480899 -0.0136978410096
0.412634247671 0.0480751609846
#8
-0.475832182209 -0.0378301627874
-0.449794840291 -0.0809665253995
-0.430352826589 -0.0815038809312
-0.413659508223 -0.042367004525
-0.389002944775 -0.065875863759
-0.365351600613 -0.0874775726381
-0.348657486703 -0.0383656936965
-0.333320800159 -0.0363766075649
-0.305776575635 -0.0663518969912
-0.280250293683 0.0127728973814
-0.249197323344 0.0155293309326
-0.235793139887 0.0115628445397
-0.192091505819 -0.0764083106156
-0.175471582881 0.0195507579913
-0.135588079389 -0.068220040069
-0.109684956493 0.0717989381952
-0.0930970500318 0.0798036595984
-0.0758486674105 0.035538491331
-0.0495204746658 0.0101993911905
-0.0320263779764 -0.060536365318
-0.0151803297706 -0.0121549811799
0.00330556307457 0.0450772462972
0.0257718333368 0.0844544257555
0.0418997055696 0.0198109646461
0.0488343661593 0.121468660419
0.0659795354683 0.0155325999308
0.0822720784815 0.0321055494179
0.0920966670846 0.0396923728908
0.103968363746 0.0401486819428
0.122921452923 -0.0633121963456
0.137329998613 -0.0494241884208
0.152887477596 -0.0794974896212
0.158640699861 -0.00665982479464
0.16809148841 0.123305524637
0.191355669276 0.0668133182859
0.20523601051 0.101802846735
0.213111535578 0.087481521088
0.239073489864 -0.0268610054424
0.244066961928 0.00693870117811
0.253919437734 0.0720015660812
0.264820321953 0.0722376903535
0.280766670569 0.0369640928683
0.295699569609 -0.0217313838907
0.312808209211 -0.0642711684367
0.327330312697 -0.0651824050325
0.34137753508 -0.00956601951415
0.36098660577 -0.0682475073218
0.378017992986 -0.068252198226
0.397716901203 -0.0380206396659
0.417938325302 0.0170131577215
#9
-0.419341874483 -0.011224869302
-0.398190094045 -0.0477566610016
-0.383151664639 -0.0643779767882
-0.362554429541 -0.00754987562333
-0.342344888179 -0.0371945130683
-0.318397243051 -0.0728596933517
-0.308739451647 -0.018261424102
-0.293391283813 -0.0241635851082
-0.279405242673 -0.0609730966076
-0.247472423317 -0.0113491337861
-0.233186261319 0.0111924161957
-0.217052007933 0.00593290482811
-0.196204710293 -0.0421481264073
-0.181882959912 0.000680232268249
-0.154834917415 -0.0508292108688
-0.133831802639 0.0347557901847
-0.118946237709 0.0528835703309
-0.0932560992075 0.0169070690388
-0.0707489662227 0.0231877707399
-0.0520665474214 -0.0350603500286
-0.0323277224989 0.0345803079294
-0.00881332799193 -0.00540271930884
0.00727123280997 0.0529099587463
0.0375379577514 -0.0296753629821
0.0566744209108 0.0254803635989
0.0707595419047 0.0241218031884
0.0946135617834 -0.0296716494179
0.105279577433 0.0287424784497
0.12240444104 0.05392259065
0.137949990157 -0.0240816292314
0.157535047534 0.0340726398752
0.17157051042 -0.0247679426495
0.187059153566 0.0493584816776
0.201668098324 0.0299726015257
0.220558798185 0.000853665027832
0.234292606963 0.0144614349151
0.250875562966 0.0354363678441
0.264181965505 0.00292038576617
0.284325058681 0.0159981848954
0.294834932521 0.00101226477456
0.311697511148 0.0594019646598
0.32904993233 -0.000177646961605
0.343538535473 0.0341008035714
0.356894850271 0.0036092206573
0.378668609051 0.0019565627216
0.391824564428 -0.00376642231304
0.408488876313 0.00916899107789
0.428960583052 0.00449659966299
0.447537586889 0.00370856498698
0.45866263936 0.0252922543912
#10
-0.406324657305 -0.00772214115505
-0.391259689091 -0.00726074007938
-0.373284745596 -0.0430250282022
-0.355345462799 0.0261309144139
-0.335006078534 -0.0189086871968
-0.310226087553 -0.0182910519082
-0.296182218559 -0.0454495964361
-0.278625400539 0.00712172106286
-0.256478480374 -0.0234249268408
-0.228220184596 -0.00782308975686
-0.211826646975 -0.0199618079924
-0.19574593369 0.0121557431493
-0.182276286386 -0.00668125205562
-0.167772716183 -0.0439155945328
-0.149549394664 -0.0128076900756
-0.133558724352 0.00911490953572
-0.118332247018 0.010003595265
-0.0957198848862 0.0149760098285
-0.0705504701483 -0.0291659025274
-0.0547375285328 0.0286861157595
-0.033779258139 0.00959644099974
-0.00966164745974 -0.00948839822975
0.00894004414382 0.0694662077259
0.0340081090199 -0.0303521524283
0.0551342875476 0.0211032573136
0.0735510091168 0.0384648916772
0.0943833447245 -0.00158448331027
0.105767306395 0.0249910045505
0.125334359208 -0.00951912242941
0.141266983883 0.0394083279626
0.163870608166 0.0581583903402
0.177358225 -0.0282766796942
0.196708872139 -0.00183066765522
0.215334347503 0.0146967521475
0.22860148358 0.0120562096003
0.244894083493 -0.0146954264177
0.260943303816 0.000549264528253
0.271257644231 0.0247082679738
0.28804576913 0.035340691346
0.300485798318 -0.0266497049323
0.317258095557 0.0468770586011
0.336686634705 -0.0178539742664
0.352207602281 0.0495726320627
0.366334559188 0.0198044950291
0.385776536554 -0.0301873807812
0.400766038237 -0.0158192743705
0.41630717624 0.0372527317423
0.432275515521 0.0230216642447
0.455431499194 -0.0128638020985
0.464281673778 0.0144800735163
#11
-0.430031599755 0.00479000729647
-0.416924372431 -0.00193971371023
-0.394423975273 -0.0335459960882
-0.372535190827 0.0322834576255
-0.349109067259 -0.0245173894517
-0.325703955107 0.0119428339225
-0.306996123045 -0.0367231321399
-0.288386354039 0.0393320345609
-0.252241796942 -0.0282544153653
-0.231204142508 0.0140672330842
-0.203624576835 -0.0471199496262
-0.185135159332 0.0171927978026
-0.170449901464 -0.012585601619
-0.153744418163 -0.0501508153161
-0.140520228488 0.0402661949773
-0.122298677164 0.0382227931116
-0.106276326192 -7.09587083331e-05
-0.0881706298065 -0.0300596641539
-0.0679609851962 0.00801031164756
-0.0524739002548 0.0502606192981
-0.0300390159041 -0.0345671971018
-0.0101529480361 0.0155313979458
0.0145710853238 0.10044263272
0.0304698012507 0.0127578422799
0.0495937971609 0.0597139238847
0.0696482094548 -0.0154894262389
0.086517731101 0.056447156416
0.0984940765461 0.0421963359866
0.118597781135 -0.0322579688212
0.139647376263 0.0546535409871
0.158152433127 0.0785848914398
0.172628396587 0.00345246263536
0.192039509415 -0.0375289197858
0.212869357924 0.0173300825608
0.221690412203 0.039704572079
0.239024107123 0.014388184925
0.254381069519 -0.0358974859998
0.266836076898 0.0250158232792
0.27681753391 0.0284921238788
0.291290877675 -0.0366408151731
0.30468838897 0.00176005802809
0.321575691159 0.0163242039677
0.338866351045 0.0285124782279
0.35389766819 0.0302500451766
0.368305577772 -0.0662387462912
0.383789383645 -0.0293325511555
0.398694742838 0.026357555111
0.40754652598 0.0141426613813
0.430914305992 -0.038566140708
0.446723332997 -0.0126336648697
#12
-0.396327130607 0.0404646624436
-0.386917798094 0.0119062292786
-0.369173023981 -0.0147555092769
-0.351052847194 -0.0162036816902
-0.332058738435 0.0163811425845
-0.315913053376 0.0147070681631
-0.301731617949 0.00481206910982
-0.285409136721 0.0257397136173
-0.258931376282 -0.0327538125452
-0.241282310057 0.00892154507035
-0.218804150753 0.0055616492348
-0.197851692464 0.00362384612816
-0.181527742404 0.00173948028688
-0.167372426201 0.00462332307654
-0.153365311395 0.0660264403259
-0.133512699032 0.024483961841
-0.119089009745 -0.00999746124838
-0.107842281313 -0.0327568751284
-0.0916530022819 0.0533966844293
-0.0759261856142 0.025474712545
-0.0560341008448 -0.026880294956
-0.0389397406858 0.00568291806303
-0.0174427567343 0.0346280910539
7.49981047306e-06 0.0398710842109
0.0186978067366 0.0176064874567
0.0367750783871 -0.0401940829267
0.0495149073776 0.0931687997929
0.0663620223396 0.0413814478285
0.0881912537995 -0.0135461347699
0.10211428436 0.0372247078262
0.113528940585 0.0383926092457
0.132508230703 0.058083665049
0.148344784525 0.00610071989322
0.170843990636 -0.00915384857264
0.180864615234 0.0559243073166
0.203248938158 0.052717035518
0.220831260542 -0.0222248449643
0.237831077431 0.0393777989827
0.256256281993 -0.00781927130995
0.278729027388 0.0263205069925
0.29155819698 -0.0271857377702
0.306974290081 0.0485977442089
0.326873300076 -0.0435749316689
0.340720009051 0.0682740326763
0.355720786259 -0.0318750115786
0.372427467149 0.0195809711121
0.387073542474 -0.0105351448127
0.396660626028 0.00869328589739
0.404879282538 -0.021810222691
0.42352666095 0.0105114633604
#13
-0.374953473395 0.0307049003819
-0.369420207773 0.0477218491704
-0.351064461929 -0.00901728841856
-0.340443814736 0.00703189824094
-0.323803116672 0.0235590025757
-0.308640086887 0.044090651233
-0.293884003647 -0.0042981180918
-0.280003481202 0.041791406389
-0.260268328111 -0.012279659344
-0.246133035812 0.00482937358507
-0.23414129833 0.0215724464762
-0.216482554533 0.023350001144
-0.204326659793 0.00662532054945
-0.189416988106 0.0244683041398
-0.174467314949 0.0100265282186
-0.160594111589 0.0195904785006
-0.14655636892 0.00745599322763
-0.12824117696 0.00808644185822
-0.109810454605 0.00419614230273
-0.0956474517614 0.000550644627867
-0.0842849692002 0.0189224471475
-0.0647238809816 0.00506738901987
-0.0499380866994 -0.00947442678106
-0.0334079922974 0.0159729358615
-0.0199280706841 -0.0125128294648
0.000254884745297 0.00940202211884
0.0133281709986 -0.0021713160809
0.0288213547191 0.0191784705522
0.0458894993593 -0.032615198196
0.0596301140604 0.0165472161233
0.0770912128248 -0.0309944790959
0.0974198302676 0.0125585707384
0.114864978444 -0.0204221976166
0.140578128378 0.0279959339018
0.155378476624 0.0188228933133
0.178310818095 0.0555377753414
0.198923250183 0.0265475437976
0.225911950359 0.0112318954013
0.242196378683 0.0270121203001
0.269672990243 0.0499809582311
0.294905400076 0.0106293030578
0.315675996368 0.0415160747194
0.335751460116 -0.00741991420069
0.358582347087 0.00882849251714
0.372451099405 0.0213113174385
0.39443647486 0.0579348390367
0.414238587061 -0.0230402732193
0.425165208371 0.00730646436618
0.435567154275 -0.0153664002961
0.441291405213 0.0147115815252
#14
-0.403101489074 -0.00646220100393
-0.398793911586 0.0500554751159
-0.377685880453 0.0469661858613
-0.365872906554 0.0672062697503
-0.343760156549 0.00646990536533
-0.325680577718 0.0366983144453
-0.30518804045 -0.0181860120952
-0.289913646679 0.069287879464
-0.269685793435 -0.031794006355
-0.259781086508 -0.0103405086733
-0.245892562684 0.0177613696304
-0.226603441308 0.0349058297838
-0.209325382793 -0.013492217062
-0.194751260835 0.0317029238126
-0.182786860672 0.0416680276849
-0.167094170816 0.00267677209139
-0.153976064589 0.0337101759993
-0.134121931786 -0.0340554638814
-0.11648159635 -0.0447789068214
-0.10769052316 -0.0249112101602
-0.0970233523894 -0.00308678808784
-0.0822676668532 -0.00140012724742
-0.067757442208 0.00690011688564
-0.0517982871713 0.0307542923546
-0.0363411294777 -0.0447221648984
-0.0219235040871 0.0437566591723
-0.00351745245223 -0.0550385506701
0.0135300455046 -0.00647179972986
0.0287249034451 -0.0433055140822
0.0427632743904 0.04089213209
0.0622304157963 -0.0225182933123
0.0926608941386 -0.0714822718169
0.108213260554 -0.00936460597588
0.134429014721 0.0205493593196
0.149353811712 0.0483521654862
0.171099809026 0.0532971537641
0.195215191157 -0.00221302580965
0.225490118688 -0.0151910897737
0.243008139996 0.00147155983972
0.262774290589 0.0747449469713
0.294177671753 0.0648710548559
0.319724796876 0.03770933703
0.338935373778 0.0376044139238
0.36368145552 0.0276010837678
0.384265848473 -0.0148704466767
0.400704030565 0.0184275351057
0.420235593258 0.000893349964624
0.441255540604 -0.0348976094955
0.465427209231 -0.0671179628006
0.474180686049 -0.0254209637351
#15
-0.427838704142 -0.0231540856786
-0.423454290567 0.0311347123587
-0.400862578205 0.0212623495651
-0.382330157144 0.039351348848
-0.347307865554 0.0105073038757
-0.331213027648 -0.000197269878253
-0.314405160687 0.0300692660137
-0.292993814137 0.0122761440803
-0.278148026452 -0.0361208900244
-0.269520587966 0.0229964313855
-0.251894822111 0.00580613208126
-0.231186447712 0.0255299720505
-0.213504026749 -0.00607981993387
-0.198272053008 -0.00985103102028
-0.18553522535 0.0462996834196
-0.168008289102 0.0141660398144
-0.150982734829 0.0346887825085
-0.141772677433 -0.0275237121205
-0.128906933708 -0.00637945133256
-0.118723741542 -0.00798512831889
-0.102657116292 -0.0186842663684
-0.0875634588778 0.00518669958187
-0.0763152052634 0.0222023951141
-0.0562400312692 0.0185174023854
-0.0428789321648 -0.0362501327854
-0.0266415425376 0.0354123367119
-0.00978674635696 -0.0295874472515
0.00716300593034 0.0262381736485
0.0262099668874 0.0315271545347
0.0517232541499 0.0648210058804
0.0706281286673 0.0475415446441
0.108113927827 -0.0735732799614
0.127915961562 0.0427735906853
0.144610777235 0.0127998002297
0.159818951713 0.0768030196477
0.18858335292 0.014494876417
0.205796967262 -0.0292410659182
0.222973254883 0.0148746068293
0.252561733138 -0.0213027277126
0.268916452924 0.0209288700458
0.285988704574 0.0692884315495
0.307070503329 0.05248025869
0.328308445568 0.00602552900955
0.345700941479 0.0429049175347
0.3665042583 -0.0478381352431
0.373453957691 0.0125378275289
0.392991925907 -0.00651194720546
0.409696008448 -0.0353567147616
0.43761193327 -0.0663967187912
0.455652396996 -0.0305187395496
#16
-0.434353822484 -0.03598192548
-0.426504716347 -0.00627996014323
-0.405256130456 -0.00952595331605
-0.382935097727 0.0030729804525
-0.351005544388 0.0148109537845
-0.336108811968 -0.00509726703683
-0.324161532968 0.015226748933
-0.301024028056 -0.0377832884295
-0.285799887192 -0.0020489572119
-0.27128328161 0.00111218023011
-0.257109643244 -0.00546357613657
-0.243076684549 -0.00895122093533
-0.224570567007 -0.0136620647148
-0.207136853283 -0.0137876418943
-0.187532920111 -0.0112618715981
-0.173024174938 -0.00145969169768
-0.158418312235 0.0205805226477
-0.141764478875 0.017596485226
-0.122749579284 0.0283390404009
-0.108244719863 0.0109820940941
-0.0936364219607 0.00590458799426
-0.0773275885704 0.025542229248
-0.0606298412686 0.0334105385536
-0.036716852481 -0.0281340200119
-0.0250662080777 -0.0167299515234
-0.0053527268275 -0.0350916141533
0.0074835261442 -0.00149207453163
0.0169696664082 0.0436745671088
0.0410163728823 0.021026642254
0.0649991395984 0.0111686882275
0.0829021462094 0.0373077375037
0.105340605006 -0.0192360852186
0.134080441108 0.0164437131572
0.150622870172 -0.0018980770665
0.162714048315 0.0310576360592
0.185200275528 -0.0226341907055
0.205109027434 0.0262117095196
0.219685794447 0.0307650412597
0.25072480599 -0.0555080822729
0.260141444671 0.0102766320824
0.278985727737 0.0172525548942
0.292530876845 -0.00614346275662
0.310982351976 0.00156995778379
0.327329052175 0.00425511548816
0.34416688522 0.000138950217225
0.353369705892 -0.00738548531264
0.374502380518 0.00536462211384
0.388807436494 -0.018789297688
0.410022370158 -0.010220521914
0.427729941007 0.00251001044914
#17
-0.425797852965 -0.0114058887573
-0.41600115158 -0.00404146537985
-0.39990631969 0.0134930346693
-0.388992019636 0.0172996673905
-0.366422906197 0.0220337343253
-0.349214898234 -0.00245703650181
-0.333731616682 0.00447509152152
-0.317052948151 -0.0272595725006
-0.298468788182 0.0250101642873
-0.280006926498 -0.0155213889865
-0.266278355578 -0.0252847977083
-0.248619474618 -0.00788484050254
-0.229511582796 -0.0331910311761
-0.214122776483 -0.0168312322429
-0.192388647792 -0.0174001821061
-0.178179507935 -0.00299265054295
-0.163156682503 -0.027873790723
-0.146207368108 0.0170952838731
-0.121567677917 0.0335381070741
-0.102765648838 -0.00815433737381
-0.0911307093951 0.00300528742838
-0.0767150513708 0.00853956546754
-0.0537741998384 -0.0125519376527
-0.0290799214017 -0.0170310030898
-0.00806833524001 -0.0122500957023
0.0105058750598 -0.00910005834243
0.0292762182465 0.0187907706852
0.0441617257126 0.00128681538605
0.0631376128849 0.0119348249183
0.0774478788302 -0.0394658331225
0.09062139339 0.00323006681414
0.106573309952 -0.0259207256884
0.123332414465 0.025591755138
0.146092557663 -0.0245964926605
0.155750073265 0.0106128718568
0.174830148589 -0.0322652515652
0.19936429409 0.0218476340697
0.213584584108 0.00553867195916
0.231531662581 -0.00724641708041
0.239443835071 0.0278948590608
0.265057285124 0.0148606619669
0.278762571314 -0.010230116047
0.294836193268 0.0498006894402
0.318214999869 0.0119449575475
0.33785981356 0.0325960843695
0.353950664089 0.0061023059581
0.375521469978 0.0335752385608
0.394630359685 -0.0206010463964
0.412069926023 0.0246393887988
0.418785279664 0.0314426958743
#18
-0.430196732778 0.0256394371513
-0.421483683648 0.0394218476676
-0.404338362591 0.0243189966527
-0.393308892192 0.0283037765224
-0.374363991914 0.0269930072172
-0.357966960198 0.00855753153337
-0.341309204762 0.00344675280806
-0.328055611551 -0.0190802916599
-0.313955515392 0.0563202414113
-0.296334525668 0.0186873102786
-0.280513027992 -0.0278052162742
-0.258373974267 -0.0121378678161
-0.246838609882 -0.00470455862177
-0.232608429132 0.0133600355665
-0.209728677488 -0.0174779782486
-0.197689365952 0.0209802363886
-0.174204704855 -0.0562854311569
-0.159360923602 0.0378433002404
-0.137443547627 0.0428155991407
-0.114573516041 -0.0196412297654
-0.097479140686 0.000960600023265
-0.0810589916356 0.04355974398
-0.0550414959377 -0.042115210938
-0.0283354907505 -0.0122118024417
-0.00677584580139 -0.0140035297476
0.015198061332 0.0218094354924
0.0369638106786 0.0197747674981
0.0576133436574 -0.0273312513779
0.0701405535625 0.0663262259942
0.0882512950697 -0.0784113144484
0.102142715487 0.0178121047897
0.119800037343 -0.0310428831817
0.127925842152 0.0352370863437
0.150804576625 -0.0505065937608
0.163071112925 0.0328723437855
0.186069521964 -0.0505886351501
0.203499548572 0.0365617900385
0.215398930426 -0.0123547927636
0.228024176734 0.0658888848328
0.241506553161 -0.0138965786808
0.260383408658 0.0497384116525
0.278855675898 -0.000347763174589
0.292752011871 0.0716439493291
0.316287717186 0.00311174024241
0.33801544823 0.0641690075003
0.355299959528 0.0352987098158
0.374548694525 0.0374859281611
0.390382097818 0.0115745339945
0.413498312408 0.0603618860317
0.419866565272 0.0655327454249
#19
-0.460352166771 0.0190428517406
-0.453045106801 0.0242972856381
-0.433036916867 0.0197814838137
-0.422033842077 0.0456802134002
-0.400508571149 -0.0153452241699
-0.389673505546 0.048510750509
-0.375097976098 -0.0100604971251
-0.357978540126 0.0326839795878
-0.338063460455 -0.00861135748254
-0.325605777538 0.0428575800615
-0.300537527807 -0.0337404723097
-0.291195397245 0.0439354896457
-0.268771018702 0.00961814199993
-0.253888205026 0.0340338914771
-0.228151919644 -0.000960923820991
-0.211949640327 0.0525078024146
-0.182911347014 -0.0288037817766
-0.166679068094 0.0653548014698
-0.145443761869 -0.0231391147906
-0.130561263721 0.0263459700137
-0.108267216807 0.013725229173
-0.0809820617407 0.0193945173329
-0.0595966304267 -0.00146498535735
-0.0301080578849 -0.0478287851247
-0.015640929354 0.0358290617435
0.00982715511571 -0.0694976667672
0.0292027542402 0.0247040763726
0.0556330688752 -0.0629813636818
0.0763250414692 0.0700936531579
0.0937365005084 -0.0633752057028
0.112933452798 0.0605819553431
0.133849496973 -0.0634885305228
0.148555950189 0.0485009786441
0.180100576039 -0.0881152052185
0.195317214393 0.0446339736954
0.214845839218 -0.0697792879405
0.231264120802 0.0428695684543
0.252080389019 -0.0369093601184
0.265631295851 0.0525253030167
0.288411876044 -0.0244077914477
0.297261578609 0.0555891493354
0.325099261817 -0.00636722587931
0.334019085579 0.0354808136141
0.352968613749 -0.0280625280524
0.363769009515 0.0667653426274
0.374831795923 0.00953464080708
0.385543155221 0.0233034823375
0.397130005956 -0.00871753755884
0.414906408655 0.049946974669
0.422923170442 0.053634825799
#20
-0.461680864447 0.0175742240944
-0.455565750759 0.0488068986505
-0.427345781767 0.0305585160462
-0.419134516767 0.0532126250579
-0.394609039028 -0.0132460568669
-0.382298490276 0.0694912251528
-0.368817141447 0.0124795595178
-0.349725580732 0.0419779647044
-0.3349638736 -0.00525932349826
-0.320189237325 0.0104975214633
-0.301451936958 -0.018343412458
-0.293576924409 0.0770217823874
-0.272354115251 -0.0148839158798
-0.258731678369 0.016417464924
-0.239375465128 0.026918680767
-0.221462052055 0.0536572123517
-0.19617017874 -0.0199022065936
-0.180838319905 0.0322729629464
-0.157062408835 0.00286416411645
-0.13501130641 0.00585002946251
-0.11633542681 0.0126711099232
-0.0881953120597 -0.0186984985744
-0.0705866971558 0.0415794518403
-0.0432894279527 -0.0182860299892
-0.0176249868721 0.000886788951707
0.00580929342411 -0.0896938779755
0.0310636205817 0.0416428319324
0.0609964942258 -0.0573710559338
0.0876556081227 0.0472636197625
0.109505205821 -0.0696732902184
0.12568774472 0.00364545890416
0.144628993698 -0.0143407363182
0.161326486654 0.00640772522865
0.19524593228 -0.0964012605403
0.209651263387 -0.0134206717319
0.231236389551 -0.0870309256798
0.248921905992 0.0116511524293
0.266040890157 -0.00400713681917
0.285887993609 0.023693313637
0.303460946877 -0.0179891095048
0.315055367133 0.0169605511364
0.33806318756 -0.0177884877641
0.351516134979 -0.0156090971076
0.366941739363 -0.0295743113267
0.377589203665 0.00397440422831
0.387666362113 -0.0305596230516
0.401286190058 -0.0171160654991
0.413386383889 -0.01944175826
0.430900123436 -0.0146005300447
0.440145809651 0.0160406725502
#21
-0.483044388409 0.076400730389
-0.468357576464 0.0764092942547
-0.447849742319 0.0488074976565
-0.437669145279 0.0864858394848
-0.418561086403 0.0671031646991
-0.400359804308 0.0685086924148
-0.388060068626 0.0184361332757
-0.36377715636 0.0785710505225
-0.335711776145 0.0681401407398
-0.314302480481 0.0143698995445
-0.299855533385 0.0285000744239
-0.279509502926 0.0965811233831
-0.258220652398 0.00553998315825
-0.243066409471 -0.0225125290074
-0.230287998668 0.016996430291
-0.21190340094 0.0486827522756
-0.188901178067 -0.0637067256184
-0.173690964057 -0.0231769573892
-0.139382722004 0.0342220088299
-0.11743721281 0.00307401688107
-0.0959321253898 0.00992694771719
-0.0742412527401 0.0097908374153
-0.0497558960108 0.0527529223495
-0.0245098976957 0.0166615291983
-0.00176257375463 0.0505862685037
0.0262128461924 0.0034233725445
0.0616004818088 0.0529525126153
0.0879333897836 -0.00337266930666
0.114306164303 0.00969850276356
0.138494776409 -0.0709923305131
0.153146911184 -0.027697097439
0.169780011314 0.0465319845212
0.193601795478 -0.0985181514423
0.217037789679 -0.0621031330826
0.229012953334 -0.0337842644361
0.245997276237 -0.0413579477541
0.26104827581 -0.0116118790071
0.270426944321 0.00419168761279
0.287480744607 -0.0508968111134
0.302443200914 -0.0744873128413
0.31445967289 0.0082769061111
0.330182227284 -0.0595801326296
0.343757098263 -0.0723116234183
0.355798846076 -0.0777916723305
0.368431126544 -0.077388001652
0.378755261187 -0.0882521964967
0.398022415487 -0.129172310613
0.416257244334 -0.124602832686
0.428796331831 -0.0653068567136
0.440869931986 -0.0210661988279
#22
-0.486124568394 0.102118607362
-0.467018415388 0.0695134249662
-0.453876244406 0.057329914476
-0.441600797776 0.104936359716
-0.424023877576 0.0725373449238
-0.406969611981 0.088476976437
-0.386755869886 0.0340586236608
-0.363064122042 0.106863695853
-0.332869804848 0.0701130196931
-0.312652167725 0.0448617959715
-0.297816487387 0.0563473960123
-0.275611622902 0.0895686429914
-0.255316792346 0.0245611094753
-0.239090438865 -0.0320310448265
-0.225441598263 -0.00916160770509
-0.207961025733 0.0345296171157
-0.185731717095 -0.0782609251516
-0.16871951376 -0.0403452891064
-0.134123963163 0.00746403154914
-0.118621530689 0.0222150892942
-0.0958631272451 0.0210586951043
-0.0743485243781 0.00188913947304
-0.0400407281758 0.0264886695075
-0.0137180894771 0.008737379028
0.000614241181144 0.0866972634114
0.0330742500919 0.0547189304891
0.0676167765547 0.0461437843425
0.0933165687859 0.0165147846337
0.113686563948 -0.0387695695043
0.138592085819 -0.0711449800845
0.160319993654 -0.00410269440544
0.17629582172 0.0717124437826
0.202107388258 -0.14115507875
0.218529560418 -0.0459996111689
0.228870077447 0.0120290131048
0.242587779837 -0.0356368156877
0.257447414721 -0.0492454526478
0.268980436218 -0.00828995837367
0.282445008073 -0.103126712855
0.300571634647 -0.0813930708632
0.316185568698 -0.0122782402613
0.332116657785 -0.113834291377
0.342548455004 -0.061229168712
0.356236849132 -0.114020020065
0.365821689438 -0.113837268756
0.380138136411 -0.0946554939925
0.40038397636 -0.195804780135
0.418348134729 -0.202648711087
0.428886819352 -0.107369975611
0.44211912432 -0.0350381796494
#23
-0.449009110505 0.0531607360493
-0.435833478247 0.040449469288
-0.424083587633 0.0658708009186
-0.405179889047 0.0519815344821
-0.379573685382 0.00439958711886
-0.367109753364 0.114240572651
-0.340565800791 0.0364453448449
-0.324742657759 0.0999239422376
-0.308005045635 -0.00901556708241
-0.291229949475 0.00567790388308
-0.276197300687 0.0798895598797
-0.260238918835 0.0567834259416
-0.24008782826 0.0361075474942
-0.228676866626 0.00145749029285
-0.208210658508 -0.0340616266391
-0.191223587324 0.0525813331628
-0.164834155834 -0.0256771028103
-0.142287828428 0.00645393302481
-0.119314192256 -0.000341301919571
-0.10118785145 0.0356799264364
-0.0840722681718 0.060860338813
-0.0634661821751 -0.0790011073057
-0.0378101784456 0.0353652554784
-0.0166924698229 -0.0305583566978
0.00143080270854 0.0640236270059
0.0348496833248 0.0197969397139
0.0631840694124 0.0330179315006
0.090951529749 0.0228836016664
0.105711917099 -0.0196374568203
0.131037413262 -0.149927774396
0.155634984773 0.0203625702293
0.170774174212 0.083470808282
0.192402521539 -0.148914010912
0.208832492842 -0.136136869549
0.227031120148 0.000343348793839
0.251520544071 -0.0660911522343
0.267190829898 -0.0975067365422
0.289801382101 -0.00837894936061
0.305470685919 -0.096473403388
0.331491411241 -0.0923625110318
0.350761288105 -0.0619484581494
0.377915071581 -0.233967567617
0.424367758144 -0.119490580818
0.451980397758 -0.209292571184
0.481573277615 -0.265699503229
0.522136694039 -0.2095602973
0.534702379553 -0.315587040937
0.570142567091 -0.345098937742
0.584066948006 -0.334052435053
0.603824049931 -0.21085887873
#24
-0.44223726041 0.0318705922154
-0.421333232083 0.0279172566388
-0.400067597932 0.0291551069562
-0.376464738098 0.0212374014785
-0.352162130033 0.0268022691672
-0.335261778627 0.0647169664223
-0.309793080843 0.0249771961462
-0.295186233448 0.0177256500653
-0.276723640924 -0.0217680027691
-0.26130415097 0.034246876122
-0.245825120721 0.0665213277712
-0.232977060927 0.0631468104978
-0.213862455874 0.033024201503
-0.200085506113 0.0735625482973
-0.182544665965 0.00792667795459
-0.158502177571 0.0889631823464
-0.133451490849 0.00655462440075
-0.111133973309 0.0994296837339
-0.0882217647584 0.0293532819827
-0.0757479204957 0.0765494027084
-0.0566858046729 -0.0537140772621
-0.0421189156521 -0.0746430662019
-0.0270338039919 0.097407298956
-0.00803131770395 0.0215685090158
0.0141731640546 0.0483114042687
0.0399570290741 -0.0884692372484
0.0542048375 0.0251303727286
0.0774691071582 0.0492073918774
0.0902171315523 0.021455003047
0.115321264276 -0.0446216044368
0.135342061653 0.0455026050179
0.148537479655 0.0129285467472
0.167731663012 -0.110746567571
0.184122342404 -0.056796530431
0.20818538497 -0.108868968939
0.230519082643 -0.00442345039121
0.258631202945 -0.0751057172306
0.285164403515 -0.0383724484018
0.309963167083 -0.13230499852
0.331990231812 -0.12793590333
0.350193193101 -0.114682807737
0.379869212652 -0.280038154999
0.444899510026 -0.253079997803
0.472756195286 -0.251898346498
0.50803145428 -0.385990669859
0.554594919283 -0.335381079793
0.563226369771 -0.325767093938
0.595793428992 -0.39365176112
0.60798271095 -0.40173989278
0.624708135239 -0.332413186155
#25
-0.389691063807 0.0259810846248
-0.371653459391 0.0560868142227
-0.349766837742 0.0259446935414
-0.320702323781 0.025227940172
-0.304391290596 0.0705243614243
-0.288531751551 0.0303469907176
-0.268066958073 0.0201994145961
-0.256580045959 0.0214816670517
-0.248140661855 0.0652287399829
-0.234111776002 0.0424049383984
-0.223822311944 0.0709710467953
-0.211255099945 0.0310883337268
-0.195852673259 0.0345260112108
-0.181427625163 0.097384873204
-0.162526879798 -0.00526331422192
-0.148857953395 0.0579969519433
-0.128582759087 0.0380877456641
-0.116605936674 0.0819998575142
-0.10057770544 -0.00545209797273
-0.0930781229409 0.117087718633
-0.0796208835966 5.76885829126e-05
-0.0619471536781 -0.0397655016878
-0.05237277793 0.0951754757002
-0.0369536500304 0.0453238653884
-0.0236321442237 0.0312976380798
2.53829480521e-05 -0.0464721270896
0.0130699921359 0.0477920940242
0.0268164361565 0.0346676298137
0.0437145509549 0.0252298021341
0.0647469113882 -0.0532392816453
0.0785186790484 0.0552615430859
0.094605694623 -0.00431554655821
0.118449040217 -0.0343175403483
0.146921284601 0.0204218906928
0.177079089164 -0.110499690845
0.202476789449 -0.0440728571278
0.22660627818 -0.030765187412
0.253356311143 -0.0241100669756
0.287359774696 -0.0627406950073
0.319007206803 -0.0766649434282
0.339685052943 -0.135368828943
0.366339822658 -0.178349472811
0.410523016996 -0.176543050918
0.438558774732 -0.145852434676
0.468865187547 -0.241357464135
0.499885929832 -0.20909697614
0.515968655858 -0.19161579084
0.55003845544 -0.207583488971
0.577793182805 -0.224984700158
0.588079128363 -0.183098028312
#26
-0.366184969971 0.0758708027664
-0.350854027687 0.0298641817047
-0.338388850072 0.074217190437
-0.318986385935 0.0370918120235
-0.302516138044 0.0918280645586
-0.287218242578 0.0312945550983
-0.274415895623 0.0511455789071
-0.258750540192 0.029466824387
-0.25300873568 0.109037265049
-0.231432287915 0.0560708376939
-0.224971209741 0.035196827276
-0.210370623398 0.0757169506667
-0.196926147081 -0.00832070072963
-0.180925018919 0.0431445251878
-0.165763770626 -0.00546481467131
-0.153336306297 0.0994412753683
-0.138853365289 0.0103257557989
-0.125338113914 0.0403309921973
-0.112067534852 -0.00294938069361
-0.0983190037029 0.0691964677444
-0.0917473596843 0.0708865969083
-0.0697236052372 -0.043732411087
-0.0613289031026 0.0652005478179
-0.0431995817293 0.0488142360442
-0.0338497666319 -0.00676114087882
-0.012525378613 0.00517428564205
-0.00187556136131 -0.00686145502127
0.0157243722001 -0.00392837651654
0.0302962783035 -0.0495244683428
0.0513036320115 -0.0301644621007
0.0744431433556 -0.00622684687835
0.0930679650005 0.0085352773049
0.118883774781 -0.0325952129737
0.147611740691 0.000409487992917
0.167042077991 -0.0940145727336
0.190625950606 -0.0314148753165
0.209941806459 -0.0176358166792
0.242072393271 -0.0247640132724
0.265485721712 -0.0390760571022
0.306100807286 -0.0438697392678
0.323753064868 -0.0961228682221
0.351668766436 -0.0805892189276
0.381619770375 -0.085605000185
0.411898286178 -0.0745340816188
0.432626635204 -0.101952057006
0.459907566261 -0.0887693654278
0.490465757157 -0.0867921504444
0.524962398425 -0.0774301850204
0.552963941038 -0.0751815808679
0.560985730022 -0.0544950484042
#27
-0.35886880554 0.095253332241
-0.338781808144 0.0442760382606
-0.329608380042 0.089825050522
-0.30989509599 0.0719574344785
-0.292078839087 0.0639909952261
-0.281861272266 0.0640049859375
-0.265631843615 0.0736086449042
-0.244757467662 0.0357280876021
-0.237650701621 0.0554865953491
-0.218172769721 0.0604283326132
-0.208673083683 0.0411993399793
-0.193056035882 0.0370305585201
-0.182254114055 -0.0439598121849
-0.166849542501 0.012710293993
-0.155891189832 0.0254338321007
-0.144241894486 0.107021445664
-0.134098740648 -0.0288505147605
-0.113607334305 0.014141532724
-0.101909833226 0.0303086667975
-0.0882133319484 0.0561654910014
-0.076594236554 0.00994430479179
-0.0568196952628 -0.0403090809049
-0.0460736009466 0.0633336687073
-0.0184307228366 0.0270713850509
-0.00488938217015 -0.0338470972932
0.0139762196816 0.010002222213
0.0271993652033 -0.0355100311744
0.0481362732789 -0.0167085829304
0.0632281891835 -0.0740727297573
0.0807708965206 0.0133867295367
0.105570573185 -0.040234897714
0.126919821501 0.0156911266669
0.150325953782 -0.0526133275241
0.176774294883 0.0107762910881
0.189263045425 -0.0702259410446
0.213430262628 -0.0202624647453
0.231076702776 -0.0305034644079
0.263336635549 -0.028593560424
0.278540563821 -0.0597187931749
0.307439456121 -0.033605508571
0.325778030801 -0.0631502126543
0.351116009967 -0.0788531843631
0.373293855731 -0.0170639353579
0.40300870296 -0.0867423752967
0.427319062464 -0.0345322987757
0.455320032915 -0.057859259158
0.481764596573 -0.0455390425219
0.511599991543 -0.0330433135987
0.531813353358 -0.0152479643976
0.539368525747 -0.0116588691218
#28
-0.372933614016 0.0474993630814
-0.359156874761 0.0451942150634
-0.349469362707 0.0547945041076
-0.328135218133 0.0759073032224
-0.311226561644 0.0197004317862
-0.303396272392 0.00868009889586
-0.287317889112 0.0527385865883
-0.267054117745 0.00305898493102
-0.259116006331 0.00462612677414
-0.246465787485 0.000537091987705
-0.235027447867 0.0378156147607
-0.217512086096 -0.00158386737579
-0.208191316019 -0.0270682271706
-0.195877533442 0.0108806459853
-0.177730998495 0.0378468916731
-0.163096183193 0.0376954686393
-0.153351157276 0.0173101833746
-0.135547795316 -0.04400425438
-0.117882320909 0.0323874518427
-0.103961110665 0.0584732592526
-0.0843018845426 0.0379126726967
-0.0625485598719 0.0219587409312
-0.0420588194312 0.0565899997541
-0.0165758932542 0.0453778582489
0.00833374201113 0.0300413972447
0.0342914503154 0.0512085017131
0.0714504735163 -0.00769818262659
0.0915210719224 -0.0163828616616
0.111207954091 -0.0400602259016
0.129968726402 0.0381427801741
0.150844254946 -0.0645329171074
0.176630321783 0.0439897764659
0.196733201678 -0.0384343603363
0.220241697061 0.0454311288518
0.23612832909 -0.0524915884918
0.261488212151 -0.00497335590409
0.280339418247 0.00912837974596
0.307205934323 -0.0567485385325
0.320005555844 -0.0568570754519
0.337766995444 -0.00196174769188
0.352727699481 -0.0129697726261
0.375846888838 -0.0463722647521
0.387507426846 0.0338991787118
0.408416430147 -0.0541544101232
0.436912969625 -0.00709473488325
0.457686761911 -0.0165580993712
0.4711946104 -0.00767006374222
0.494204661445 -0.0148478409116
0.507836594913 0.0198635867194
0.5138355118 0.0293467244988
#29
-0.406990901543 -0.0446137784003
-0.393285599257 0.0290973158286
-0.382189174293 0.0528742181913
-0.36718716917 0.0127207874518
-0.351258423327 0.024755393735
-0.343016060502 -0.0598843319177
-0.333929471094 0.0977046183222
-0.316616367505 -0.0423332927545
-0.310052444517 0.0388541110909
-0.295839387982 0.0485809863506
-0.285507747111 -0.00441000223268
-0.272062855113 0.0756718852063
-0.257332299127 -0.0233517881203
-0.248075828458 0.0125395769976
-0.231118070116 0.108451701935
-0.210127548813 -0.000958884455901
-0.197099898715 0.0561451851077
-0.182698855731 -0.0376941727314
-0.160720509861 0.0677155883647
-0.146138852734 0.0336461498052
-0.120578704652 0.0677203733314
-0.0949270010217 0.112760510492
-0.0746364283956 0.0518897597132
-0.0505779928582 0.167775526281
-0.0121093328028 0.0798669870244
0.0187637307994 0.0851458426077
0.0552994420792 0.128044524992
0.0833511902146 0.00897882214717
0.116928787064 0.0671850141889
0.143656105483 0.0197732229384
0.166648246304 -0.0372396476021
0.20306066607 0.0846005606716
0.224181476584 -0.00426515577976
0.247097318724 0.0135102598774
0.261316177548 0.0603504643744
0.284041272217 -0.0203868505315
0.304786635802 0.081939119701
0.323797071059 -0.0555676395488
0.339086170002 0.0135236437419
0.35519153428 0.0072412178207
0.374436612888 0.0092350521724
0.393673411838 0.0458661231088
0.406360009569 -0.00272753030187
0.421533949304 0.0370437721804
0.436661633761 0.0114327854287
0.451678506795 0.0593646893894
0.468251438358 0.00488715259592
0.481912261654 0.0291973172535
0.497283451241 0.0573295036413
0.50709030351 0.0939562367131
#30
-0.40997871513 -0.0835876238588
-0.396873835354 0.0204743547457
-0.382476265883 0.0246844164127
-0.372905478214 -0.006284945232
-0.356783044501 -0.00207045202903
-0.34910417704 -0.0632173057757
-0.339028429886 0.0527799142063
-0.327350093006 -0.083135775872
-0.315966700193 -0.0332198803321
-0.304312903277 -0.00238693093722
-0.29588688385 -0.0295530834329
-0.285138320706 0.0412103298381
-0.271040714207 -0.0734549846867
-0.264940290623 0.0319731819925
-0.250885526331 0.0356519866199
-0.23483641139 0.0248296195235
-0.22040232843 -0.00152960905073
-0.206417260053 -0.0309846208484
-0.188719689179 0.0832369791368
-0.175267201805 0.0347385577092
-0.15095808048 0.0268413024962
-0.127539688494 0.128108300557
-0.109946959049 0.11028698501
-0.0818362503297 0.19473440225
-0.044235864138 0.120457979481
-0.0174712843759 0.127258762882
0.010530324306 0.151422589644
0.0418546018056 0.00606702352504
0.0882167119002 0.0934044231029
0.145623259989 -0.00892924466038
0.172066607289 0.00880871195892
0.204962918784 0.050790951582
0.225887419787 0.0212444614768
0.25023038476 -0.0127131350708
0.268315464826 0.0979722048884
0.288659336663 -0.0108266946685
0.3077130922 0.0759477812586
0.325189575003 -0.0310644139948
0.344897783857 0.0433176742393
0.364205903818 0.0723205259864
0.38745802231 -0.0226008225161
0.402821411774 0.0889138905959
0.419195452895 0.0074440199516
0.432285792834 0.0681813493442
0.445204813924 0.0292020504255
0.457412561769 0.12231443546
0.481103894007 0.0321330284632
0.488132698481 0.0833654831641
0.510375045874 0.0809377272009
0.519806255129 0.124633509208
#31
-0.403341049011 -0.0464448988677
-0.388330114275 0.0181581558736
-0.373869269121 0.00944904869068
-0.36353935396 -0.0105213451657
-0.348794618608 0.0208157637243
-0.337101450248 -0.0360888037559
-0.325494438436 0.0163620026278
-0.314273348542 -0.0970927040225
-0.29956357242 -0.0668010175342
-0.288120863491 -0.0482866038315
-0.280755669884 -0.0197397573216
-0.271320575678 0.0106677201944
-0.254480308833 -0.120123612488
-0.251799533152 0.0252761089756
-0.237995791349 -0.0325346963335
-0.223824058842 0.0245480139166
-0.209333651586 -0.0696642476917
-0.199266221786 -0.0410013247229
-0.188624991934 0.0805430154028
-0.169212132679 0.0885830792241
-0.146062018529 0.00572049218405
-0.126631353397 0.0950552803642
-0.107491226849 0.156788642494
-0.0789744862153 0.0811558379363
-0.0572740266139 0.166461203729
-0.0226115862193 0.115809438152
0.00373675046655 0.0793811043342
0.0254358305752 -0.0229953495229
0.0572436381983 0.047541844913
0.114364316657 -0.0710127738095
0.136421954165 0.00392929312135
0.174525396901 -0.0777068431549
0.184996963454 -0.0152840802773
0.209868711371 -0.0200495003155
0.235079857606 -0.016366567486
0.249481244914 -0.0208429253678
0.268947697632 0.0433102596581
0.28881027823 -0.01146951439
0.307406635717 0.0101931172504
0.329448506219 0.102034040987
0.347932453967 -0.0416593936716
0.371275897141 0.0688396846861
0.391781705342 0.0601784439889
0.410895925755 0.0758595069668
0.425289842162 0.0166047541801
0.440802677424 0.12253637541
0.462534789416 0.0883884722841
0.48357180682 0.0717917344461
0.51228015947 0.0267825063162
0.514863753803 0.115048075502
#32
-0.398881002646 -0.0471129156094
-0.383425866534 -0.00376773933315
-0.371275196505 0.00340212187986
-0.357427034484 -0.050582530367
-0.349517254088 0.013947511945
-0.336573066118 -0.0501471587238
-0.325535591607 0.0482731311931
-0.311298980712 -0.0686164794949
-0.303415425413 -0.0347155029964
-0.291407373829 -0.0170994583824
-0.277396135643 -0.0338565528226
-0.272208860447 0.0270681045239
-0.251779179433 -0.115726123854
-0.243753574349 -0.0595381441738
-0.236165955116 0.00957220848661
-0.225537476189 0.00149014221844
-0.208207614597 -0.0605298917778
-0.199749140133 -0.0276891333714
-0.186092342353 0.0461431890879
-0.168441742707 0.0216163021967
-0.150688719043 -0.0760858324733
-0.139774200275 0.0174274414824
-0.127956797782 0.0617148308361
-0.107078638273 -0.0265410944352
-0.0910441143739 0.06908136129
-0.0618948432247 0.0128459924667
-0.0532983228919 0.00802976274191
-0.0326955002669 -0.0541059954313
-0.0179317525152 0.00822683107796
0.010547084078 -0.0696163021544
0.0345651738062 -0.0129862574711
0.0682709970686 -0.0606312205278
0.0944177309521 -8.54803010341e-05
0.126917717402 0.00883949338471
0.15286163548 -0.0194842311377
0.174881175608 -0.0137548449443
0.20676968775 0.0145975193862
0.233446007798 0.0227094204639
0.251833261881 0.0292972660227
0.284779795816 0.035289024443
0.319322652863 0.012008763215
0.343161607316 0.0372815796088
0.368349526163 0.0505307983982
0.390342220836 0.0713606954802
0.403102236506 0.0384109051391
0.421786329868 0.0608120184686
0.443791983514 0.0635479584007
0.472482023716 0.0169244175988
0.496738202476 0.00353621626819
0.509127032972 0.0763422520225
#33
-0.38061189046 -0.00443831839282
-0.37126583402 0.0178532102671
-0.3583389938 0.0206796116379
-0.341155718694 -0.0312457065846
-0.33625653554 0.0199552561883
-0.318677499948 -0.0400730334324
-0.303872621879 -0.0372910017393
-0.291076703618 -0.0775329735354
-0.287750957099 -0.00515444472537
-0.275219564023 -0.0149903695646
-0.255805533601 -0.0323589816355
-0.245849897955 -0.0581644590047
-0.235261449948 -0.0488805625105
-0.223746295149 -0.0991255951228
-0.214594833059 -0.0543754007197
-0.206271754586 -0.0312269113711
-0.193700486423 -0.0367317612152
-0.182694851055 -0.0554532303889
-0.172813123832 -0.0170428175584
-0.159351709121 -0.0884972122168
-0.149405050103 -0.0606336526701
-0.137374542885 -0.0753440980792
-0.12570434589 -0.0757327394052
-0.114804667443 -0.0688935263081
-0.100204380943 -0.055737718925
-0.079839942062 -0.109462265554
-0.0724634160185 -0.0965076376775
-0.0576161696518 -0.0508670416097
-0.0403988034451 0.00675797177657
-0.00910585709398 0.0426372896126
0.0134118703028 0.0487847546142
0.0347984912802 0.0134364421424
0.0605349821856 0.0700595862278
0.106702035574 0.0753758199817
0.136703605671 0.036491045936
0.166314017322 0.0524167698015
0.199527092548 0.0750993884613
0.229400553638 0.0434001244467
0.249893711646 0.0672482058134
0.279273668576 0.0779191455739
0.321874504192 0.0309919930939
0.344347195689 0.0508854612698
0.369490617438 0.0365197229381
0.391354039782 0.0784923218192
0.4105494052 0.0195951782451
0.425779594843 0.0424007806047
0.445358011276 0.0867199849741
0.473887013392 0.0455055591416
0.496220523255 0.030387006986
0.50787216448 0.0614096745851
#34
-0.413938511387 -0.00132611034653
-0.404000237004 0.0330469309343
-0.385539586147 0.0136392476767
-0.36864390798 -0.0327261342879
-0.362303285246 0.0527015883005
-0.336521357015 0.0345194563856
-0.314884443981 -0.0149733960682
-0.294675756526 -0.0602333339616
-0.279861792633 0.0392569797392
-0.265315103677 -0.0245249756837
-0.24900473305 0.0330948026289
-0.23549221523 -0.0895488598848
-0.227402568 0.0459954581964
-0.206533022611 -0.0837705562733
-0.19195652187 -0.0806945703687
-0.179306567161 -0.0237599843972
-0.167722113365 -0.058395730277
-0.15614063169 -0.0186651312476
-0.143393824159 -0.0614349583094
-0.130862239124 -0.0458791381678
-0.118313059924 -0.0985058044887
-0.102173164586 -0.159869988124
-0.0877771475599 -0.120680498113
-0.0761022913301 -0.125536660152
-0.0637805801702 -0.085834905279
-0.0458259614765 -0.0790573925036
-0.0284169272525 -0.0963613535906
-0.0101254067593 -0.017778006083
0.0211788103121 0.0296849125474
0.0451014650657 0.0159022514753
0.0633092934442 0.0224310656782
0.0873732281178 0.044168420095
0.108592215712 0.0277119568199
0.146949050183 0.0644026212766
0.175035195152 0.0345964652778
0.203304546572 0.0689700323466
0.232535197167 0.0738925669038
0.258992845366 0.00746418427239
0.277765886065 0.048551917671
0.296921690947 0.0435695137152
0.327814395191 0.00571101889757
0.348770289945 0.0493830261548
0.376396803883 0.0540619106169
0.394337301102 0.0867325993098
0.41109620757 0.021252279738
0.422232692661 0.0605614168739
0.435644131192 0.0863811990766
0.455318228425 0.072402035156
0.477975096247 0.0667372866646
0.495986936523 0.0991843507161
#35
-0.426613973467 -0.0402326734682
-0.413738989594 -0.0244487513762
-0.397461661703 -0.0324832576585
-0.385591707139 -0.0630480117149
-0.374982889954 0.0411783981176
-0.352209151835 -0.00866105959759
-0.329922498144 -0.0134282058734
-0.312385031725 -0.0468620008541
-0.294409051745 0.0390907415513
-0.280638156029 -0.0110539819434
-0.262051428373 0.012366487926
-0.253398534753 -0.0579632796511
-0.241684830468 0.0366918571011
-0.224092061597 -0.0423887919438
-0.205862439534 -0.00411405129984
-0.189582171127 -0.0149393640041
-0.178121950275 -0.0707751213625
-0.161130533153 -0.0367743126425
-0.147060616367 -0.024481855963
-0.128547939459 -0.0737282194283
-0.11473589886 -0.104989194633
-0.103121696838 -0.0772864455925
-0.079976072584 -0.0522223376714
-0.058965317554 -0.0955592047039
-0.0396782563712 -0.0213996051336
-0.0251739467841 0.0138296029824
-0.0045648620844 0.0132525265321
0.0208558104403 -0.0262181877306
0.0515044074697 0.0356852765348
0.0687628162906 -0.0501415776537
0.0872155088321 -0.0241490097926
0.104280620177 0.0446188945194
0.134200064641 -0.00719300183056
0.160191244541 0.0444319539354
0.196990490718 0.0112788221472
0.21310313898 0.0437728406565
0.250418850322 0.0563198539943
0.280442625121 0.00236181585015
0.292586313126 0.0624387861484
0.317259493897 0.0145748760344
0.337197497732 0.0353742774113
0.35674283777 0.0562817588255
0.379112207218 0.0593590451535
0.39941189894 0.0853601983844
0.411779179368 0.0730815363142
0.43054466743 0.0682633035363
0.444498199363 0.0575414455206
0.4630799023 0.0980458529401
0.480874693277 0.0892193935284
0.504906163319 0.123501356376
#36
-0.394821523583 -0.0604957986072
-0.380753182517 -0.0497063953578
-0.363330912361 -0.0746166675814
-0.346881373908 -0.0909309785876
-0.334515185113 0.0488245880209
-0.317221287638 -0.0548387595213
-0.29893155576 -0.0476202703537
-0.290583716465 -0.0589986199691
-0.279112030366 0.00838975882944
-0.267198598761 -0.0206365741253
-0.246142811524 -0.0482969934631
-0.240663761397 -0.0633546437549
-0.228071702398 -0.0397194634034
-0.219813789261 -0.0339730270341
-0.207258481257 0.0293151243426
-0.18092987068 -0.0514852366277
-0.168973686787 -0.066149477007
-0.152041092812 -0.109894394724
-0.141828736026 0.0380033580433
-0.123271021999 -0.111489788638
-0.111966825082 -0.0657997443417
-0.10059387858 0.0312728961852
-0.0769386963049 -0.073760286675
-0.0581768799325 -0.0342808587827
-0.0318012979256 0.0227450064141
-0.0209096573826 -0.0143760648025
-0.00333055545036 0.0422408200234
0.0171682396138 -0.0354188348744
0.0335239044892 0.0361464794884
0.0521799844571 -0.0087756490383
0.0684968645283 0.00637158895175
0.0782548134422 0.0574263015596
0.100391035242 0.0485737034117
0.12457898508 0.0491430152508
0.162031832601 0.0166944730027
0.17732624618 0.0693222026447
0.217655301212 0.0390289068494
0.262901654496 0.0271638413358
0.274435944512 0.0719060532267
0.308114419326 0.0244754086901
0.3258443421 0.0518404413043
0.347561596831 0.0587664292111
0.36373555097 0.0738091422721
0.397199591818 0.0815004871606
0.414454630357 0.109750799407
0.439609376275 0.0960025039749
0.456891025603 0.0809107849088
0.492306999204 0.10839884458
0.504079034434 0.0856966579097
0.526833709725 0.12753193796
#37
-0.388702739124 -0.0181393063313
-0.368373513765 -0.0585602010324
-0.345876877104 -0.1171521707
-0.330083599781 -0.0339404961089
-0.314803594635 0.0466899140205
-0.291977185963 -0.0827096499931
-0.275270972373 -0.0965926276028
-0.267836940721 -0.0720623001438
-0.249748508105 -0.100106705307
-0.241379888228 -0.0595148429663
-0.225516689593 -0.104851184756
-0.214982379386 -0.0866886147781
-0.200382988518 -0.0654145413814
-0.190275688559 -0.0101520861459
-0.17835982513 -0.0805123494275
-0.153637176004 -0.0793980327321
-0.133035760114 -0.121016601697
-0.121964273916 -0.13841001105
-0.107882888378 -0.0047473712705
-0.0922547171045 -0.0803037123451
-0.0833341473237 -0.0827284244146
-0.0662045718612 -7.99194202256e-05
-0.0518027847853 -0.0354257601019
-0.044875081085 0.0313620649573
-0.0182916545318 -0.0485170054755
-0.00566166452799 -0.0893399476052
0.0084287098851 -0.0142420122688
0.0203284836264 -0.0416989601186
0.0320905696207 0.0592069191145
0.0481557323144 0.0534163891059
0.0675015405795 -0.043781479288
0.0772840266552 -0.00391208829019
0.0924609864067 0.0146863946115
0.107293088887 0.0510654215298
0.126227949611 0.0516574801291
0.149629724241 0.0570725463373
0.173512399023 0.0892837591876
0.214089703092 0.0471788285635
0.23033279167 0.0856550579215
0.258362849265 0.0757372094948
0.280518304521 0.0408748441518
0.300337402063 0.0659915063889
0.321991486426 0.15275440953
0.347214816282 0.132923764346
0.368318004407 0.135568673346
0.388562012336 0.11909230829
0.408627797023 0.122836169292
0.442603985911 0.129442182355
0.475965316933 0.134110225932
0.500362184651 0.163562945552
#38
-0.409665002298 -0.0501619354811
-0.389745009037 -0.0922204531836
-0.363591320118 -0.103253988497
-0.350641636609 -0.0182402354342
-0.33039628899 -0.0317319961427
-0.307864975295 -0.102189605299
-0.290407272789 -0.115540193387
-0.279515406585 -0.0910489681269
-0.258366466968 -0.147986412723
-0.250920571952 -0.0763509090146
-0.236314392524 -0.0876121516071
-0.221562586954 -0.088870930643
-0.202866319147 -0.0829965727183
-0.19129498027 -0.0148899319488
-0.172680089815 -0.126964102446
-0.15506428789 -0.0734431335761
-0.131858145563 -0.140708741498
-0.120740275703 -0.124226130078
-0.10721470999 -0.0352814537033
-0.0913626149692 -0.0611222979712
-0.0815805418816 -0.0729938203458
-0.0641712713378 -0.0472875871905
-0.0526207688951 0.0104766547548
-0.0415999297723 -0.0125426726016
-0.0194307749039 -0.0858779393152
-0.00505097903614 -0.095671400435
0.0092483024471 -0.0626519545412
0.0198472520075 -0.0634533074856
0.0355315268435 0.0711029806979
0.0497586046372 0.033166398299
0.072641715156 -0.0829756918257
0.0855885300732 -0.0196061424187
0.102979823206 -0.0148183044745
0.114208937281 0.0801741115809
0.128538214434 0.0934485768286
0.149555800062 0.002999912377
0.165142819192 0.102004121677
0.188730938131 0.0914631618059
0.206397824278 0.0949527652348
0.228093488914 0.0950138004348
0.2538771593 0.0453710167486
0.27260413419 0.0860368456947
0.295103059653 0.172689949501
0.315221643289 0.136940775362
0.336732339174 0.140224078197
0.359792617229 0.108645195415
0.380338957545 0.137427328581
0.410885980491 0.118917607331
0.448422659478 0.143394178764
0.470482715021 0.155343063305
#39
-0.442460823631 -0.160843389005
-0.434389994321 -0.0825488168539
-0.404712105112 -0.13687205107
-0.38162545589 -0.181901322611
-0.363832133178 -0.172294713484
-0.350489590889 -0.132598699529
-0.335463154943 -0.128364832573
-0.324004912596 -0.0627822692109
-0.30467428777 -0.103631286179
-0.292526872369 -0.141790953709
-0.267964675363 -0.0459694629988
-0.247581710857 -0.135205041278
-0.229172963225 -0.110823105982
-0.211690850462 -0.0650829890618
-0.193341871857 -0.123062522553
-0.172578472633 -0.0598189234074
-0.153384168725 -0.0518153707411
-0.146848653309 -0.0055605099162
-0.127074194285 -0.00975729593442
-0.110702834471 0.0105271814773
-0.0921108549497 -0.00382037873403
-0.0806434948904 -0.0496167822392
-0.0640885497868 0.0588914622126
-0.0425739529831 -0.0498924633061
-0.0348577315428 0.0277954885023
-0.0138632036106 -0.0021617026248
0.0115352437318 -0.0544182821522
0.0253067607022 0.0291222688582
0.0396639141254 0.0839195725068
0.0533740352417 -0.00602247191392
0.077260793344 -0.0871832528521
0.0917567216346 0.045761068819
0.111541880019 0.0192424014812
0.126331087375 0.0716049736813
0.145840684936 0.0951964208257
0.162189032785 0.0121919950305
0.185311249909 0.0228787654628
0.196150974554 0.131521958948
0.229210315042 0.0480168411143
0.2457462427 0.0544301189064
0.269258960625 0.0266917737111
0.285031154334 0.1350130735
0.312851257968 0.115690531873
0.331926840085 0.0667592446484
0.351617958104 0.0865442659953
0.373562529282 0.10138506044
0.388855074683 0.165318403306
0.418597841895 0.0460856625528
0.437926160833 0.0934515276319
0.449071404598 0.147370059576
#40
-0.44091166524 -0.185255938705
-0.432842893332 -0.0282834916179
-0.403918669025 -0.232745438501
-0.387498970572 -0.173916750148
-0.375112297993 -0.165243438507
-0.363953866859 -0.19722186623
-0.350428255503 -0.183057648061
-0.338891361469 -0.0954547663609
-0.324958226894 -0.10251678296
-0.313619526502 -0.109756733692
-0.282164497812 -0.118715671388
-0.271380511113 -0.115878774781
-0.259942055862 -0.0728449288595
-0.242955970995 -0.0400720777714
-0.227610516044 -0.127015533071
-0.204744046394 -0.0543861598534
-0.195712813389 0.033527182483
-0.184628375909 0.0699510158506
-0.153676767022 0.0178309512608
-0.130392994296 0.00908942393523
-0.110236340261 0.0266495276696
-0.0963549415025 0.0457862206654
-0.0708741454761 0.0508162764548
-0.0534769724456 0.0239471982661
-0.0389292105257 0.130228201073
-0.0146828893703 0.0291241348689
0.0208861979452 -0.0201945049266
0.0356507467468 0.0935716954794
0.0564478097186 0.0871606698167
0.0755866265955 0.0180642637272
0.0940944704648 -0.00670221309983
0.121778711042 0.0400995643311
0.135247334928 0.089414596702
0.156553708444 0.0221711850521
0.174442452233 0.0701475989169
0.190944349374 0.0298498559145
0.213458558765 0.0402844801077
0.227435913046 0.106582902712
0.262445183308 0.0146285673358
0.277971916955 0.0672549486907
0.292527781284 0.016847894186
0.310980630512 0.101706746669
0.335294640512 0.033410928564
0.346512560666 0.0250054488907
0.367215611776 0.0466788162667
0.385647345102 0.027315592374
0.398452511151 0.0828026880979
0.419746887621 0.0267734460626
0.444303277414 0.0231559105137
0.456263926103 0.102135236135
#41
-0.449096495959 -0.198691073785
-0.439830156197 -0.0996737036316
-0.420319740627 -0.207600802739
-0.406477368387 -0.114840865651
-0.394032480313 -0.0984294815246
-0.378668240098 -0.119229904967
-0.366005107159 -0.168802175543
-0.351059415808 -0.0705934741578
-0.33811607977 -0.115069839511
-0.326041481756 -0.0664378377119
-0.308592936633 -0.0891524441459
-0.30251147508 -0.0720842076214
-0.286308983491 -0.0203933800381
-0.273976832881 -0.0336701391709
-0.259173607949 -0.112159250973
-0.243895709979 -0.0163135951806
-0.230048520322 0.0249468975129
-0.21740229439 0.0507379577217
-0.189684925349 0.0328246040787
-0.169770837357 -0.0376875893212
-0.148224657003 0.0448850014301
-0.128319235298 0.0632065154177
-0.105267312937 0.0451999059777
-0.0852182863609 -2.93731913696e-05
-0.0643886774104 0.0929733720698
-0.0470138285863 0.0139941920617
-0.0166951766624 -0.0119828941187
-0.00343331556182 0.0687127756461
0.0218156765707 0.0727795867568
0.0479878107214 -0.0131429651234
0.0627148777072 0.0545870492129
0.0904309690893 0.0456838132052
0.103479563576 0.0896681270255
0.12714214676 0.0199788517988
0.139737879035 0.0650650172316
0.156864737455 0.0326581605005
0.177880424102 0.0333487432746
0.194797029054 0.076344297917
0.214494710045 0.0322268123036
0.235180188296 0.0359758972447
0.255121549821 0.0291577972295
0.277883799686 0.0379986001426
0.303251049633 -0.00598079230861
0.317165063701 -0.00775496090461
0.341269894071 0.0286104105392
0.360991488331 0.00386185296009
0.396574538016 0.0250275150349
0.414633049866 0.0343964567456
0.441259769654 0.00108248172838
0.459000150678 0.0323465125572
#42
-0.475761397894 -0.0889452870753
-0.464639963346 -0.0868155070502
-0.454975772728 -0.0607872024744
-0.437454522596 -0.0571353884168
-0.422843667082 -0.0225100569468
-0.402358105943 -0.00925280978984
-0.388348159138 -0.0587901042622
-0.372743827364 -0.00504174830862
-0.355110839491 -0.0427835183318
-0.339734957978 -0.0333118711298
-0.320868643511 0.00381447574735
-0.311356423201 -0.0464422799609
-0.288888218356 0.0322422848531
-0.273113643903 -0.0303649055278
-0.254740454103 -0.0564235317459
-0.244403901266 0.00164556224447
-0.223863593934 0.0118861626037
-0.210689904111 0.00678823399327
-0.187553092416 0.0126720364264
-0.177080547416 -0.0127921297194
-0.157104139832 0.026563322785
-0.138819664611 0.0282378837039
-0.118377309803 0.0247083482045
-0.10070607944 0.0308273651702
-0.0823123158552 0.0220115691409
-0.0704474952563 0.00960912914825
-0.0478667630455 0.0184640493441
-0.0317277178816 0.0366858068156
-0.0119104363458 0.0393055414809
0.00950709965621 0.00109352604022
0.026530873387 0.028796497599
0.0464504771649 0.0359522998611
0.0639537808896 0.0260048551971
0.0829228033348 0.021781059199
0.100109596951 0.0143725431423
0.110209714521 0.00961314981614
0.13404943042 0.0114596079176
0.146658650924 0.0376747355458
0.165903579043 0.0172956274205
0.183015360506 0.017923509982
0.208523336589 0.0139827601746
0.227856579414 0.0158965757289
0.252920724962 0.00689086249023
0.271478018761 0.0093995306842
0.295168520573 0.00672598972741
0.308681029107 0.014183375531
0.348230342665 0.0142465087023
0.367777915645 0.0375778973394
0.389386302396 0.0324861482601
0.40571564609 0.0448542864978
#43
-0.470577325643 -0.00931056428916
-0.461458433689 0.0162817121528
-0.449619813154 0.0379320106548
-0.435718886439 -0.00714398715219
-0.423507431242 0.0253519541246
-0.397924625078 0.00625745981162
-0.385723893366 0.0335472942451
-0.367620862263 0.0201421436429
-0.349399190817 0.00628932925228
-0.332178005007 0.00513745364038
-0.314558444603 0.0441599132665
-0.30331842097 0.0297071545603
-0.285375168902 0.0176924087545
-0.2640394228 0.0264162024883
-0.247988199374 -0.0109015952173
-0.23743274142 0.00955660056915
-0.218978959676 -0.0102138763958
-0.202573909011 -0.00323769455919
-0.185352603689 0.00721042080976
-0.170649900159 0.0477336726416
-0.151036922298 -0.00650308079043
-0.138091582297 0.0144687015984
-0.116749880429 -0.00687125138761
-0.099130804979 0.0532379759299
-0.0811787095005 0.0147020030085
-0.0655519810404 0.0181820094285
-0.0464749219429 0.0342713865317
-0.0268188313037 0.0208507925934
-0.00719984223542 0.0163016260184
0.00908611523942 0.00392910411293
0.0211932161723 0.00456131828544
0.0408612337701 0.0045181341305
0.0568898633918 -0.000809559154096
0.0744504538487 0.0191517126952
0.090817893418 -0.00373933837557
0.103602161709 -0.019215180228
0.122087243948 0.00704756081155
0.13760055169 -0.0175426790292
0.161636504037 -0.0275966530019
0.175877848157 0.00234231827578
0.201932272369 -0.027041899055
0.219941676192 0.00658801715353
0.244725276243 -0.00462945836727
0.263832892498 0.0161488313565
0.283919700573 0.0173939367674
0.302063217483 -0.0563065450879
0.34182747962 -0.0280338034384
0.3577754918 0.010273217644
0.379869545058 -0.00468200800012
0.399009254339 0.0140593681759
#44
-0.436171076982 0.000978799696798
-0.425536271631 0.0326995479174
-0.415895303226 0.0664225330953
-0.404982540714 0.0493937364294
-0.380694721241 0.00767739438186
-0.364656982374 0.0355470817157
-0.357966306242 0.048343268404
-0.325205675492 0.000917687368864
-0.315048324098 0.00540155908299
-0.303121612864 0.0420729392205
-0.291195200724 0.0417430401898
-0.280088089359 0.0751233810959
-0.266752922605 0.037727742621
-0.2444144495 0.00301542688297
-0.233707015422 -0.0221787248077
-0.224782757091 0.0716584404513
-0.205073842646 -0.0426058187671
-0.197459918939 0.0208940235079
-0.184625801097 0.0156215325568
-0.164055682061 0.0134622827174
-0.144681895779 -0.0162777977418
-0.132045155083 0.0216517742278
-0.115638308655 -0.0283336393009
-0.101154784298 0.0302660006081
-0.0881764432646 0.037043085372
-0.0641138298149 -0.0183984497611
-0.0533303897742 0.0247788018204
-0.034762882945 0.0164944390753
-0.0129129297596 0.0168299569822
0.0111876649288 -0.0032251504187
0.0296895118426 -0.0266964260768
0.0405343476977 0.0249688944186
0.0572872501302 -0.00546309918267
0.0791193072344 -0.02648262783
0.0948164638962 0.0144541883992
0.115693133992 0.00693895858457
0.142332458338 -0.0481125807182
0.164569725227 0.00152362073928
0.195432104222 0.0190804334132
0.216406858476 -0.034392400035
0.240734689317 0.00834036101784
0.256766054198 0.00573460093588
0.28805961894 -0.0315435419252
0.306825262854 -0.0473262323798
0.321841302181 -0.0211558032392
0.343147156504 -0.0567153152666
0.39192084879 -0.0485041836552
0.423236723197 -0.0489746120203
0.445963604584 -0.0498753530563
0.464746804101 -0.0523461037363
#45
-0.42307097196 0.000787530717156
-0.406473744504 0.0343744766294
-0.397056541295 0.065077289296
-0.383960107251 0.0624543269725
-0.360685577133 0.000329276733072
-0.346575621316 0.068113999528
-0.337939309349 0.0492601047049
-0.304955009993 0.0327938309915
-0.291159222779 0.0152082821251
-0.282911593472 0.0708503211857
-0.261650467408 0.0087001504434
-0.253417368646 0.0665472226752
-0.242749643429 0.0610508848988
-0.217063958505 -0.0120988283442
-0.205862723768 0.0117380265259
-0.191251864027 0.0746801978065
-0.172386189354 -0.01183953729
-0.166468380243 0.039526093812
-0.153086549974 0.0115841370905
-0.138486819978 0.0185266314012
-0.120294161028 -0.0241344609335
-0.109704982996 0.0536656086919
-0.0914968937366 -0.0151547368146
-0.0831284255084 -0.00611399979597
-0.0683470967894 0.00133764031801
-0.0437065113146 -0.0399007960477
-0.0350837708938 0.0229966485329
-0.0197975769167 -0.00244645461456
-0.00132325111766 0.00307127009238
0.0239059807661 -0.0324913707994
0.0465686555929 -0.0326436707596
0.0556907002846 0.0210222457736
0.0761881304151 -0.0511508979612
0.0951679915893 -0.0681049324004
0.108768327006 0.030716150089
0.126147528966 0.00710032269821
0.150290787371 -0.0540489258326
0.170316451249 0.00709154829124
0.19621042005 0.0268199171256
0.222894537194 -0.0318770694101
0.236939029846 0.00240025921592
0.256346491819 -0.000362300467851
0.283977689725 -0.0298868612501
0.298167405525 -0.0397967452186
0.311650886034 -0.0444450220018
0.333774460959 -0.0401949588913
0.371818184266 -0.0115130602408
0.406264177298 -0.0467629028438
0.431228152392 -0.0487135401147
0.448023056014 -0.0499805760124
#46
-0.43053079202 0.0305966484106
-0.414488305288 0.068171561715
-0.395517854113 0.066129319032
-0.374988538443 0.0631815917243
-0.358609487181 0.0426854739928
-0.339490461295 0.0628009036465
-0.321733479231 0.0767265022885
-0.304900875506 0.0759176773623
-0.280671307876 0.0423650512132
-0.26820045255 0.0935062939658
-0.244569083566 0.0180190892341
-0.229512622636 0.080301707035
-0.21190642069 0.0353750380656
-0.193226107144 0.0515666563264
-0.181982864551 0.0825622753619
-0.163882459766 0.0280089772659
-0.149251263709 0.0473103842984
-0.141003445992 0.0733530904866
-0.122904686638 0.0303915097042
-0.115788659561 0.0848886982539
-0.0937661782718 0.0193935045912
-0.082221438653 0.0293759358575
-0.0671319769427 0.0134385986262
-0.0582901530406 0.0336589984571
-0.0385269540803 -0.0411096681978
-0.0174205775703 -0.0281881175981
-0.0071826486289 0.0414774201387
0.010486798086 -0.0203667617459
0.0208738884006 -0.0477541589568
0.039241330505 -0.00791386626933
0.0619354220518 -0.040308991067
0.0730294993249 -0.027128170823
0.0897267665564 -0.0831878995002
0.10196718083 -0.0526653802155
0.119791146772 -0.0344306985728
0.130051247302 -0.0086484502539
0.144156859263 -0.0199939333723
0.159541708427 -0.01553908387
0.17707378948 -0.042375228345
0.198070283641 -0.0522601010012
0.210560861387 -0.0158813819491
0.231036142125 0.0124565744558
0.256686587876 0.0253380651467
0.27824749454 -0.0628041363218
0.292657617663 -0.0644033215789
0.313474719677 -0.0544620795983
0.34190591758 -0.0313981403825
0.36527878953 -0.0645847135354
0.390735606407 -0.075475023203
0.405364562611 -0.0610378149893
#47
-0.443892415101 0.0885810220345
-0.433808120074 0.118767001542
-0.413373749601 0.122589850967
-0.368549201397 0.105169057539
-0.343617927434 0.109219903892
-0.326385432889 0.0868157749694
-0.305718933827 0.110448819126
-0.291954155423 0.125613089347
-0.263530312115 0.0748433230127
-0.246455891574 0.105172693101
-0.231107855928 0.0898239676464
-0.210632413582 0.0702416692806
-0.187324900334 0.0528728434659
-0.170349337063 0.115874314895
-0.15707599493 0.129395485373
-0.142641159724 0.0177429645692
-0.131042518626 0.0528955885353
-0.123624092987 0.132309167058
-0.0957222160302 0.0471457662442
-0.091288625506 0.113232981622
-0.0697308851935 0.0471724624908
-0.0592094802304 0.0130997695778
-0.0450213726449 0.00784212668183
-0.038304331597 0.0641920490153
-0.0166143993486 -0.0786918217818
-0.00437498900565 -0.0292405719323
0.00575837506081 0.038643610389
0.0217360483719 -0.0208277248813
0.0466823522946 -0.090726000025
0.0602016423791 -0.0370544240527
0.0791512132315 -0.0647731659121
0.0921699222932 -0.0337802308197
0.106253340056 -0.0962704119504
0.116512075085 -0.0302105465871
0.134352153491 -0.0391622521332
0.142459968651 -0.0142784221308
0.159165421522 -0.0336380192848
0.175045893986 -0.037981348025
0.195116503449 -0.117770218634
0.207422456302 -0.0669682900726
0.227839450284 -0.0460841277453
0.236406505172 0.0268868769403
0.256951209586 0.0440862139954
0.285165569805 -0.127678613957
0.30468174881 -0.120505170768
0.317674162177 -0.109062971353
0.338562624052 -0.138791038962
0.362069960162 -0.15280131509
0.38755856634 -0.179284358859
0.402369368146 -0.155587596579
#48
-0.44700292266 0.105295265006
-0.434226178409 0.146163322205
-0.408874683739 0.173782218855
-0.362177678823 0.144826219467
-0.33421130433 0.145718967011
-0.314331044531 0.133258888232
-0.287162513967 0.102997054116
-0.272807328201 0.142149188162
-0.24830244196 0.0800213411725
-0.230503142761 0.0847396068886
-0.218502536 0.121397178829
-0.196835542702 0.0464659223649
-0.17712124083 0.0478362121423
-0.159468150562 0.125833260227
-0.142512459493 0.0923084526105
-0.132328669465 -0.00654683991736
-0.121858854811 0.0492187797739
-0.102081493113 0.0761823676534
-0.0806239715032 0.0467581222559
-0.0718375540892 0.092033921355
-0.050054819638 0.0370542180666
-0.0349830665514 0.0195219555401
-0.0163857880369 0.0128054907873
-0.00706849674664 0.0386191119945
0.0128633635539 -0.0571937343537
0.0198964901306 -0.0234899918853
0.0313380660136 0.0208543239086
0.0390959224352 0.00315556821654
0.0689438362277 -0.0771106815769
0.0833003809613 -0.102988013437
0.094520077761 -0.0489653017232
0.107109026178 -0.0282584164996
0.123030758956 -0.110074093193
0.137425063215 -0.0484451565829
0.150574189574 -0.0135631584902
0.163682662339 -0.046701118297
0.179688222502 -0.0674895202393
0.19464357092 -0.0577981652927
0.215283162168 -0.133134741278
0.229709513009 -0.104865240914
0.247687621309 -0.100062909783
0.256815918181 -0.0473427768921
0.277194890395 -0.0802738656941
0.297497804026 -0.16696786453
0.317818816917 -0.144250558445
0.331565004286 -0.110082779227
0.351704724052 -0.160033613359
0.37455443518 -0.186650722215
0.399169624551 -0.181298616422
0.412633471651 -0.1538570349
#49
-0.476861060415 0.0958205052346
-0.460228550038 0.143901228153
-0.429130919005 0.161434214515
-0.406006877354 0.158556647693
-0.379984917305 0.142408842533
-0.359399102693 0.136347560137
-0.329975133257 0.0892563881113
-0.311094725221 0.090303388615
-0.291452274557 0.099868560837
-0.267248271211 0.108607115192
-0.241097932666 0.113411761743
-0.204394936865 0.0655074262102
-0.18798633285 0.0427657813126
-0.172021435094 0.0959664705601
-0.153496057537 0.0533157245515
-0.132109509588 0.0324100166872
-0.109643236938 0.073222382997
-0.0858857086362 0.00492058637146
-0.0777784008748 0.0947187018425
-0.0459898907106 0.0306140080673
-0.0294331046673 0.0429039620018
-0.0148802021396 0.0399535676473
0.00388711057719 -0.0294869820065
0.0171212061925 -0.0295764839547
0.0285179326058 -0.000591820264856
0.0385748110901 0.00457805798489
0.0532407131862 0.0190772937047
0.0621301750742 -0.0290421742318
0.078886316302 -0.0844836680796
0.0942395123334 -0.0308810397995
0.105036413459 -0.0907556490083
0.113006047637 -0.0702729034502
0.124607550756 -0.0380224602601
0.142732526526 -0.0574085887435
0.155973046147 -0.0838732675425
0.172230460512 -0.0663755898454
0.188532260764 -0.128224364802
0.203445466377 -0.0741134169356
0.217877715691 -0.13159197976
0.232906063366 -0.0934225637012
0.240483023611 -0.0629629398248
0.257845758894 -0.0986341582715
0.274677497747 -0.159887026033
0.292391056455 -0.198070450451
0.308925089014 -0.107852727809
0.322532852113 -0.104111556826
0.344938430469 -0.110148726614
0.368252033031 -0.196444074371
0.392372253238 -0.101002889075
0.401631707063 -0.0701035640317
#50
-0.470315263948 0.0976565687583
-0.45408202631 0.119760963944
-0.431207404743 0.136040110901
-0.406735848787 0.135761992716
-0.380709909102 0.11770881112
-0.360842529024 0.0998230711546
-0.346018937534 0.127727366804
-0.327151346459 0.0875052740512
-0.308980843463 0.111900127814
-0.284343457772 0.131357543025
-0.253349778264 0.103485897834
-0.225378364127 0.124886431491
-0.202965772119 0.102033154449
-0.18544044883 0.0698727363911
-0.170922515655 0.0725150218861
-0.143890248001 0.0886396840513
-0.11251471476 0.0256650367294
-0.101548573404 0.0304538836668
-0.0893477970004 0.0779991261622
-0.0557088925378 -0.0254087149713
-0.0496465486062 0.04333290928
-0.0383071490923 0.0556388048112
-0.0118214104468 -0.057738985228
0.0023847898969 -0.0646947557358
0.0121238032109 -0.00140899237819
0.0281199401664 -0.0241979766475
0.0465010854945 -0.0253098879769
0.0597633778044 -0.0643751547124
0.0701415725492 -0.0806326576518
0.0845179851023 0.00299582000785
0.0918278626817 -0.0583540063546
0.109567375975 -0.104462811832
0.115344351758 -0.0167556602857
0.132351270113 -0.0557086680799
0.142610751515 -0.0318693660385
0.163539495599 -0.0760042284472
0.180820786176 -0.125816067728
0.200194843908 -0.0905245775518
0.209733824918 -0.107499861297
0.226987022302 -0.0596659371488
0.239253957521 -0.0467036717971
0.250210245411 -0.045717613332
0.267187812638 -0.101064284704
0.286042999728 -0.14965191835
0.303233604394 -0.0938306465385
0.316617597608 -0.133978323476
0.332753586096 -0.0675758712327
0.349914865117 -0.0954135512955
0.402100219442 -0.0571425257285
0.408149410059 -0.00558383220804
#51
-0.455890365509 0.0541361324062
-0.442112628957 0.0821851477523
-0.418453735565 0.103933587845
-0.40050822882 0.107745785141
-0.373732814861 0.116205762931
-0.355129535291 0.0827596135479
-0.332477544685 0.125069893827
-0.318757529704 0.10391611831
-0.295798329442 0.10033358598
-0.271036192553 0.0807461369733
-0.251488487821 0.0802346321865
-0.237955422551 0.121642228404
-0.21323887241 0.125399515168
-0.198609418883 0.0723059729042
-0.178683632681 0.0863976292901
-0.155294716262 0.0767075514885
-0.120380071291 0.00190557684471
-0.112246281158 0.0692620728393
-0.0976256348376 0.0411104576873
-0.0677786803134 -0.0676593362248
-0.0613439160105 0.0112800731928
-0.0483734722533 0.0350273607616
-0.0261937107161 -0.00831490567753
-0.00140037489314 -0.0781647450579
0.00868198816217 -0.0607633665737
0.025432961944 -0.0956482480333
0.0412609796808 -0.0591016737875
0.057560680655 -0.0375099116392
0.0721549243494 -0.0628364506337
0.0883435570083 -0.0476476992389
0.0954763122613 -0.0376239202019
0.12065384924 -0.116144056774
0.126669681864 -0.0443542465438
0.140058474984 -0.0314976687398
0.151059847203 -0.027625938742
0.174170397262 -0.0929410409132
0.186622258007 -0.0856639793676
0.205406507548 -0.0896364304108
0.214312311083 -0.0405049164848
0.232006241212 -0.0645944072214
0.249658963899 -0.0464812871333
0.25586497124 -0.051755866915
0.273984243423 -0.0453683641849
0.286552558172 -0.0509435501246
0.298767868277 -0.0719241638799
0.319010627468 -0.113286963461
0.330791119964 -0.0422953220589
0.345741775847 0.0293018693996
0.404564198454 0.00471224274526
0.40930716247 0.0366903862664
#52
-0.471755561947 0.0266230366496
-0.458179610093 0.0725397171729
-0.430683493195 0.0637284459583
-0.411984500331 0.0966614608333
-0.380234966077 0.0965618015893
-0.36709922757 0.0639051316274
-0.337530339191 0.0802850984448
-0.321204442449 0.0646667270509
-0.297624912119 0.0531544633479
-0.27922788766 0.0720526456054
-0.259842743222 0.0265208020711
-0.246603386846 0.0314504344722
-0.227458402415 0.125099475148
-0.210273206376 0.0584984799946
-0.180702729201 0.0487046648795
-0.160990921182 0.0783743996456
-0.127324776142 0.0321714795091
-0.113213156059 0.0574584568392
-0.101637260757 0.025442204164
-0.0686556137644 -0.113275630486
-0.0599077584729 -0.030252702408
-0.0433108027093 0.0398149352973
-0.030498607818 0.0493021312145
0.000414248921186 -0.0898357372034
0.0101603358423 -0.0839753639642
0.0277940814732 -0.134549054057
0.0343712012835 -0.019523755401
0.0486644628187 0.00272372552849
0.0721360532176 -0.0659092644202
0.089060750011 -0.0679945034514
0.106246571552 -0.0818240447324
0.126292434901 -0.114203698395
0.134723445059 -0.0136823667229
0.145241968001 -0.00229593455198
0.165637394862 -0.0457802188973
0.182222217331 -0.0773522677627
0.196061436791 -0.0813497855087
0.211806637366 -0.118024905804
0.221455624539 0.00227198093577
0.239663272157 -0.0714097512213
0.251913104276 -0.0303431698385
0.260237992644 -0.059328741324
0.274283229571 0.00600567325703
0.284681568757 0.0200549631755
0.294052370922 0.0151482715213
0.320397469841 -0.00677202106482
0.339279905079 -0.0195804839434
0.354951988078 0.0537606822904
0.382382994032 0.00918820611097
0.391893137579 0.0618858457348
#53
-0.480344080241 0.04806885234
-0.469562474492 0.129375394466
-0.438116058178 0.061715607937
-0.416580464425 0.0981571150275
-0.386032889638 0.0860336851711
-0.366137601872 0.0664672606354
-0.337637062876 0.0472685617509
-0.321669681345 0.0639917300089
-0.291308378705 0.0330514723791
-0.274887750806 0.0963131296025
-0.253826447333 0.0419225568
-0.23437621142 -0.00650540990808
-0.21524480485 0.0956699384097
-0.191839064014 0.0192119422986
-0.166323131445 -0.0394312887034
-0.146035191581 -0.0104658840758
-0.124099576239 0.00381687418879
-0.102446352312 -0.0737508180542
-0.0914258907783 -0.0928739951062
-0.0730453201059 -0.101374897746
-0.0633947109059 -0.00952506127141
-0.0409737315031 -0.0475889358739
-0.0276548982999 0.0287764907265
-0.011363269614 0.00346348684712
0.0019972016019 0.0607965938863
0.0242955462976 -0.124564984819
0.0309987470557 -0.0681165318564
0.041157177884 0.02595406751
0.05620218775 -0.071418380555
0.0720205577577 -0.0766922558417
0.0966510524967 -0.0750935280725
0.115739964708 -0.0814178990535
0.122293927683 -0.0657751779842
0.137737718503 -0.057924263808
0.154453514521 -0.0900599332172
0.174634842984 -0.151085979271
0.196932959698 -0.0182516095472
0.209685898518 -0.0640384810208
0.224161251106 -0.00560588778048
0.243883132339 -0.00469899654993
0.260023282788 -0.0240083167156
0.269455835771 -0.0533116885117
0.287379404763 -0.0220715325194
0.30133378499 -0.00126635851724
0.313466551997 0.0101665679711
0.326851574953 0.0670929517656
0.349866744107 0.0209087381277
0.363717049947 -0.000264843253723
0.381899705447 -0.00455962250132
0.394727156349 0.0582563064508
#54
-0.505526233597 0.0584704381418
-0.494713840929 0.138632238908
-0.465435316653 0.0577851660878
-0.453402540578 0.113791536879
-0.411220848425 0.0892431250555
-0.390927813663 0.074908713366
-0.347474606895 0.0570714478534
-0.328468328406 0.068830085487
-0.29688044774 0.0346349706016
-0.273371537698 0.0541431892935
-0.255589167143 0.0809608538583
-0.230788021132 0.0161785629402
-0.209804083659 0.0490213285871
-0.185136804177 0.0229318541995
-0.151566882677 -0.0494042728524
-0.13331080755 -0.0472478948706
-0.113792958694 0.024645365021
-0.0915422844542 -0.0487665866566
-0.0783575862854 -0.078205568438
-0.0661879645624 -0.0532881242983
-0.0518251392932 -0.0203169434414
-0.0330667091768 -0.096273420204
-0.0204296967965 -0.0118001553141
-0.00784845127286 0.0168241786209
0.00555803907664 0.0525046054342
0.0327937360824 -0.133733547704
0.0407314456794 -0.11001229732
0.0513126248513 0.0414986197052
0.062147710697 -0.0576788705973
0.0791770771803 -0.113870640542
0.0962173800988 -0.0447249179835
0.111925655553 -0.0272968923525
0.12609412894 -0.122629720467
0.137683582697 -0.0360850318304
0.150190285051 -0.0949506990577
0.179144501881 -0.177204645695
0.194622535001 -0.0238111985251
0.203517166975 0.00633847769649
0.219291365877 0.0346388401366
0.234210218255 0.0468351121643
0.252278851701 -0.0405263246948
0.263605563883 -0.073299290299
0.275820442144 -0.0176970036002
0.288129044428 0.0186182092406
0.302769388811 -0.0248784861881
0.312430058618 0.0648014630056
0.329847255115 0.0362315620626
0.342580434663 0.0243194680457
0.368032824031 0.0056891530937
0.38041499439 0.0721451009123
#55
-0.501692644817 0.0416459125431
-0.493495532325 0.0617204294903
-0.472764848874 0.063235533921
-0.458179263994 0.0478725173766
-0.422273763046 0.0423915913128
-0.403252492508 0.0337306818155
-0.360754678752 0.0344662742206
-0.340474902248 0.0357899570795
-0.311934292845 0.011339054747
-0.295131116031 0.00866981076547
-0.268974710976 0.085676220035
-0.249913207718 -0.0374113478742
-0.226848044186 0.0419872482931
-0.204471732551 -0.00976716409884
-0.170767940693 -0.0330115348285
-0.156211752409 -0.0256958566812
-0.135786620493 0.0436725841667
-0.112607911683 -0.0127733028515
-0.0930279242928 -0.0190115132157
-0.0768659009482 -0.0179073572139
-0.063123603353 0.0367711276364
-0.0443159599863 -0.0523427270537
-0.0270871419313 -0.0161872494669
-0.0150405532706 -0.01876355889
-0.00237029430516 -0.010252792899
0.0203192574308 -0.0474759113557
0.0334835106175 -0.0352783143844
0.0441884136057 0.0570850884814
0.0575483944453 -0.0544713853186
0.0735094577801 -0.0680891860975
0.084731674666 -0.0311552377101
0.0967363398562 0.0252113161176
0.114115744944 -0.104812537106
0.119311689534 0.0265544647138
0.132985468799 -0.0151408187915
0.149854378261 -0.0777433702285
0.161020658777 -0.00855432295253
0.172544550657 -0.00470722893357
0.191395837382 0.0227282258368
0.19904278211 0.0317955662077
0.213248289092 -0.0332314958029
0.224674037555 -0.0169110355734
0.243512268744 0.0495301836866
0.253826598979 0.0518919060596
0.270544794567 -0.0293309573692
0.289363272361 0.0837291609063
0.303362578462 0.00626811838155
0.312519488263 0.00959140237205
0.330286631507 -0.0409962852323
0.337035138536 0.0809376507551
#56
-0.479937008768 0.0318692987021
-0.47358002429 0.0167388289319
-0.457800934778 0.0320706014196
-0.442559214512 -0.00582150962419
-0.42122368452 0.0346617412755
-0.401704242382 -0.000104316773734
-0.368546870175 0.000451300725767
-0.350980623417 0.0232791458805
-0.326165721933 0.046091118613
-0.30178537058 -0.0251303989745
-0.274189012204 0.101762465322
-0.257235042623 -0.0546316352072
-0.229995915083 0.0134660927775
-0.207544851873 0.00149635444675
-0.178890772127 -0.00742823660723
-0.161838235126 -0.0188586092328
-0.142271777514 0.0651680155767
-0.120060536537 -0.0414118387103
-0.0991900715335 0.0178276872402
-0.0803775054498 -0.0310004563159
-0.0664522086505 0.080461487889
-0.0496917931399 -0.00867867931687
-0.0318180994958 0.00254712448185
-0.017680526383 -0.0214347170277
-0.00611422242717 -0.00971823005984
0.010337184927 0.0299828087235
0.0268559049563 0.000424886184916
0.0375687805388 0.075522265707
0.0507713627482 -0.0542448815556
0.0632928040817 -0.0390477501838
0.0776319504108 -0.0172738930627
0.0905465313072 0.0753051429695
0.105122165405 -0.0203860340007
0.112713179387 0.00322822115206
0.124982942791 -0.0202259725713
0.135926693531 -0.0201358189254
0.151317747012 0.0480348745762
0.168769621623 -0.00180159774263
0.18281384231 -0.0316912521498
0.191587572669 0.0246139245046
0.205867646951 -0.00757489799124
0.220052581077 0.0337463507136
0.238678239515 0.0456236736856
0.251739120477 0.0200935769032
0.267375584038 -0.0284794261275
0.288224026284 0.0543905801802
0.304646383394 0.0227114741313
0.312829171214 -0.0199593598925
0.321056676886 -0.0458790631869
0.327280404064 0.0302106501514
#57
-0.453470069838 0.0168083779884
-0.446009576962 -0.00288350737907
-0.429262861659 0.0131525294772
-0.411909204009 -0.0214994412941
-0.393070655532 0.039119352652
-0.370027190548 -0.0176363479382
-0.348116143367 0.019688000471
-0.327124613565 -0.024652222946
-0.307664812533 0.0628284374865
-0.27617685249 -0.0299107008035
-0.254754877807 0.0783811913301
-0.237175369693 0.0051285699325
-0.206454798724 -0.00125537037933
-0.185181414411 0.0130309573655
-0.16593106636 0.0351365875089
-0.140856762189 -0.00903885705278
-0.123540776004 0.0148596091129
-0.106356795583 -0.0208829631112
-0.087616976685 0.0271726400827
-0.0728120128794 0.0123472190971
-0.0575338870353 -0.00419087024972
-0.0420894041033 -0.00243763768687
-0.027738916462 0.0156097646355
-0.01290364447 -0.0146307665492
0.00375998161367 0.00388057324925
0.0176455873493 0.0540594657986
0.0308344758088 0.00565916350035
0.0465312782511 0.0236340062752
0.0574470229736 -0.017045639551
0.0699883853078 -0.00716211186885
0.083697382673 -0.0217574450459
0.0965119782096 0.0400725410605
0.109234242679 0.0409110914476
0.120900066332 0.00786465009556
0.135790960925 -0.0253028094415
0.149137076145 0.0247116729068
0.165506598676 0.0372898953233
0.183215769084 -0.00390005789468
0.194695122833 -0.0534297591898
0.208075767884 0.0141918125648
0.219928053983 0.0139496037564
0.236582782876 0.0199982565186
0.24745309362 0.00250591965097
0.267175831665 -0.0146503406745
0.279826958004 -0.00313650975319
0.296180247918 0.021704556746
0.314225854029 0.0173954758613
0.323270669418 -0.0204665078096
0.332679837272 -0.0319841872027
0.336856104954 -0.00166931952239
#58
-0.457351883206 0.00392372981169
-0.449869961225 -0.0107653601129
-0.431613312493 0.0251261477426
-0.412951892115 -0.00515513555207
-0.387188136912 0.0244216152974
-0.362715228604 -0.0121680142387
-0.343590139309 0.0165647340436
-0.322102545567 0.00649850414557
-0.302097299915 0.00233724725425
-0.27978202816 0.0173368658572
-0.259702999027 0.0167802438695
-0.239188747996 0.0182390842704
-0.21657966421 -0.000324506143328
-0.198867877517 0.0101478937307
-0.180970260553 0.0141393997256
-0.157000184694 0.00407434924265
-0.141807619326 -0.00702460031578
-0.124357168985 0.00992227299389
-0.106387977119 0.00291639998489
-0.093672213587 0.00987076817422
-0.0776795650725 -0.0304839328611
-0.0612406500377 -0.00600618950965
-0.0472010660034 0.0110174959653
-0.0342204022591 -0.00551930365827
-0.0178309843758 0.00644532316343
-0.00562727433033 0.0397556136938
0.00912171729032 -0.0122960886144
0.0247644681765 -0.0031626851198
0.0401098809637 0.00131236878754
0.0531074010421 0.0348132081655
0.0711858512469 -0.0229413605603
0.0826774910755 -0.00703578898661
0.0958754122484 0.0228995717207
0.108072741252 0.0447289033756
0.127485009783 -0.0129330936463
0.14079546407 0.0126642070426
0.157638413321 0.0183379305896
0.172111275663 0.00332680977088
0.189606575461 -0.0193168926887
0.203012178932 0.000717043758453
0.212765540131 0.0102923197297
0.225665990048 0.00960156527472
0.243684402003 -0.0115760495084
0.261207699524 -0.0070077654234
0.275918457128 0.000980326466966
0.288884237106 0.0206420160176
0.310178865654 -0.00847578368498
0.322166387077 -0.0223104038334
0.334584969307 -0.00316478883197
0.339535014314 0.0052055422997
#59
-0.459924969467 0.0138776983741
-0.451368185065 -0.0132680345903
-0.427715399438 0.0377124015507
-0.406998753118 0.012444752542
-0.375659307256 0.0336768034624
-0.354387944154 0.0140063811859
-0.335562315675 0.0192424596716
-0.315997246344 0.0101380895236
-0.301196048749 -0.00253045201642
-0.284246071944 0.0494950873861
-0.265207927821 -0.0232197696677
-0.246618684305 0.0236081143739
-0.220342825626 -0.00856055321732
-0.2021993634 0.027661291656
-0.18113474125 0.0220765153456
-0.162905917102 0.00906869389515
-0.148640747701 0.00888019893707
-0.133117147311 -0.00258343117578
-0.117106669216 -0.0196037582897
-0.106896175792 -0.0100243584081
-0.0925629873668 0.0125408191469
-0.0788257664293 -0.00124385343306
-0.0647887653818 -0.00169815848235
-0.0520641420861 0.0179969452785
-0.038875073124 -0.00990790750047
-0.0257900694557 0.017361523079
-0.0099447637426 -0.00101532076335
0.00536105678555 0.0127693031643
0.0205482979277 -0.0158027363425
0.0371688790559 0.0159824093716
0.0557945443995 -0.000771069400315
0.0653764082887 -0.0134043126346
0.0781096176632 0.0175821169168
0.0906513820478 0.0193936334127
0.109030315454 0.00471090431413
0.120301808148 0.000729704292557
0.137403149161 0.000372887750509
0.151879436346 0.00801183086009
0.172360024393 0.0133813636755
0.184198173325 -0.00172838211474
0.200673697116 0.00533936869835
0.214635148827 0.0263329087909
0.236398340574 -0.0162778091922
0.251257042322 -7.2224851315e-05
0.267335558376 0.0146687239918
0.28412124225 0.00494831653
0.312981941403 -0.0013040283569
0.331565300511 -0.012446289416
0.345580125775 -0.00237961794974
0.353918132362 -0.01356952972
#60
-0.422884848999 0.0194770877379
-0.41386432057 -0.0107106633291
-0.391246814776 0.0522781030582
-0.369972927423 0.0538601123183
-0.343379480618 0.0445914689594
-0.328899459363 0.0399552347929
-0.312663817119 0.0344670705673
-0.291916513326 -0.00489085273293
-0.281510997488 0.0173142429379
-0.268940236122 0.0766862914097
-0.249877959515 -0.0209050304929
-0.2357591736 0.044042899005
-0.205779640619 0.0227598658796
-0.188392236386 0.0381790070437
-0.166060359488 0.050218277494
-0.151156379349 -0.00598269076091
-0.139651686053 -0.00976204020726
-0.125791195306 -0.0216652416733
-0.113305138784 -0.0363212495631
-0.106855456812 -0.0113698612777
-0.0961493577386 0.029746768183
-0.0859354645709 0.0123993782696
-0.0683024899396 0.00602448548221
-0.0543910542563 0.0196683109512
-0.0444941276785 -0.00914328636612
-0.0299710505094 -0.0205846892869
-0.0172885521464 0.0324703619958
0.000609834658849 0.00701826427661
0.0114863555214 -0.0533950642806
0.027821764082 -0.0247073092462
0.0385315330462 0.0119749180961
0.0447227495501 0.0117113065079
0.0544995531693 0.0411988812015
0.073252068482 -0.0351629107267
0.0858430132791 0.00563201014745
0.0935363448231 0.0211870764287
0.109623863509 -0.0251982856453
0.122892726905 -0.0381312589315
0.138624212681 0.0136647100263
0.148486947397 0.0271671708566
0.172274212637 -0.00255682056285
0.189610924992 0.0206791478807
0.204853525891 -0.00831468893577
0.226520297178 0.00629002927861
0.246378429961 0.00371413963883
0.26877661849 -0.0390779908108
0.307603308973 0.00708252393734
0.339397575479 -0.0259988156898
0.36136677164 -0.0224582276679
0.387167113133 -0.00202616858478
#61
-0.394869242755 0.023837001828
-0.387868754162 0.0243447737856
-0.368325266266 0.0442096134676
-0.345316247936 0.0706006883494
-0.324037804008 0.0199378622153
-0.308020943042 0.0337032470173
-0.295426534071 0.0189515390577
-0.275563227752 0.0236213915553
-0.263211342417 0.0224683580572
-0.242134149654 0.0600054104382
-0.22650485891 0.0152832370829
-0.206308464626 0.0773643543572
-0.197014436384 0.0200972793583
-0.183720070532 -0.0187759401124
-0.16955565565 0.0423012961079
-0.147324730912 -0.0556038919779
-0.137451904795 0.0106918977535
-0.125830392683 -0.0185577280262
-0.114284891073 -0.0151168089873
-0.105476518998 -0.00954050387964
-0.0936491052448 0.0395458288796
-0.0777999069413 0.00661861811793
-0.0632960098822 0.0384282521391
-0.0501652399247 -0.0450034847798
-0.0404281136909 0.0463294918598
-0.0235605988858 -0.0130514280211
-0.0116763578526 0.0215189792055
0.00272077835949 -0.0290799106132
0.0151376831186 -0.0145069914828
0.0282600663869 -0.0505394013013
0.0366958577081 -0.0116403188547
0.047793268118 -0.000365390484626
0.0601382907756 0.0312046430267
0.0783975889847 -0.0463597495532
0.093484114466 -0.0434434544247
0.100471498611 -0.0141400036999
0.113364538618 -0.0277471739593
0.121929087504 -0.0275057068367
0.144347787534 0.00721655725205
0.15364683594 -0.0171109041626
0.173318901679 -0.0462566663487
0.189013976694 0.00182889109934
0.208461380989 -0.00770279820345
0.227417458071 -0.026476487341
0.25509774442 -0.0386782881254
0.270865963127 -0.0458891529899
0.308249692008 -0.0210371622204
0.33499137509 -0.0560438436032
0.365260596031 -0.0451686515584
0.391585209125 -0.016910081094
#62
-0.361171373124 0.000436776946302
-0.355764605591 0.0422629178246
-0.335455012475 -0.0116008395805
-0.317563267961 0.0517969151937
-0.302192995387 0.038558710823
-0.291391308357 0.0233408680342
-0.270124210367 0.0143033811504
-0.261292590839 0.0322014928812
-0.245194896014 0.0225618985393
-0.228382997852 0.0353999905901
-0.218384647697 0.0502271103513
-0.197766778777 0.0761825373993
